GIS
1
0.0
3
O
B-NP
I-NP
7
6283 0
4020 0 1
10106 0 1 2
3526 0 2
4308 1
11429 1 2
6999 2
46671
undermining
unavailable
spreading
dismayed
=
?
nextToken=withdrawing
evaporate
e
Add
straining
Probing
undulate
amounted
suffered
besides
nextToken=incoming
enjoined
raging
embody
plotting
perilously
reminds
nextToken=discharges
adjusts
nextToken=Cara
nextToken=exaggerate
nextToken=486-based
Nonetheless
nextToken=property-casualty
nextToken=conscientious
nextToken=licking
resurrect
hindering
quack
Faced
timed
nextToken=waived
became
specializes
jolted
nextToken=seeing
nextToken=Call
fatten
defines
reassert
nextToken=dawn
defined
swells
clouded
nextToken=reimpose
creating
infringe
reckons
nextToken=Hochiminh
nextToken=276,334
nextToken=back-ups
prevented
nextToken=work-rule
nextToken=muddied
torture
reassess
slapped
nextToken=off-balance
punishing
nextToken=oath
nextToken=cyclosporine
adorned
assume
nextToken=worthless
nextToken=Shimizu
nextToken=SPAN
attends
balking
budged
nextToken=ex-dividend
funnel
regulate
nextToken=immediacy
specifically
enter
Finding
Given
nextToken=wander
assure
nextToken=marry
fetch
outlines
nextToken=99.14
outlined
nextToken=8.475
envision
guarded
nextToken=Everyone
nextToken=disclose
possessing
exonerated
underline
nextToken=8.292
nextToken=undermining
paled
nextToken=completing
compare
undemocratic
nextToken=spearheaded
unlike
nextToken=self-incrimination
nextToken=chemical-weapons
withdrawing
astride
constrained
nextToken=behave
taught
grumble
borrow
nextToken=victimized
retrieved
nextToken=Zimbabwe
nextToken=costumed
nextToken=debating
remained
pumped
resisting
pales
nextToken=assuage
Translated
relax
nextToken=potholes
dearly
'm
recalculating
yielded
curry
nextToken=2008-2009
hoping
overhanging
nextToken=specialization
characterized
Altogether
recanted
nextToken=26.23
nextToken=expressing
Walk
balk
suppressed
waving
eloquently
freeing
conspired
nextToken=Masahiro
Equally
regained
wiping
remember
nextToken=kicking
nextToken=Denny
nextToken=enhance
nextToken=steer
inspire
legitimize
nextToken=Immunex
seeks
nextToken=7.962
nextToken=Ernst
expressing
nominate
nextToken=Cetus
nextToken=Takashi
nextToken=6\/2
Whether
nextToken=7.986
admit
foresees
nextToken=steal
foreseen
nextToken=Kyle
eagerly
nextToken=bolted
nextToken=34,000
nextToken=SONG
nextToken=8.325
nextToken=convulsions
nextToken=Staff
nextToken=crippled
nextToken=schizophrenic
across
nextToken=Revised
nextToken=pooled
stir
nextToken=8.337
rebounded
exaggerate
nextToken=31.9
seems
nextToken=pondering
nextToken=Automatic
unwind
spend
nextToken=perilously
Since
nextToken=namely
nextToken=Translated
fabricate
nextToken=Prague
awaiting
nextToken=rebut
nextToken=steeply
nextToken=Winnebago
hamstrung
Be
stung
characterize
Meanwhile
By
skyrocketed
tearing
evaporated
Ca
complements
nextToken=supportive
reassigned
kindly
nextToken=single-A-plus
nextToken=Trinova
nextToken=lift-ticket
nextToken=Isabella
entombed
fails
nextToken=smashed
nextToken=44,877
nextToken=Putting
nextToken=disarm
nextToken=comprising
occurs
IF
IS
nextToken=Hawaiian
nextToken=142.85
If
nextToken=142.70
Is
nextToken=ground-based
nextToken=142.75
nextToken=grips
thoroughly
flies
updating
nextToken=microbes
articulate
nextToken=142.43
graciously
Formally
supportive
nextToken=provocatively
OF
chose
ON
Of
Oh
Or
represented
remain
specifying
nextToken=legitimize
nextToken=Henley
nextToken=evidenced
TO
arriving
nextToken=indict
openly
To
UP
nextToken=solving
reconstruct
sued
nextToken=solicit
occupy
nextToken=family-run
penalized
nextToken=small-scale
Alternatively
effectively
Within
rained
comprising
comfortably
nextToken=augment
beefed
intensify
totaling
nextToken=erupt
proceeded
indebted
nextToken=Provigo
originated
provoke
nextToken=Anyone
exercisable
sunk
sung
produces
nextToken=vogue
nextToken=lump-sum
died
looms
nextToken=revoke
dies
nextToken=Indonesia
nextToken=parkway
nextToken=disdain
voted
ai
extend
fold
blowing
nextToken=paints
unanimously
impervious
nextToken=91-day
implying
be
nextToken=extorting
nextToken=99.35
nextToken=Weirton
ca
Did
nextToken=impervious
nextToken=faulty
nextToken=99.90
do
nextToken=Prop.
intervened
nextToken=withstand
inexplicably
nextToken=Alvin
nextToken=prejudiced
Unable
nextToken=afflicts
nextToken=Managua
nextToken=99.75
contend
nextToken=Asians
recalled
renew
nextToken=99.85
triggered
nextToken=infringe
violently
is
talked
writhing
nextToken=retreating
nextToken=relying
Frankly
nextToken=Anchorage
suggests
nextToken=above-average
nextToken=inform
profited
na
nextToken=enlightening
oh
outlawing
nextToken=Rohm
slashing
choke
adopt
oppose
derided
Additionally
maintains
nextToken=Purchase
liberalized
uh
nextToken=whoever
nextToken=SIBV-MS
nextToken=relinquished
protesting
frightened
approving
summoned
nextToken=overpaid
wo
nextToken=articulate
nextToken=educating
emphasize
teach
subsidize
nextToken=extradited
restricts
Noting
mistakenly
praying
nextToken=updating
nextToken=thoroughly
surrounded
nextToken=awaiting
snaps
bucking
nextToken=Ovonic
rocketed
nextToken=8.575
succeeds
nextToken=attain
create
nextToken=Foxmoor
nextToken=166.9
nextToken=Phyllis
nextToken=tapping
salvaged
challenged
nextToken=2,250,000
nextToken=forgotten
resemble
Adds
squeamish
nextToken=blatant
recognizes
rejecting
nextToken=realign
posing
nextToken=Rancho
nextToken=despair
dragging
nextToken=Toni
nextToken=disingenuous
nextToken=Basil
avert
tracing
FOR
remarked
simmering
wrestle
nextToken=unregistered
departed
inject
debating
nextToken=dumping
nextToken=Sochaux
nextToken=Marty
flashed
nextToken=disinclined
nextToken=Give
understand
vigorously
retrofit
nextToken=cared
favorably
nextToken=destined
nextToken=Volume
nextToken=Norwest
discussed
inconsistent
nextToken=reimbursement
Valued
nextToken=Posted
nextToken=straighten
irked
nextToken=Molokai
nextToken=chess
whipping
lagged
dispense
nextToken=slashing
restoring
appalled
sorely
convey
nextToken=Givaudan
witnessing
nextToken=527,000
nextToken=standardized
lessen
nextToken=Armonk
discussing
earns
nextToken=foreseen
nextToken=Eurostat
Running
huddled
nextToken=begging
convict
nextToken=previews
disclose
entrust
nextToken=girding
reverts
anymore
nextToken=Results
nextToken=beaten
trapped
nextToken=loathed
citing
nextToken=Petrolane
rattle
overhauling
nextToken=Spendthrift
denying
nextToken=Internet
nextToken=witnessing
nextToken=Oracle
unload
nextToken=sideways
deprive
okay
stationed
nextToken=implying
vowed
nextToken=regulating
Quack
nextToken=disband
nextToken=Amcore
repeatedly
tapping
manually
straighten
stimulate
nextToken=Indeed
nextToken=bedevil
solicited
interviewed
nextToken=overhauling
been
nextToken=McKinsey
nextToken=excluding
appreciate
disregarded
nextToken=implement
Pressed
nextToken=appease
lurched
repel
meet
putting
nextToken=plotting
spurned
nextToken=reconsidered
For
fudge
swallowed
nextToken=glowing
Generally
nextToken=Garland
subsidizing
nextToken=aflatoxin
nextToken=Post-Newsweek
nextToken=stirs
dropped
nextToken=non-subscription
melt
surpassed
nextToken=undertake
reached
curtailed
shielded
generalize
nextToken=dentists
nextToken=aggravate
nextToken=low-interest
Obviously
Were
regardless
relaxing
nextToken=home-improvement
reimpose
regulating
shocked
nextToken=suspend
Unknown
nextToken=Stevric
necessitated
Starting
nextToken=riots
reacting
fret
plows
faked
afraid
HAS
crumble
streamed
replacing
impassively
nextToken=Anchor
inspect
expires
jumped
nextToken=Calor
fretting
envisioned
calculating
nextToken=pineapple
professed
spins
nextToken=Waterbury
nextToken=confined
nextToken=crafted
nextToken=intelligent
nextToken=Basel
nextToken=crunchier
nextToken=hide
Get
seize
nextToken=obligated
boldly
undergo
nextToken=Rick
nextToken=swayed
nextToken=fat-tired
nextToken=Cervantes
nextToken=morally
smells
49%-owned
nextToken=Todd
nextToken=punish
nextToken=six-figure
nextToken=Bausch
repay
underscores
subtitled
fleeing
underscored
properly
nextToken=Suggestion
valuing
adapted
shortly
providing
Got
nextToken=abate
nextToken=Knight-Ridder
nextToken=capitalize
communicate
nextToken=eschewed
accede
Predictably
nextToken=smoothly
hesitate
applauded
joining
raged
searching
nextToken=safely
nextToken=skip
shunning
experiencing
shorten
urged
patronizing
urges
nextToken=amaze
filled
nextToken=risen
nextToken=collaborating
nextToken=SoundView
Including
bumble
smashed
absorbed
nextToken=construed
nextToken=closed-circuit
nextToken=fend
coupled
facilitate
nextToken=courting
looked
nextToken=Maury
compiling
frequently
nextToken=necessarily
nextToken=striving
nextToken=peanuts
nextToken=Inspectorate
outweigh
nextToken=steadfastly
Had
shifted
nextToken=cumin
nextToken=undergo
nextToken=defying
nextToken=enjoyable
defraud
prosecuted
screaming
marrying
planted
situated
nextToken=hum
vanished
suddenly
lobbied
poured
nextToken=constructing
nextToken=Centronics
nextToken=obliged
speculated
nextToken=470.80
nextToken=Beaverton
nextToken=generalize
Hit
forgiven
nextToken=Conrail
nextToken=arisen
eaten
omit
nextToken=Nixdorf
nextToken=separated
miscalculated
nextToken=Tibet
nextToken=Glen
nextToken=commercializing
isolate
nextToken=3.26
nextToken=Acadia
nextToken=During
contain
founded
entered
performs
nextToken=Representatives
nextToken=commerce
flocked
nextToken=off-budget
pulls
helps
Instead
depress
nextToken=repaid
nextToken=signaling
Alongside
nextToken=jeopardize
nextToken=repairing
Capitalizing
nextToken=Fitch
reappointed
nextToken=hemorrhoids
brought
composed
embarked
rescinding
nextToken=Buffalo
skewed
sponsoring
falls
nextToken=DEPOSIT
awaits
nextToken=Whether
nextToken=murky
unnerved
preserve
jeopardize
Largely
loses
sells
relying
nextToken=Unfortunately
inflict
vary
nextToken=alleviate
nextToken=phased
nextToken=MGM\/UA
accept
Hoping
redeemed
crippled
surprised
nextToken=sketchy
quell
understate
courted
laughing
declare
nextToken=double-A-minus
claiming
insists
figured
collects
expedite
nextToken=nonsense
hesitant
simulate
nextToken=abused
nextToken=rescinding
provoked
ballooned
nextToken=Petronas
nextToken=awry
When
resembles
eased
nextToken=braced
crashed
comparing
nextToken=remembering
nextToken=Invest\/Net
nextToken=Caution
guarding
nextToken=NewsEdge
nextToken=fiction
studied
standardize
nextToken=Stirling
eases
entwined
spoke
nextToken=traced
shrugged
asserts
nextToken=dangling
would
nextToken=Woodbridge
approves
nextToken=traces
defecting
pummeled
confront
nextToken=Lawrenceville
onto
posTag=LS
nextToken=NYSE
unfulfilled
flown
ensuring
purged
spooked
realizes
loved
nextToken=irrelevant
steered
nextToken=Pinpoint
respectively
nextToken=conceal
nextToken=Kroger
loves
reminded
nextToken=freer
nextToken=pretend
pitted
redraw
improve
nextToken=Xerox
nextToken=unprofessional
nextToken=heed
nextToken=Settle
nextToken=Alceste
inflate
nextToken=scratching
liable
nextToken=LTCB
promote
does
rewritten
consolidate
nextToken=pessimists
outweighed
quit
nextToken=goods-producing
acquires
circulated
Unlike
nextToken=ASCAP
nextToken=brutally
nextToken=pedal
resistant
nextToken=drapes
nextToken=Reno
licking
manage
nextToken=capitalizing
nextToken=successive
conducts
imitated
incur
nextToken=Tripoli
nextToken=persuasively
provide
Smiling
nextToken=whipping
aided
nextToken=interfering
dole
abandoning
nextToken=leveraged-buy-out
recognizing
nextToken=Rockford
Like
done
proclaims
nextToken=7.227
affirmed
amply
tacitly
nextToken=piped
nextToken=Mahler
preventing
Compared
Note
nextToken=entice
Called
existed
annoyed
nextToken=treating
nextToken=Champion
involve
Shortly
cheated
inching
vehemently
nextToken='em
With
miss
busily
nextToken=conjunction
nextToken=skipping
interpret
nextToken=sinking-fund
recommends
nextToken=unresolved
convert
Ever
nextToken=5.75
nextToken=Should
nextToken=overstate
inserted
nextToken=clouded
advocated
nextToken=balking
vividly
unseen
nextToken=offend
convene
nextToken=budge
spurred
busier
nextToken=farm-product
depicted
stacking
messing
interpreting
nextToken=paralyzed
nextToken=provoked
comprise
gunned
receives
invested
nextToken=evenly
augment
toppled
swamp
nextToken=laying
associating
nextToken=irradiated
pointedly
Complying
nextToken=Merck
knocks
ranged
nextToken=wasting
disclosing
nextToken=71%-owned
muddied
endanger
nextToken=Convex
reliably
nextToken=laughed
nextToken=thrown
nextToken=Fiscal
relating
linking
worsened
toward
among
galvanize
nextToken=destroying
churn
defended
believes
believed
include
nextToken=theirs
sends
nextToken=industry-specific
balked
nextToken=Havana
nextToken=introduce
prepares
nextToken=Schroders
nextToken=Each
risk-free
raping
contaminated
fared
nextToken=Allentown
reversing
nextToken=unwilling
nextToken=Seagate
Putting
steeply
forbidding
Worse
discriminating
bored
soaking
nextToken=arranging
nextToken=curbed
dumped
nextToken=hoses
chiefly
visited
detected
swear
nextToken=MarCor
responsibly
nextToken=n't
driven
nextToken=grabs
against
nextToken=Enserch
punished
nextToken=tolls
cashed
nextToken=inflict
portends
nextToken=extort
maximizing
nextToken=enact
dispelled
nextToken=shorter-term
dictate
stepped
nextToken=Combustion
manifest
Led
overreacting
Let
eliminated
nextToken=distributing
hampering
eliminates
nextToken=indifferent
rallied
nextToken=privatize
recommend
nextToken=Playtex
sneaked
stayed
understood
supported
nextToken=preferably
nextToken=Tivoli
reopen
discontinuing
conquer
locking
battled
nextToken=replacements
delivers
endured
depends
nextToken=exporting
limiting
Hence
nextToken=mitigate
prevail
nextToken=Willie
nextToken=unprepared
nextToken=Thrift
enabled
confuse
Without
nextToken=Mochida
enables
nextToken=hyperinflation
hampered
nextToken=undo
infringing
nextToken=appalled
nextToken=mightily
nextToken=time-consuming
borne
keep
nextToken=consolidate
determines
deserves
nextToken=Candice
nextToken=displaced
diminishing
nextToken=so-so
nextToken=41.60
nextToken=non-Japanese
investigates
nextToken=adamant
nextToken=indebted
investigated
promoting
nextToken=deferring
nextToken=Dillard
nextToken=idled
nextPosTag=LS
nextToken=High-grade
relinquish
topping
drifted
fraudulently
assuage
fueled
nextToken=confronted
Hello
accounted
celebrating
portray
nextToken=Vesoft
nextToken=womanizing
condone
nextToken=7.282
commenting
nextToken=mop
overturn
nextToken=nerdy
confirms
nextToken=nerds
nextToken=UNIX
Although
kept
wedged
assign
renegotiate
Throughout
widen
indefinitely
contended
greeted
Probably
nextToken=WTXF
nextToken=laches
Encouraged
nextToken=compacted
termed
Playing
nextToken=enhancing
nextToken=calculate
concurred
nextToken=Retailers
faltered
confer
drew
nextToken=uncharacteristically
periodically
grabbed
nextToken=Betsy
nextToken=westward
nextToken=winding
nextToken=viciously
blew
nextToken=subvert
assist
threatens
nextToken=hospitalized
praised
ensure
nextToken=unadited
expects
pre-registered
nextToken=mastered
nextToken=sprung
nextToken=Married
nextToken=intimidating
Saying
Insisting
instrumental
nextToken=exempted
nextToken=plentiful
nextToken=eroded
reveal
nextToken=stacking
drum
ambushed
nextToken=Ikegai-Goss
Usually
asserted
nextToken=doomed
nextToken=Things
nextToken=terribly
nextToken=Hymowitz
clutching
nextToken=la-la
considers
allowing
Also
underwrites
plagued
govern
begins
framed
nextToken=worsened
nextToken=employee-benefit
nextToken=unclear
nextToken=accrue
nextToken=stripping
costumed
arrives
acquitted
wields
arrived
speaks
echoed
discuss
nextToken=Avondale
Unless
recycles
revise
preserving
Above
remove
compiled
realign
perform
nextToken=broadening
nextToken=Principal
nextToken=reassess
revive
nextToken=Isetan
nextToken=disappointed
Counting
engaged
integrating
indicating
Among
nextToken=pollsters
nextToken=amok
reaffirming
nextToken=misinterpret
nextToken=attaching
suspend
nextToken=730,070
nextToken=enlisted
nextToken=pharmacies
nextToken=subsidizing
nextToken=echoing
initiated
unclear
represents
nextToken=forgiven
Through
nextToken=impassively
forfeit
nextToken=reassert
nextToken=mellow
nextToken=assassinate
fantastic
Undeterred
nextToken=Jayark
recognize
nextToken=downtime
echoing
Would
routing
quacks
receive
equate
Amid
attracts
realize
Figuring
Nor
nextToken=ugly
nextToken=Pravda
predates
nextToken=inter-American
repurchasing
nextToken=Rage
nextToken=broadened
pushy
nextToken=oat
striving
nextToken=drunk
identifies
nextToken=reconstruct
lately
nextToken=stave
nextToken=inexpensive
sliding
extradited
employs
consider
nextToken=345-47
nextToken=confiscating
nextToken=Rubbermaid
induces
nextToken=Commons
nextToken=Rank
nextToken=41.76
substituting
resurfaced
marking
nextToken=Avalon
nextToken=rivers
nextToken=layers
happen
sparked
evaluating
nextToken=hesitant
comes
nextToken=Kathryn
consisted
committing
tells
nextToken=alas
insulated
nextToken=Nashville
injecting
ashore
nextToken=brown-tobacco
accompany
nextToken=inspect
affects
tame
nextToken=hunky-dory
likened
nextToken=keeping
nextToken=wished
nextToken=biting
nextToken=federalized
nextToken=fulfilling
appease
Off
nextToken=unveil
allege
Aided
nextToken=mid-afternoon
eliminating
serve
nextToken=communicate
nextToken=redeemed
Have
seriously
convenient
uninspired
racked
nextToken=rivets
plowed
luring
appears
nextToken=dents
nextToken=expedite
ranked
overturned
helplessly
funneling
provocatively
Says
nextToken=updates
loathed
entitle
mastered
outfly
nextToken=locking
bribed
girding
beforehand
nextToken=re-establish
celebrate
slept
guessed
nextToken=erasing
swept
nextToken=Revlon
surfaced
ratified
eschewed
nextToken=prevalent
welcomes
briefly
risked
welcomed
nextToken=grass
embodied
nextToken=employing
nextToken=disappointingly
establishes
sympathize
caused
nextToken=Prior
hovered
afflicts
nextToken=irresponsibly
nextToken=Damascus
nextToken=writhing
nextToken=environmentalism
solicit
fostered
Furthermore
praising
solving
accommodated
nextToken=thwart
conferring
nextToken=disturbed
westward
nextToken=provoke
nextToken=diminishing
scorn
stabbed
nextToken=pensions
topple
posted
blamed
nextToken=preclude
breathed
mitigate
nextToken=sustainable
spearheaded
steadied
scour
moved
1,012
nextToken=overthrow
escaped
irresponsibly
contiguous
groans
scrambling
nextToken=malice
prevent
appended
nextToken=SoftLetter
incapable
nextToken=Brantford
nextToken=awhile
nextToken=stifle
nextToken=renegotiate
nextToken=worn
retain
nextToken=Calgary
nextToken=Willkie
nextToken=BanPonce
tended
nextToken=sided
nextToken=inexorably
bode
conducted
nextToken=Josephine
nextToken=quadrupled
slips
nextToken=on-line
interfering
lamented
wielding
disposing
nextToken=expecting
nextToken=feedlots
mount
nextToken=reshaping
nextToken=161.5
nextToken=Datapoint
noticed
bowed
imprisoned
Look
nextToken=aiming
nextToken=Connie
overlooking
experimented
nextToken=disorderly
kicking
nextToken=self-sufficient
legalizing
oust
nextToken=Where
reorganize
erasing
nextToken=7.875
heighten
criticizes
nextToken=renovate
protect
criticized
born
bore
nextToken=presenting
nextToken=reforming
nextToken=thermal
affecting
understands
nextToken=Charlotte
nextToken=Please
treating
completing
extracted
nextToken=revising
suffer
nextToken=Then
nextToken=They
clashed
switched
smoothly
nextToken=cross-connect
nextToken=unforeseen
nextToken=Princess
courting
nextToken=anew
nextToken=likened
splendidly
nextToken=ensuring
nextToken=undone
nextToken=waiters
nextToken=punished
confined
Succeeding
trudging
bound
retained
nextToken=patronizing
convinced
anti-competitive
reduce
buffeted
spurted
nextToken=ruling-party
reconsider
preferring
nextToken=marrying
nextToken=Queensland
hopefully
implementing
trotted
waiving
toying
nextToken=usurp
nextToken=Somalia
nextToken=This
nextToken=cowards
nextToken=depriving
nextToken=curbing
wobbly
chided
reinstate
nextToken=define
attests
yanked
nextToken=endanger
chides
computerizing
nextToken=trampled
nextToken=exiled
Oddly
nextToken=non-residential
nextToken=2003-2005
manages
wooing
garner
instantly
re-examine
doing
nextToken=rid
nextToken=word-processing
Inside
rebuffed
double-A-minus
applauds
nextToken=HDTVs
inched
aligned
mailed
benefiting
nextToken=entwined
nextToken=Gradmann
nextToken=gotten
nextToken=enforcing
nextToken=merging
nextToken=Tariffs
nextToken=admitting
suspending
nextToken=coordinated
towards
wraps
nextToken=Kobe
nextToken=whichever
flunk
nextToken=nominate
nextToken=callable
nextToken=Beirut
topped
tends
nextToken=Grumman
conceal
require
magnified
squared
nextToken=satisfy
concede
nextToken=projecting
nextToken=vanish
rejects
nextToken=reruns
connect
rescind
ordered
violating
sustains
predicted
owes
nextToken=Pepperidge
abated
fetchingly
owed
projecting
nextToken=funneling
nextToken=rye
dolce
motivate
nextToken=dispatch
nextToken=mid-September
definitively
nextToken=IATA
Ultimately
nextToken=fingerprint
struck
nextToken=computerizing
frankly
ascending
nextToken=Danvers
owns
disapproved
including
quipped
indistinguishable
nextToken=disenchanted
nextToken=converting
respond
nextToken=impatient
nextToken=per-capita
contrasted
Comes
nextToken=repainted
weighed
tear
attach
occurred
masquerading
replaces
anxiously
replaced
nextToken=drum
registering
reflecting
nextToken=Spokane
premiering
undertook
nextToken=Ogden
enlisted
suited
nextToken=entertained
nextToken=restrain
Traditionally
nextToken=Interpublic
nextToken=Dalbar
nextToken=erratically
stumbled
ostensibly
nextToken=translate
nextToken=accede
imagined
nextToken=laughter
attain
recounted
submitting
nextToken=21.44
nextToken=History
nextToken=midmorning
nextToken=Scotland
tell
squarely
slashed
keeps
accustomed
unethical
flattened
erratically
creates
Say
tend
scoops
endowed
nextToken=Dai-Ichi
nextToken=Kleinwort
tolerate
resent
nextToken=penetrated
Otherwise
nextToken=Because
nextToken=Being
examining
nextToken=forgiving
mentions
transported
stealing
nextToken=tacitly
nextToken=loosen
nextToken=looser
concocted
nextToken=securely
believing
adamant
nextToken=Edisto
nextToken=authorize
diversify
nextToken=unanimous
forked
nextToken=197
ignore
nextToken=184
nextToken=bribing
expands
nextToken=leaping
nextToken=Carnegie
overboard
callable
invincible
nextToken=138
nextToken=good-natured
nextToken=sue
nextToken=Despair
nextToken=pressuring
nextToken=tendering
bowls
nextToken=basing
nextToken=Husker
bumped
liked
opposes
nextToken=piggybacking
includes
dispose
nextToken=Sutro
included
opposed
nextToken=Nationwide
inform
observes
execute
transporting
examine
nextToken=sterile
nextToken=Kyoto
nextToken=maquiladoras
exploiting
sever
cautioned
disrupt
achieving
nextToken=problematic
censored
nextToken=damping
raped
nextToken=Students
profiting
routinely
nextToken=hedgers
emphasizing
nextToken=Allied-Signal
nextToken=Saint-Saens
nextToken=Going
nextToken=underperform
nextToken=milestones
nextToken=Lorimar
indict
nextToken=Knopf
nextToken=Exit
lingers
portraying
verify
exists
nextToken=Akzo
off-base
subdued
nextToken=new-product
nextToken=bumble
nextToken=bubble
nextToken=wage-earning
dismissing
revising
nextToken=Ramtron
insure
piggybacking
sipped
nextToken=Viroqua
decries
nextToken=organ-transplant
instead
underscoring
anticipate
markedly
ignoring
agrees
nextToken=unfortunate
nextToken=82.2
nextToken=Aberdeen
good-natured
nextToken=1.8300
nextToken=assure
devastated
proffered
learn
monopolize
exploit
addressing
nextToken=294
bottomed
nextToken=alleviating
abandons
vetoed
nextToken=bending
complained
nextToken=unobserved
lined
barring
nextToken=Have
nextToken=damped
wanting
explode
nextToken=244
nextToken=fantasize
nextToken=erect
hatched
nextToken=gold-mining
spilled
administer
declares
tucked
Try
shall
nextToken=shorter
nextToken=shorten
substituted
nextToken=comedian
outnumbered
nextToken=panned
nextToken=231
nextToken=1.8340
declared
nextToken=Westpac
relieve
complying
rated
nextToken=heralded
nextToken=1.8355
nextToken=1.8353
maintain
ruminated
differently
nextToken=budged
nextToken=Valhi
nextToken=waive
nextToken=paper-company
nextToken=buckets
nextToken=Bethlehem
discovering
nextToken=M-Whatever
nextToken=proudly
nextToken=demolishing
recovered
nextToken=Catherine
incorporate
sounded
unattractive
nextToken=Branford
Theoretically
postponed
ensures
quickly
logged
nextToken=Sidhpur
nextToken=Consumers
nextToken=dismantle
nextToken=however
explore
nextToken=Unless
happened
nextToken=Bozell
opting
commercialize
hangs
popping
contribute
Periodically
unfairly
leans
diminish
nextToken=Misawa
nextToken=twisted
nextToken=restart
nextToken=acquitted
nextToken=collateralized
nextToken=reversing
nextToken=predictive
heralded
nextToken=substituted
unfit
observe
furnish
nextToken=Pymm
preceded
nextToken=rebuilding
Though
nextToken=guaranteeing
nextToken=liquefy
nextToken=censored
nextToken=4,830
nextToken=flocking
anti-white
nextToken=accelerate
nextToken=markedly
achievable
nextToken=Amax
contemplate
unaware
dismissed
nextToken=emphasizing
announce
gave
become
accrue
sending
nextToken=Japanese-Americans
inflating
nextToken=Transgenic
knew
irreparably
impeded
reaped
nextToken=macho
nextToken=326
nextToken=1.8200
stipulated
nextToken=318
possesses
nextToken=hobbling
nextToken=curtail
nextToken=bond-price
nextToken=submitting
nextToken=Baa-2
nextToken=anti-white
nextToken=Hostile
nextToken=sealed
stretching
nextToken=412
nextToken=405
nextToken=Said
nextToken=off-base
expire
nextToken=Norwood
nextToken=Interco
nextToken=equity-purchase
dismantle
Actually
risking
biting
ruled
embracing
nextToken=Hasbro
nextToken=Kalamazoo
Oriental
know
changed
nextToken=Pauline
specializing
securing
argue
nextToken=Sara
nextToken=insulated
envisaged
nextToken=extracting
Compare
Officially
nextToken=shooting
nextToken=Hendrik
Adding
forcing
privatize
obliged
nextToken=tame
depended
WHY
addressed
nextToken=insuring
contacted
nextToken=broaden
edged
Therefore
without
nextToken=recoverable
slows
nextToken=mid-August
abetting
authorize
placate
omits
nextToken=Dostoevski
nextToken=literacy
resolved
ruined
nextToken=wet
returned
amasses
gracefully
cleared
suing
nextToken=Jane
sampled
Unfortunately
nextToken=KCRA
complains
amassed
nextToken=opportunistic
nextToken=diversify
nextToken=Goodyear
sagged
write
nextToken=1868
nextToken=zeroing
harshly
install
braced
restrict
nextToken=What
prematurely
buoy
heading
nextToken=acknowledging
prevents
nextToken=dazzling
nextToken=late-payment
rejoin
beneath
unite
matter-of-factly
nextToken=478
nextToken=aiding
nextToken=roiling
burn
tied
nextToken=Humulin
wring
backfire
bury
quietly
snorts
unleashed
nextToken=Magnascreen
Married
angered
mute
nextToken=Wachtell
must
resign
retreated
anyway
raking
nextToken=discovering
inhibit
nearing
combining
Writing
antagonize
till
attend
nextToken=bundled
needing
nextToken=resuming
basically
tendering
nextToken=woo
evacuated
nextToken=Mabon
disrupted
Was
quieted
initially
Gradually
panicked
nextToken=ironically
evenly
nextToken=overpriced
co-founded
nextToken=refinance
nextToken=arrange
entice
vows
nextToken=Ethyl
nextToken=violating
viciously
awaited
logically
resist
Why
inappropriately
reveals
hopelessly
carcinogenic
posting
nextToken=beset
determining
lacked
nextToken=Kosovo
advising
nextToken=syndicating
predictably
single-B-plus
abused
dispatch
soften
featuring
killed
nextToken=insurance-company
nextToken=defer
Secondly
enforcing
trailed
deliver
headed
notify
MIG-1
repainted
could
looming
nextToken=572
selectively
British-owned
nextToken=blowing
sooner
accepts
predicts
redoing
forget
eroded
nextToken=castor-oil
nextToken=antagonize
raided
belong
transform
attracting
nextToken=Twelve
mushroomed
Nowhere
nextToken=kindly
Upon
convenes
understandably
extort
nevertheless
nextToken=673
reshaping
nextToken=Radzymin
nextToken=668
Under
nextToken=Quality
wears
coordinates
convened
coordinated
equaling
nextToken=Woolworth
afforded
whenever
nextToken=crimping
nextToken=Warner-Lambert
nextToken=Esso
nextToken=ferociously
fantasize
nextToken=Leisure
decreed
nextToken=armadillos
volunteered
nextToken=inflating
nextToken=disappoint
nextToken=stalked
arise
chastises
nextToken=arouse
nextToken=allay
decisively
nextToken=underfunded
explains
nextToken=Michele
nextToken=nurses
forgot
nextToken=spares
nextToken=MIPs
nextToken=swapping
according
nextToken=Nissho
hobbling
staged
nextToken=Swissair
shakes
shaken
nextToken=non-performing
nextToken=Temple
sprinkle
nextToken=post-1997
intelligently
nextToken=Bancroft
primed
nextToken=stimulated
nextToken=apartheid
bolted
crashing
asserting
nextToken=irreparable
nextToken=tempered
nextToken=irreparably
blossomed
behave
unites
nextToken=Liza
nextToken=acute
nextToken=incumbents
nextToken=Omnicom
preoccupied
promptly
nextToken=Fidel
Indeed
removed
removes
stimulated
nextToken=694
reap
nextToken=funnel
amplified
prompted
nextToken=thereby
collect
nextToken=Those
confiscated
predict
nextToken=non-recurring
nextToken=redeeming
nextToken=SmithKline
nextToken=8.56
nextToken=8.55
nextToken=8.52
nextToken=Yamatake-Honeywell
nextToken=8.60
containing
noting
nextToken=8.65
nextToken=8.62
nextToken=8.61
nextToken=Rupert
completes
nextToken=demoted
accuse
nextToken=Retired
nextToken=8.35
nextToken=8.33
nextToken=8.31
nextToken=8.30
Often
releasing
nextToken=8.38
taken
takes
strenuously
nextToken=783
nextToken=8.45
nextToken=Dresdner
nextToken=8.42
nextToken=8.40
reinforcing
nextToken=785
nextToken=8.10
nextToken=723
nextToken=8.17
nextToken=8.15
nextToken=8.23
nextToken=8.22
nextToken=8.21
nextToken=8.28
nextToken=8.27
nextToken=8.26
nextToken=8.25
shuttered
attract
Leave
nextToken=dearly
nextToken=unchanging
arrive
infringed
resolving
nextToken=8.01
nextToken=8.00
semiannually
infringes
nextToken=oblivious
nextToken=8.08
nextToken=8.06
nextToken=8.05
nextToken=8.04
nextToken=8.03
nextToken=Pfizer
severely
embroiled
rely
nextToken=breathed
nextToken=Desktop
consulted
leery
inversely
nextToken=whack
nextToken=skipper
nextToken=adjournment
interrupting
crafted
nextToken=8.70
nextToken=unfulfilled
subvert
nextToken=8.82
gets
nextToken=8.85
nextToken=Enviropact
Elaborating
nextToken=1900
afterwards
nextToken=1908
nextToken=24,000
insulate
nextToken=convey
instructed
nextToken=minimizing
nextToken=79.03
nextToken=shivers
renovate
whacked
nextToken=circumspect
nextToken=Winchester
directed
reviewing
nextToken=disposing
nextToken=1978
provoking
nextToken=Colo
nextToken=positively
reconstructing
assembling
attracted
nextToken=1958
focuses
misses
nextToken=1963
nextToken=1964
nextToken=1965
nextToken=1960
nextToken=1969
nextToken=Everybody
nextToken=1939
nextToken=1935
sailed
nextToken=summarize
nextToken=Yogi
levied
directly
nextToken=profiting
nextToken=resilient
misstates
pokes
nextToken=Coin
nextToken=1948
establish
nextToken=propel
misstated
proclaim
attached
nextToken=1953
nextToken=1951
Before
consumed
nextToken=documenting
nextToken=liquidate
nextToken=transferable
nextToken=Weisfield
squinting
nextToken=1926
nextToken=Atsushi
scored
nextToken=1932
reclassified
nextToken=solved
nextToken=Martha
nextToken=big-city
nextToken=overly
wiped
laying
nextToken=therein
vacated
appoint
nextToken=Lima
boasts
nextToken=reaffirming
weakens
nextToken=lessen
nextToken=Corn
nextToken=Halsey
nextToken=liquid-crystal
nextToken=hopelessly
nextToken=None
Recently
aired
rescheduled
buoyed
lightly
positively
nextToken=injecting
nextToken=Within
impress
nextToken=electrochemicals
nextToken=normalcy
expect
nextToken=reinforce
nextToken=neurologists
regards
nextToken=filtering
nextToken=guarded
nextToken=Bataan
enforce
nextToken=small-denomination
securely
routed
played
nextToken=hoping
nextToken=puttable
nextToken=8-9
co-sponsored
stabilized
nextToken=hostage
nextToken=Crazy
consisting
thank
nextToken=overturn
impeached
capitalizing
nextToken=tardy
nextToken=Mussolini
versus
nextToken=pores
recession-resistant
nextToken=Obviously
nextToken=trailing
resurrected
nextToken=abandoning
hates
confided
unreasonable
nextToken=arson
Consequently
nextToken=scratch
nextToken=ashore
teaches
realizing
chooses
tapped
spoken
nextToken=mulling
traveled
nextToken=unconcerned
gotten
unconcerned
nextToken=eagerly
nextToken=1,250,000
nextToken=cooperate
nextToken=metal-forming
Elected
nextToken=Honduras
fraught
refused
refuses
laboring
detained
nextToken=stimulating
unable
nextToken=mired
labeled
employing
nextToken=excerpts
nextToken=derring-do
moderating
Describing
enhance
tentatively
contemplating
nextToken=Thank
allocate
Could
nextToken=Sometimes
nextToken=potted
meant
13.35
nextToken=Coogan
drafting
nextToken=curtailed
single-A-plus
nextToken=refillable
advocating
vertically
nextToken=yanking
nextToken=Kenji
behaves
penetrate
signaled
nextToken=scaring
persuaded
earn
behaved
interfere
nextToken=nationalized
nextToken=Wertheim
Needless
smiled
eats
nextToken=pleading
pave
nextToken=Oranjemund
brings
regarding
nextToken=renounce
tackle
requesting
pays
nextToken=Polly
Already
mimic
whereas
inspecting
whereby
nextToken=disgusted
supplied
nextToken=guarding
gearing
Likewise
tacked
terribly
unprofessional
nextToken=Despite
nextToken=pollinate
nextToken=deflect
nextToken=Comair
ushered
nextToken=Mitsuru
nextToken=disruptive
sniffs
nextToken=Harpener
enters
nextToken=expediting
nextToken=Pong
refuted
scratching
nextToken=cramming
nextToken=machetes
avoided
nextToken=retirees
consistently
nextToken=disclosing
outlining
into
resuming
crumbled
nextToken=proclaim
prosper
appear
nextToken=replete
displaying
nextToken=Cigna
nextToken=battery-operated
nextToken=transplanted
nextToken=advancers
overlook
forever
nextToken=Conseco
nextToken=imposing
Curiously
knowing
nextToken=drifting
nextToken=inject
nextToken=abetting
swallow
revisit
nextToken=valuing
evade
discover
nextToken=ceaselessly
peruse
alerted
cleaned
nextToken=embroiled
nextToken=Dunkin
nextToken=Silver
irritates
nextToken=guardian
saved
spotting
saves
marched
nextToken=tuned
Ironically
flocking
nextToken=Accessories
Taken
nextToken=Lincoln-Mercury
nextToken=abolish
wrote
insist
nextToken=situated
defied
dating
toil
nextToken=prevailing
jettisoning
Hold
rife
told
nextToken=Sovran
foiled
nextToken=metrics
crossing
nextToken=Polyconomics
indicates
nextToken=single-B-minus
congratulated
nextToken=embracing
Soon
nextToken=anti-discrimination
nextToken=violently
took
nextToken=16.9
nextToken=Erik
stimulating
nextToken=forgetting
define
tore
engage
nextToken=11.95
echo
nextToken=recalculating
chaired
Clearly
nextToken=Medco
exchanged
supplying
crimping
Thereafter
ripe
protested
nextToken=antithetical
arouse
tout
sacking
swung
nextToken=cleverly
nextToken=Honolulu
destroying
shied
tempered
lived
nextToken=chided
nextToken=lengthened
nextToken=researched
nextToken=tenfold
discard
nextToken=higher-priced
nextToken=cross-ownership
give
touting
nextToken=adjusting
nextToken=disabilities
hospitalized
reverberating
nextToken=Monterrey
nextToken=11.04
reclaims
springing
constantly
earned
letting
refers
indifferent
screamed
weigh
nextToken=preoccupied
collaborated
nextToken=allergies
spurring
nextToken=high-pressure
nextToken=Toronto-Dominion
dipped
bring
nextToken=Torstar
trailing
nextToken=diminish
ordering
rescued
obligated
deleted
nextToken=commenting
haunt
ceaselessly
nextToken=ruining
exclude
nextToken=airplane
nextToken=Location
nextToken=Crestmont
arose
identifying
modestly
disbursed
publish
counted
nextToken=subtitled
nextToken=modify
nextToken=okay
nextToken=Mexicana
ferociously
weaving
hobbled
nextToken=unnerving
torched
confronted
nextToken=intolerable
expand
investigate
embezzling
allows
recover
determine
nextToken=heavy-handed
Settle
Fueling
accruing
refocus
nextToken=sparking
disturb
aiding
persist
nextToken=intolerably
speculate
nextToken=fleeting
nextToken=Leonid
nextToken=framing
abolished
bluntly
nextToken=infringing
extract
nextToken=pre-registered
nextToken=propose
nextToken=realizing
shaped
nextToken=decreasing
settles
nextToken=laboring
nextToken=Rhode
nextToken=takeoff
depresses
nextToken=Brenda
exist
nextToken=melt
nextToken=awake
nextToken=forbids
relentlessly
unravel
nextToken=risk-free
avoiding
climbing
nextToken=lotteries
blunted
nextToken=mega
conveyed
nextToken=E.R.
confronts
nextToken=gratuitous
wasted
pores
nextToken=lathes
rewrite
nextToken=market-moving
nextToken=eclipse
shoving
nextToken=concocted
sharpen
tardy
nextToken=rightly
nextToken=selectively
belonging
nextToken=indistinguishable
nextToken=provoking
nextToken=Quincy
erased
nextToken=Their
unnerving
nextToken=crumbling
underwritten
nextToken=Progressive
nextToken=deja
pollinate
nextToken=standardize
ceased
Essentially
nextToken=unethical
nextToken=Demand
nextToken=conferring
doubted
shaved
piecemeal
bought
requiring
retains
prohibit
broadening
foresee
imposes
nextToken=reviewing
nextToken=1.8578
hurling
redeem
nextToken=sunshine
kicked
nextToken=reconstructing
nextToken=Rexall
digesting
nextToken=verify
nextToken=Nashua
Thank
landed
began
nextToken=ceded
steadfastly
fizzled
nextToken=Inside
nextToken=flee
nextToken=dismiss
squaring
guaranteeing
shaping
nextToken=Jeffrey
mutters
nextToken=shove
nextToken=Verdi
subsided
nextToken=notoriously
accountable
nextToken=Omron
disappears
nextToken=vanished
nextToken=111.48
complaining
documenting
nextToken=Oriental
gravely
endorse
nextToken=teaming
hammered
meets
unfolds
awhile
mired
conditionally
fueling
nextToken=TransAtlantic
damped
nextToken=These
uncharacteristically
suffers
nextToken=accountable
nextToken=benefiting
summarize
defeated
nextToken=overboard
prescribe
hurts
nextToken=There
nextToken=1466.29
thrusting
applying
fulfilling
glad
nextToken=relinquish
nextToken=motorized
nextToken=1.8415
i.e.
populating
nextToken=Denmark
represent
compete
nextToken=spur
nextToken=Healthdyne
nextToken=noncompetitive
explain
nextToken=amplified
nextToken=1.8485
adversely
nextToken=homosexual
gathered
nextToken=betting
nextToken=anxiously
nextToken=experimenting
nextToken=Leaseway
nextToken=accommodated
nextToken=840.8
nextToken=jettisoning
nextToken=reformulated
insuring
vowing
polled
nextToken=antiquated
evident
writes
nextToken=laced
nextToken=1.8470
nextToken=computer-aided
puttable
nextToken=Crete
fashioned
distinguish
nextToken=Every
kidnapped
inflicted
intolerably
knocked
nextToken=well-entrenched
unless
nextToken=suited
abandon
nextToken=flourish
intolerable
afterward
restrain
nextToken=Blockbuster
redeeming
nextToken=Ekco
Referring
re-establish
nextToken=understandably
nextToken=R.D.
nextToken=transferring
nextToken=Nikko
nextToken=penetrate
during
nextToken=MADD
implanted
agree
nextToken=orbit
nextToken=R.R.
Buried
buoying
nextToken=less-developed
nextToken=reappointed
prefer
nextToken=restore
struggled
struggles
misled
nextToken=racking
nextToken=worsen
nextToken=resolving
crept
unveiled
nextToken=oncogenes
aiming
normally
nextToken=Endangered
nextToken=drastically
endure
robbed
nextToken=contiguous
nextToken=washed
nextToken=bail
agreeing
Baa2
nextToken=recklessly
add
single-handedly
outperformed
embrace
cleverly
nextToken=Pretoria
overlooked
concedes
Made
pleading
connects
reinforce
conceded
nextToken=in-state
presenting
depleted
Meeting
nextToken=imprisoned
nextToken=opting
circumspect
nextToken=unloading
Wrong
nextToken=Aruba
alleging
complement
nextToken=Wash
nextToken=69-26
singled
resold
nextToken=reorganize
commented
nextToken=Nesbitt
tuned
nextToken=Boehringer
earmark
scrapping
nextToken=Norris
nextToken=scuttle
broke
nextToken=taxed
Make
nextToken=Anaheim
nextToken=food-importing
mandating
came
stirred
describes
ask
nextToken=Bolivia
nextToken=Until
ate
nextToken=non-violent
nextToken=compiling
nextToken=squinting
approaching
defend
nextToken=inundated
nextToken=stir
'til
pledged
loosen
nextToken=comparing
nextToken=Alcan
nextToken=swallowed
nextToken=eloquently
nextToken=2791.41
lends
nextToken=splendidly
aggravate
nears
alleviate
choking
described
nextToken=Morgenzon
unraveled
forgiving
nextToken=Lenny
nextToken=curious
nextToken=Abby
nextToken=BDDP
nextToken=preserve
prosecuting
nextToken=forth
nextToken=re-examine
defrauded
nextToken=bucking
drags
nextToken=evaluating
nextToken=Kuwait
nextToken=4,400
nextToken=impeached
nextToken=PegaSys
submitted
nextToken=Anglo
nextToken=1.8667
facing
poses
nextToken=samurai
nextToken=suspending
swapping
shunned
nextToken=soloist
resumed
explained
await
nextToken=Bonwit
demolished
depicts
begin
nextToken=forgo
nextToken=forge
prefers
summarily
reviewed
nextToken=1.8685
redder
alleviating
permanently
nextToken=achieving
ripped
curbed
jacking
handles
encouraged
draws
drawn
plunged
overcome
cooperate
nextToken=enforced
honoring
handled
nextToken=detectable
generate
coordinate
nextToken=bribes
encourages
slumped
weaken
immensely
nextToken=asserting
halved
underfunded
nextToken=rescuers
rode
snagged
sparingly
nextToken=inversely
cease
Sometimes
nextToken=luring
propping
nextToken=patched
begun
nextToken=Cindy
nextToken=Susan
goes
nextToken=Beghin-Say
nextToken=inappropriately
posed
nextToken=miscarriages
destined
nextToken=Miss.
aware
distracted
nextToken=preferring
oblivious
independently
cancel
nicely
costing
nextToken=Unilab
Died
nextToken=unite
nextToken=nowhere
nextToken=anti-cancer
nextToken=reinvesting
laden
entering
reeled
powered
nextToken=G
nextToken=N
nextToken=wring
delivering
gone
walked
nextToken=subways
disturbed
nextToken=1,828,000
depriving
nextToken=Keefe
nextToken=stricter
well-versed
protecting
nextToken=pinpoint
nextToken=Hoylake
nextToken=approving
crunchier
nextToken=non-strategic
nextToken=b
wishing
nextToken=c
nextToken=2,064
nextToken=oversee
nextToken=Aurora
nextToken=IBC\/Donoghue
nextToken=A-2
ceded
nextToken=Ratners
nextToken=greeting
Getting
nextToken=suing
nextToken=2,002
splits
unimportant
worked
nextToken=unimportant
accuses
nextToken=spraying
nextToken=AIW
nextToken=S.G.
directs
nextToken=news-oriented
distribute
nextToken=Kirin
nextToken=B-3
accused
shove
nextToken=Symbol
nextToken=conserve
initiate
shook
nextToken=bracing
nextToken=rampant
nextToken=rugged
angering
construed
jacked
widens
pumping
nextToken=GMAC
replete
reducing
countered
overhauled
nextToken=Deborah
overstated
nextToken=underlined
performed
prevalent
nextToken=delivering
enlightening
shown
nextToken=Pushkin
pointing
concentrating
blind-sided
nextToken=emcee
nextToken=hamstrung
nextToken=copied
nextToken=echoed
touted
reassured
nextToken=deprived
nextToken=skyrocketing
nextToken=MIG-1
nextToken=assert
reinvesting
nextToken=Bouygues
did
die
dangerously
nextToken=favorably
nextToken=Abbott
forgotten
nextToken=Gorillas
inconceivable
renewing
finally
nextToken=Amdura
laced
repatriate
nextToken=AUS
nextToken=confronts
nextToken=overstated
nextToken=Per-share
nextToken=routed
construct
nextToken=aggravated
nextToken=Westamerica
Despite
injected
exceeded
debunk
nextToken=527.39
aggravated
nextToken=Nothing
spawned
dot
pours
knows
lacks
underlined
nextToken=Pakistan
nextToken=ripe
jeopardizes
presage
nextToken=repatriate
nextToken=Seven
nextToken=comforting
dug
commit
nextToken=glued
breached
nextToken=consumer-goods
nextToken=2,120
participated
examined
nextToken=All
mulling
nextToken=Ala
nextToken=rejoin
devote
nextToken=embark
adroitly
swiftly
nextToken=undemocratic
nextToken=Aer
nextToken=equate
nextToken=caustic
apply
nextToken=BIP
separated
disagree
nextToken=stimulate
contends
nextToken=Under
relate
nextToken=hosting
nextToken=refusing
convince
hovering
nextToken=Ada
nextToken=raking
eat
nextToken=EG&G
nextToken=fractured
thinned
nextToken=angrily
streamline
nextToken=first-home
nextToken=42nd
squeezed
six-cent
nextToken=ruined
nextToken=resign
nextToken=likewise
nextToken=compromised
inviting
Meet
nextToken=Esther
extorting
nextToken=Duesseldorf
generates
generated
excluding
nextToken=CreditWatch
nextToken=stranded
nextToken=Adolph
nextToken=literally
nextToken=stacks
nextToken=Strasbourg
Looking
nextToken=harms
packed
nextToken=starving
nextToken=insubordination
nextToken=Axe
nextToken=Axa
nextToken=leathers
nextToken=fruition
nextToken=Making
nextToken=pillows
gradually
nextToken=Ark
educating
forth
keyed
nextToken=one-tenth
Feeling
dispel
weighing
boasted
nextToken=Any
nextToken=value-added
undertake
nextToken=innocents
nextToken=Estee
nextToken=avoiding
nextToken=pointing
nextToken=Bangkok
nextToken=BSB
single-A
nextToken=resisting
reinforces
nextToken=active-matrix
nextToken=Hanoi
nextToken=CMS
argues
nextToken=49%-owned
nextToken=D.C
nextToken=CML
argued
nextToken=cheered
nextToken=CPC
nextToken=insulating
describe
presently
nextToken=feedlot
nextToken=prodding
nextToken=CIM
nextToken=insufficient
materializes
submit
materialized
nextToken=complicate
nextToken=1,859
voiced
Suddenly
grew
attractively
Behind
fought
underwrite
lowers
nextToken=Discounted
taxed
nextToken=Inner
nextToken=Made
bombed
burned
nextToken=abducted
criticize
nextToken=Back
pleased
wondered
nextToken=Baa2
backfired
presented
quoting
nextToken=Ba3
personally
nextToken=CDL
unveil
nextToken=Magazines
Until
nextToken=CDC
From
geared
nextToken=Scientology
nextToken=Bad
greeting
nextToken=U.S.-China
grow
shrink
nextToken=Ba-3
nextToken=Sally
nextToken=excluded
nextToken=squeamish
nextToken=DAT
develops
enabling
nextToken=instituting
Depending
painfully
toured
relinquished
nextToken=gearing
covers
thwart
conserve
nextToken=CVN
flourish
appeared
nextToken=proficient
nextToken=Gillette
nextToken=blind-sided
nextToken=Syria
fluctuated
nextToken=framed
nextToken=discontinue
nextToken=govern
stabilize
nextToken=CSC
plying
nextToken=Cadbury
locked
rushing
Except
somehow
nextToken=Trivest
nextToken=prosper
nextToken=leaking
readily
nextToken=manipulated
nextToken=intervening
nextToken=DPC
rocked
nextToken=FmHA
nextToken=i.e.
nextToken=notify
obtained
nextToken=2,360
nextToken=trim
executed
insulating
nextToken=distribute
exported
analyzed
nextToken=lowering
nextToken=Georgeson
69-26
forgo
nextToken=glad
Please
forge
bolster
suggesting
nextToken=peeled
perpetuate
catapult
disposed
auctioned
belie
nextToken=Takuro
nextToken=overhauled
demoted
nextToken=intensify
nextToken=outsiders
nextToken=co-head
nextToken=2013
nextToken=checked
get
continues
marketed
nextToken=Novato
Primarily
nextToken=DIG
welcoming
nextToken=futures-investment
nextToken=single-A
nextToken=Argus
stranded
nextToken=Cap
nextToken=2002
nextToken=Caa
pioneered
renews
nextToken=DFC
stating
follow
intend
Think
nextToken=unravel
nextToken=busily
fluctuate
devise
Having
nextToken=professionalism
languished
nextToken=EDS
alienating
nextToken=Dad
nextToken=underline
nextToken=decreed
gon
got
nextToken=necessitated
enlarge
nextToken=alienating
nextToken=B2
nextToken=Bowater
nextToken=Ad
nextToken=enjoin
instituting
nextToken=At
nextToken=Krysalis
nextToken=As
Naturally
nextToken=Be
nextToken=empathize
nextToken=CS
regroup
purposely
nextToken=Ca
delivered
hamper
lags
nextToken=impose
heaved
analyze
categorized
accordingly
laid
contending
nextToken=hurting
nextToken=Ga
renovating
nextToken=herbicide
nextToken=Ho
nextToken=He
However
Seeing
nextToken=Namibia
reconcile
nextToken=If
replied
nextToken=DWG
nextToken=It
nextToken=follow-on
nextToken=Yoshio
imposing
cramming
nextToken=Yamaichi
nextToken=Leche
extending
refusing
nextToken=13.32
nextToken=13.35
nextToken=crazy
nextToken=Ky
nextToken=Md
nextToken=Me
want
uncover
nextToken=ERC
induce
wane
nextToken=Mo
nextToken=Usha
nextToken=NL
reminiscent
nextToken=philosophic
Should
nextToken=stabilization
nextToken=distinguish
nextToken=Argentina
nextToken=OK
nextToken=circumvent
nextToken=PS
nextToken=Oh
Once
had
reappraised
guided
has
weighs
nextToken=S$
warn
repurchased
nextToken=short-covering
nextToken=trade-distorting
lowering
Regardless
alike
nextToken=rangers
nextToken=judged
nextToken=So
nextToken=treated
nextToken=superficial
beefing
nextToken=1990-2002
nextToken=UP
having
nextToken=deterrents
doubles
nextToken=Up
nextToken=renovating
doubled
confirmed
Being
nextToken=busier
nextToken=Twins
panned
lays
nextToken=McAllen
nextToken=inconsistent
nextToken=downright
Subsequently
nextToken=Guangdong
diverted
nextToken=Lyon
deserve
nextToken=Den
restore
nextToken=defecting
chew
persisted
nextToken=clumps
nextToken=vacating
nextToken=Could
delighted
distort
dealt
nextToken=Nobody
cited
cites
defrauding
dragged
nextToken=addiction-treatment
underscore
nextToken=justify
drastically
bested
listened
vanish
nextToken=defrauding
nextToken=evade
Occasionally
liberalize
nextToken=divest
nextToken=reap
reckon
nextToken=futures-related
nextToken=Fear
averaged
Elsewhere
self-sufficient
although
hum
Contrary
nextToken=mortgage-interest
chop
nextToken=334,774
boomed
degenerated
stymied
nextToken=tilted
smack
nextToken=rewarding
nextToken=partially
nextToken=Sandy
nextToken=Nagoya
Going
nextToken=15.625
nextToken=harmful
nextToken=Yamatake
outpaced
reflect
nextToken=Before
nextToken=na
nextToken=Prices
nextToken=oh
intervening
Speaking
nextToken=catapult
invite
circumvent
nextToken=Baring
ruin
extends
Does
judging
nextToken=Unitrode
detect
hurting
portrays
reconsidered
nextToken=uh
confronting
nextToken=grounded
erupted
enable
nextToken=us
nextToken=sunrise
besieged
dressed
nextToken=hopefully
nextToken=40.4
nextToken=49.96
nextToken=primed
discontinue
dined
nextToken=innocence
nextToken=FMC
nextToken=spotting
Known
nextToken=Physical
nextToken=Sante
stressing
tossed
nextToken=sacking
mishandled
nextToken=Vitro
enforced
nextToken=straining
nextToken=stalling
nextToken=fueling
invented
recalling
nextToken=peace-keeping
nextToken=relocate
unleash
nextToken=obstructed
nextToken=Paragould
pushes
pose
nullify
nextToken=ineffective
nextToken=Finland
nextToken=unleash
identify
nextToken=Fab
nextToken=NMTBA
pour
nextToken=Fast-food
nextToken=IPOs
pushed
nextToken=Novell
mobilized
repaired
nextToken=Hollister
nextToken=anti-competitive
nextToken=capping
nextToken=underpin
nextToken=similarities
saddled
drained
nextToken=numerically
cite
qualify
nextToken=penalized
nextToken=technologically
constructing
nextToken=soften
nextToken=disturb
nextToken=unharmed
nextToken=endorsing
nextToken=heredity
nextToken=dangerously
erect
sacrificing
testify
using
slammed
investigating
nextToken=falsely
gently
nextToken=Freddie
nextToken=draining
nextToken=Webster\/Eagle
lacking
soared
supervise
nextToken=Caltrans
nextToken=stifling
nextToken=99.1875
leaking
lifted
pondering
Baa-2
renounce
nextToken=GSX
nextToken=immensely
spraying
nextToken=assist
nextToken=rife
nextToken=Just
nextToken=Bechtel
nextToken=Some
waits
nextToken=GPA
nextToken=Comprehensive
nextToken=Pascal
waive
persists
nextToken=condemn
transforms
nextToken=segregated
nextToken=slums
nextToken=276.8
fielded
unfazed
adds
comply
differ
rebounds
nextToken=HHS
nextToken=Leading
wrongly
semi-annually
indicate
nextToken=discard
searched
adjust
vaguely
booked
liquidated
disruptive
nextToken=HEI
outperform
nextToken=529.32
bailed
fulfill
nextToken=Jerome
nextToken=Dana
nextToken=Reunification
narrowed
recommending
alive
gripped
Together
expressly
indirectly
nextToken=Justin
nextToken=rank-and-file
expresses
nextToken=Arkla
restructures
nextToken=MacMillan
expressed
pre-empt
shuts
nextToken=extradition
afloat
demanding
nextToken=Celimene
nextToken=Dain
overthrow
improperly
unduly
hinder
strengthen
faltering
appreciates
subtract
appreciated
nextToken=populous
addicted
nextToken=experiencing
nextToken=home-state
nextToken=undesirable
unloading
banning
leapfrog
oversees
reforming
nextToken=investigating
nextToken=intentional
nextToken=Marcia
broadened
tighten
announcing
nextToken=Hanifen
nextToken=haunt
Keep
nextToken=Lakeland
knocking
describing
condemning
nextToken=uncover
nextToken=outperform
overemphasize
inundated
'll
nextToken=Montreal-based
nextToken=pave
Welcome
derail
nextToken=grapple
nextToken=disintegrating
nextToken=Contemporary
successfully
nextToken=principally
nextToken=Floyd
nextToken=accompany
nextToken=them
hosting
spanning
nextToken=His
throw
're
implement
beset
nextToken=Commerzbank
nextToken=IDS
misrepresented
lent
nextToken=rescind
lend
worsen
enhancing
nextToken=ex-President
expose
nextToken=Floor
nextToken=IBJ
fearing
've
went
nextToken=17.01
nextToken=programmatic
sparking
nextToken=Libya
overbid
discourages
hugely
nextToken=Casablanca
reinvest
nextToken=Hal
discouraged
walks
wreaked
yelling
lets
translated
nextToken=respond
employed
lay
lest
nextToken=Morocco
were
nextToken=incredibly
coolly
nextToken=Unitel
nextToken=kickbacks
nextToken=HelmsleySpear
nextToken=frugality
led
absorb
nextToken=10:30
merge
n't
let
nextToken=anti-nuclear
rendered
enroll
nextToken=Quite
nextToken=risking
nextToken=Audi
nextToken=Iceland
Against
nextToken=canned
admitting
demanded
surely
re-evaluate
develop
nextToken=332.38
nursed
nextToken=Unicorp
nextToken=anticipating
nextToken=right-to-lifers
nextToken=reinstate
cooled
flaunt
nextToken=tripled
Partly
spared
WHEN
remembered
unlawfully
threw
piled
nextToken=How
nextToken=co-sponsored
Taking
nextToken=Joel
prop
prod
nextToken=Louisiana-Pacific
launched
nextToken=importantly
nextToken=herbicides
sparks
nextToken=pushy
relied
banished
reschedule
expediting
relies
nextToken=tighter
nextToken=tantamount
washed
nextToken=bestowed
nextToken=appoint
cooperated
nextToken=combing
attaching
allay
surged
principally
nextToken=dashed
McCain
nextToken=Furukawa
touched
nextToken=Ill
nextToken=hammered
Typically
nextToken=bolstering
regulates
nextToken=Ike
displaced
nextToken=higher-income
seated
nextToken=stiffer
nextToken=nonpublic
blessed
Expect
recoup
nextToken=Coniston
proudly
nextToken=behaving
nextToken=presage
opens
evaluate
nextToken=landslides
may
presumably
technologically
interrupted
becomes
nextToken=underpinned
nextToken=Chuck
nationalized
contrasts
met
nextToken=Calabasas
surges
nextToken=subtract
nextToken=selecting
nextToken=Fanuc
nextToken=at-market
eluded
beaten
invent
nextToken=disposed
eliminate
believe
nextToken=Sens.
nextToken=Matanky
nextToken=nurseries
holds
invest
studying
cooked
injuring
allow
defer
propel
nextToken=advocating
nextToken=explicitly
nextToken=fantastic
flatly
nextToken=consult
mop
eyeing
nextToken=inconceivable
nextToken=Its
nextToken=Aichi
nextToken=About
nextToken=rewarded
alongside
aged
altogether
bombarded
dulled
nextToken=Princeton\/Newport
Echoing
expecting
nextToken=Imo
offset
nextToken=Prospect
nextToken=unfazed
shipped
nextToken=gold-leaf
invaded
nextToken=Piedmont
WILL
educate
pegged
contains
waned
aboard
nextToken=2003\/2007
nextToken=unruly
nextToken=Christies
highlighted
pushing
nextToken=thinned
emerge
Take
incorporates
misrepresenting
Using
incorporated
antithetical
poised
modeled
nextToken=scour
nextToken=MacroChem
nextToken=KLM
nextToken=Brown-Forman
drifting
nextToken=ballots
arisen
attacked
aloft
referred
nextToken=higher-cost
nextToken=evolve
manipulate
nextToken=Designing
nextToken=prominently
crossed
nextToken=weeklies
nextToken=scorn
manufactures
withstand
nextToken=1,015
encourage
nextToken=Mitsukoshi
honestly
clustered
Meantime
nextToken=Christina
urgently
deferring
materialize
telegraphed
reselling
languishing
nextToken=1,012
nextToken=artificial
bestowed
influenced
reaching
pinning
decides
nextToken=Helionetics
nextToken=acquit
nextToken=repossessed
angrily
decided
builds
merging
nextToken=Mineworkers
nextToken=crushed
automatically
nextToken=125,000
patterned
nextToken=Nobuyuki
persuade
resulted
nextToken=Immediate
solved
housed
forgetting
imagine
whack
involving
nextToken=trimming
furthermore
excludes
when
excluded
Hopefully
survived
nextToken=Sleep
concealing
survives
nextToken=segregate
Keeping
nextToken=fundamentally
stressed
nextToken=J.D.
threaten
sweeten
stresses
nextToken=preceded
nextToken=assimilate
acute
dissented
invests
along
nextToken=requesting
Fortunately
nextToken=embarrass
nextToken=mute
nextToken=bury
insures
nextToken=burn
nextToken=Litton
clarify
nextToken=materialize
deduct
Talking
nextToken=Whatever
nextToken=Kia
nextToken=robbed
troughed
nextToken=buoy
exclaims
nextToken=hypnotized
nextToken=Shippers
nextToken=unconventional
dispatched
nextToken=Scotts
acted
nextToken=ignoring
turned
nextToken=elective
eventually
roamed
exploring
rationally
nextToken=Equitec
nextToken=Yields
retrieve
Includes
positioned
Included
voluntarily
nextToken=Trout
bracing
nextToken=drained
Judging
Remember
nods
nextToken=homework
nextToken=stacked
nextToken=Voronezh
regularly
treated
exploded
unencumbered
opt
solve
nextToken=catfish
nextToken=embezzling
scoffs
nextToken=interrupted
lied
succeed
nextToken=marketable
nextToken=bound
profitably
arranging
dilute
reasserting
come
nextToken=compensate
conceived
nextToken=stationed
cope
nextToken=moderating
nextToken=8:30
nextToken=Avon
infuse
Born
owe
connecting
nextToken=castigating
nextToken=smokers
downgraded
bitterly
proposes
nextToken=evaluate
researched
lengthened
nextToken=Ashton-Tate
slowed
nextToken=starters
nextToken=IFAR
nextToken=Fatah
calculate
Consider
seizing
achieve
nextToken=However
nextToken=Lt.
plentiful
wipe
overwhelm
nextToken=N.Y
exceed
nextToken=unlike
nextToken=Finnair
nextToken=N.M
nextToken=N.J
nextToken=MMS
inquired
Compiled
nextToken=MLX
nextToken=N.C
nextToken=N.D
permitting
nextToken=listless
nextToken=inexplicably
detaining
Over
nextToken=MPI
responded
nextToken=tinkering
nextToken=accomplished
portrayed
nextToken=punishing
nextToken=enlarge
nextToken=6.40
slowly
singling
nextToken=6.45
stemmed
restricting
nextToken=Liz
nextToken=6.15
nextToken=unwind
nextToken=burying
nextToken=cautiously
nextToken=Conde
attributed
nextToken=449.3
nextToken=6.20
nextToken=Bavaria
imagining
burying
nextToken=mankind
nextToken=sporadic
nextToken=6.00
nextToken=1,250
disagreed
Trying
commercializing
disagrees
locate
nextToken=Let
pinpointed
nextToken=Leo
credited
nextToken=emphasize
nextToken=binoculars
nextToken=reinforcing
demolishing
piped
figuring
nextToken=re-elected
safeguard
ill-suited
giving
frees
nextToken=leapfrog
nextToken=angering
nextToken=6.76
nextToken=6.70
Supposedly
nextToken=Helsinki
nextToken=NBI
retires
notwithstanding
continually
pedal
apparently
stifling
nextToken=Litigation
nextToken=dolce
refurbished
nextToken=galvanize
nextToken=accumulating
listen
wondering
flatten
nextToken=broker-dealers
disarm
unharmed
71%-owned
brushed
nextToken=redoing
transmitting
devised
nextToken=Gabriel
nextToken=Paxus
unwilling
solidify
blocking
nextToken=loaned
prevails
nextToken=Arabic
Nevertheless
nextToken=bode
nextToken=brushed
nextToken=mock
dedicated
nextToken=X-ray
blithely
jealously
nextToken=Year-to-date
nextToken=NRM
nextToken=judging
transferring
Discussing
strictly
relocate
proclaiming
nextToken=Baxter
nextToken=clarify
dived
nextToken=Hertz
nextToken=discriminating
anticipates
nextToken=Bacillus
specialize
convoluted
importing
nextToken=oust
nextToken=Look
occur
drove
nextToken=Mel
phoned
nextToken=ours
populous
nextToken=neutrons
nextToken=spreading
pre-register
grinds
nextToken=trailed
complicate
simplify
Previously
numbered
dissatisfied
undertaken
nextToken=Nev
nextToken=Ned
invade
nextToken=Rockwell
nextToken=forging
subtracted
announces
budge
nextToken=Mattel
nextToken=securing
nextToken=hampering
nextToken=173.1
nextToken=Jasper
owning
nextToken=Remember
declaring
wants
akin
answered
employ
masked
yelled
resilient
prolong
disproportionately
nextToken=sweeten
hoped
nextToken=Ibbotson
nextToken=mustard
nextToken=negotiable
nextToken=forgive
Following
nextToken=Includes
nextToken=sever
forcefully
nextToken=Telelawyer
nextToken=beefing
trumpeting
double-A-3
Tell
gingerly
nextToken=Charisma
Testifying
warns
ran
internally
nextToken=Linear
oversold
awarded
nextToken=Munich
recklessly
helped
liquidate
nextToken=39.55
therefore
nextToken=testers
nextToken=15.75
nextToken=state-appointed
nextToken=15.72
nextToken=collectibles
nextToken=impede
perked
modify
nextToken=15.82
albeit
rid
nextToken=transform
vacating
nextToken=OMB
nextToken=relieve
nextToken=Mount
impressed
reigned
nextToken=specify
informing
alas
wrecked
jumping
nextToken=Snoopy
perched
nextToken=Newmark
starring
nextToken=Uncle
skidded
Certainly
nextToken=Cullinet
where
nextToken=Ferruzzi
swallowing
justified
enact
justifies
nextToken=streamline
sniffed
introduce
saturated
underpin
collected
discloses
nextToken=Aska
matches
nextToken=educate
nextToken=Charge
stubbornly
nextToken=87.5
reluctantly
nextToken=overlooked
spontaneously
nextToken=duplicated
nextToken=Amway
negotiate
nextToken=481,000
reject
nextToken=coordinate
sat
nextToken=cornered
nextToken=W.J.
nextToken=141.45
nextToken=Our
nextToken=limbo
nextToken=hypoglycemia
Paying
proves
see
cleans
compared
nextToken=W.I.
reiterated
compares
nextToken=Phnom
stroll
nextToken=prolong
nextToken=A.H.
forgive
getting
nextToken=Darwin
clears
sit
undermined
obviously
supervising
nextToken=resigning
beside
nextToken=laundered
satisfied
finalized
edging
operate
refinance
nextToken=Attention
compromised
alluded
nextToken=prostitution
mimics
nextToken=categorized
satisfies
resisted
nextToken=141.90
nextToken=vertically
nextToken=Grannies
sidelined
nextToken=Oji
nextToken=141.80
dismantled
sow
nextToken=occupy
rewarded
enacted
nextToken=141.70
well-stated
downplayed
nextToken=141.65
unfortunate
illegally
so-so
forging
Along
nextToken=141.52
nextToken=tear
nextToken=141.55
buried
ponder
nextToken=rewritten
nextToken=Here
pinpoint
requested
regains
interpreted
reinstated
sue
grounded
serving
amid
sponsored
nextToken=Sept
slipped
DESPITE
nextToken=languishing
stunned
waffled
notifying
nextToken=W.Va
bending
nextToken=Lloyds
nextToken=Help
nextToken=condone
nextToken=Glory
nextToken=installing
idled
nextToken=confuse
nextToken=Sell
nextToken=conquer
tested
tripled
nextToken=consulted
postmarked
arising
amok
nextToken=intermittent
nextToken=Pay
climbs
nextToken=Employers
nextToken=182-day
nextToken=degenerated
overstate
nextToken=pledging
nextToken=FirstSouth
chanted
unofficially
confesses
tap
ugly
nextToken=88.12
nextToken=cycads
said
satisfy
nextToken=Wrath
nextToken=Sydney
nextToken=privileged
Eventually
nextToken=expelled
unhinged
rounded
nextToken=organize
hang
nextToken=postpone
nextToken=anti-union
regain
reopened
converting
nextToken=levamisole
nextToken=CLAUSE
nextToken=invoke
erode
sang
aside
sank
nextToken=Montana
nextToken=Braintree
nextToken=championed
nextToken=enjoying
provided
Surely
muster
provides
nextToken=Put
ranging
illustrates
prohibits
gained
nextToken=After
propose
illustrated
nextToken=lieu
save
nextToken=Fredric
shutting
nextToken=yelling
reclaim
championed
nextToken=R.I
introducing
constitutes
nextToken=promote
anew
nextToken=9-10:30
constituted
nextToken=2,205,000
says
Than
nextToken=Lockerbie
adopts
grapple
caught
exceeds
Then
reacted
stave
participate
nextToken=S.C
donating
filling
underperform
nextToken=louder
nextToken=Both
strengthens
nextToken=introducing
inspected
exposing
nextToken=Mort
nextToken=Muzak
nextToken=More
nextToken=constrain
destroy
deemed
nextToken=Cilcorp
requires
nextToken=designing
consume
consult
coughed
nextToken=Chilmark
propped
survive
blown
nextToken=AIDS-infected
cling
prompting
nextToken=avert
Making
nextToken=swallow
stacked
subscribe
burdened
nextToken=envelopes
entertained
build
nextToken=evenhanded
shouted
Thus
swelled
fined
scaring
waited
exempting
proposing
nextToken=cheering
Around
nextToken=jacking
nextToken=defamatory
nextToken=Zalubice
thereafter
embraced
puzzled
embraces
overwhelmed
applaud
pressuring
revealed
nextToken=Ellen
nextToken=bottoming
nextToken=tailor-made
deflect
warned
nextToken=feasible
operates
operated
accumulate
surround
devalued
nextToken=dismissing
nextToken=RTZ
nextToken=locating
nextToken=incorporate
nextToken=discontinuing
pledging
nextToken=Enron
combine
alter
curbing
concentrates
nextToken=fraught
nextToken=squeezing
transformed
assisting
attempting
combing
penetrated
questioned
legitimately
conform
nextToken=Having
woke
enacting
reassure
nextToken=Everett
nextToken=backfire
Prior
nextToken=repay
nextToken=Ex-dividend
nextToken=comply
nextToken=formulate
invites
nextToken=Rosemary
bother
yanking
nextToken=congratulated
protects
lasts
nextToken=skewed
nextToken=complement
invited
nextToken=Clearly
nextToken=compelled
commits
nextToken=Treasure
nextToken=SHV
nextToken=surrendered
revoke
nextToken=spite
nextToken=Pittston
starved
nextToken=SFE
worn
lose
siphoned
nextToken=rekindle
nextToken=Staples
terminate
wore
consolidating
nextToken=enlist
mysteriously
rushed
prevailed
insisting
nextToken=Amgen
nextToken=Ikegai
rushes
nextToken=leaded
reassume
preparing
nextToken=rattle
Allowing
nextToken=invincible
sufficiently
via
nextToken=19.25
Where
nextToken=dissolve
nextToken=monopolize
subsequently
nextToken=earmark
nextToken=Soviet-style
representing
achieves
nextToken=evaluated
obtaining
Separately
During
cheering
accomplish
pooled
nextToken=administer
nextToken=adapted
nextToken=eaten
supervises
nextToken=forcefully
achieved
happens
nextToken=224.1
nextToken=Midway
nextToken=exploring
nextToken=coupled
nextToken=tolerate
nextToken=Jobson
specify
climbed
nextToken=jumping
nextToken=programmed
nextToken=alternating
subjected
nextToken=Rod
individually
nextToken=B.J.
refinanced
nextToken=12:01
nextToken=Boise
farther
establishing
nextToken=93.75
waved
feels
hindered
nextToken=Kimberly-Clark
recapture
nextToken=Sin
nextToken=diverting
impose
derived
was
derives
nextToken=scouting
nextToken=Triad
decide
nextToken=THE
nextToken=insisting
shuttled
instituted
nextToken=She
feeds
nextToken=convoluted
relieved
sided
nextToken=Avdel
nextToken=Brae
nextToken=Homestake
stemming
nextToken=messing
nextToken=Ladenburg
laughed
nextToken=knowing
choked
embarrass
why
denies
nextToken=Matilda
denied
evaluates
leaped
analyzing
nextToken=UAP
evaluated
nextToken=Sitco
simultaneously
prove
accusing
stripping
tumbled
nextToken=Tan
withdrew
nextToken=blessed
woo
nextToken=disapproved
expelled
tumbles
never
usurp
mightily
nextToken=alcoholic
waived
nextToken=subjected
nextToken=greenhouses
nextToken=skin-care
withdraw
nextToken=retaining
nextToken=7.09
nextToken=Disabilities
nextToken=unhinged
nextToken=deterring
nextToken=7.12
nextToken=7.15
nextToken=7.14
nextToken=slimmer
nextToken=integrating
nextToken=depress
equals
nextToken=eroding
nextToken=speculating
nextToken=whereas
rekindle
nextToken=TRW
postpone
hear
embark
nextToken=customarily
nextToken=7.80
nextToken=7.82
inevitably
nextToken=7.91
nextToken=7.99
nextToken=7.97
nextToken=7.96
nextToken=donate
nextToken=7.95
nextToken=7.94
nextToken=7.93
wander
seek
nextToken=7.62
nextToken=7.61
seem
nextToken=reassume
nextToken=7.60
defying
compelled
nextToken=exchange-listed
nextToken=7.78
started
nextToken=7.75
abstained
heed
flowed
nextToken=concurrent
joins
nextToken=7.42
nextToken=7.55
nextToken=7.53
nextToken=7.52
sees
Specifically
nextToken=7.57
whipsawed
nextToken=dissolved
nextToken=7.31
nextToken=7.30
nextToken=7.37
nextToken=7.35
nextToken=Greenville
nextToken=32.71
Bowing
nextToken=Hingham
quashed
nextToken=Movieline
conclude
susceptible
nervously
nextToken=quell
nextToken=Crowntuft
nextToken=0.0108
nextToken=Trying
prone
translate
entitling
nextToken=simplifying
nextToken=campaigning
plummeting
judged
sent
send
rejected
nextToken=quantify
nextToken=Tel
organize
nextToken=Tet
nextToken=UFOs
diverting
nextToken=newsprints
nextToken=mailings
treats
Normally
exceeding
introduces
Excluding
undergoing
nextToken=devalued
Citing
possess
entitled
boosted
defends
nextToken=sexual
nextToken=registrants
rationalize
nextToken=integrate
nextToken=Upjohn
nextToken=examining
dominate
equaled
contributed
contributes
zeroing
nextToken=wrestle
nextToken=Charlie
nextToken=carcinogenic
nextToken=dissented
dismiss
Finally
remembers
nextToken=Hongkong
nextToken=plush
soliciting
impractical
nextToken=buckle
entitles
quantify
pursue
nextToken=delinquent
nextToken=donating
spewing
doubtful
nextToken=overshadowed
marry
hinted
botched
thinks
nextToken=Chatset
nextToken=Fujisawa
unnecessarily
deteriorate
nextToken=D.T.
nextToken=Varian
hitting
nextToken=QuesTech
nextToken=Use
entirely
nextToken=Textron
nextToken=Someone
nextToken=Improving
nextToken=heighten
preserved
nextToken=VOA
adapt
nextToken=injuring
preserves
nextToken=Loral
nextToken=enlisting
bogged
forbade
nextToken=Braniff
alternating
nextToken=courted
snowballed
aroused
nextToken=Certified
leveled
nextToken=reimburse
nextToken=cliched
nextToken=Whoever
nextToken=glitz
customarily
emphasizes
nextToken=enacting
emphasized
nextToken=refocus
nextToken=liberalizing
nextToken=averting
waging
governed
deterring
pleaded
belonged
nextToken=unseen
nextToken=psychobiology
sprout
nextToken=discuss
approve
nominated
nextToken=Telesystems
rumbling
reflects
safely
nextToken=highlighted
stems
lured
depict
sustainable
nextToken=derail
lures
outraged
nextToken=asleep
assemble
nextToken=ascending
thrive
nextToken=impeded
flat-footed
enjoying
leaned
ignores
simplifying
ignored
unloaded
nextToken=151.20
nextToken=Seita
nextToken=Scottsdale
nextToken=stampeded
erred
nextToken=Hachette
therein
nextToken=Schlumberger
nextToken=Leningrad
fired
accompanies
undercut
accompanied
afford
asks
dutifully
segregate
Built
Departing
accelerate
inducing
floated
nextToken=Springfield
nextToken=Wessels
curtail
nextToken=Absolutely
nextToken=midafternoon
advise
nextToken=Frankly
calculates
nextToken=accurately
nextToken=precluded
dissolved
nextToken=9.34
thereby
nextToken=Figure
nextToken=9.39
nextToken=Reps.
upheld
nextToken=critically
nextToken=9.06
propelled
evolve
nextToken=redraw
showed
falsely
nextToken=swamp
cheaply
please
nextToken=newsstands
condemn
nextToken=Vt.
nextToken=defraud
smarter
Aside
nextToken=Papua
nextToken=Dublin
nextToken=well-stated
conditioned
nextToken=Reebok
stamping
underneath
fail
repaid
nextToken=Profits
nextToken=gardening
nextToken=patience
steer
nextToken=rewrite
overshadowed
nextToken=Instead
nextToken=Soweto
nextToken=suckers
harmed
nextToken=dictated
nextToken=undetermined
nextToken=impractical
steal
denounced
nextToken=recapture
unobserved
nextToken=letting
nextToken=convict
nextToken=Pennzoil
wracked
nextToken=explore
nextToken=Aztar
nextToken=Bayerische
nextToken=Looking
Similarly
retire
nextToken=Beauregard
nextToken=renegotiated
accelerates
theorized
castigating
coping
concluding
erupt
bottoming
nextToken=borne
choose
undo
nextToken=Y&R
nextToken=double-digit
enjoyed
nextToken=swear
punish
nextToken=Wilfred
rebut
nextToken=then-Vice
handle
happily
distributes
nextToken=unrealistically
nextToken=65,200
torments
nextToken=Esselte
nextToken=fenugreek
atop
objected
shed
copied
shortsighted
modifies
nextToken=induce
maintained
mobilize
resigning
disappoint
formally
nextToken=Banxquote
nextToken=crumble
nextToken=subdued
annually
nextToken=Eaton
nextToken=jack
handed
nextToken=misrepresenting
nextToken=sidelined
nextToken=anathema
rescinded
centered
assailed
challenging
nextToken=110,000
parked
boosting
nextToken=2149.3
winding
assassinate
nextToken=NORC
nextToken=effortlessly
disappear
learned
nextToken=examine
nextToken=debunk
Assuming
nextToken=thrashing
nextToken=Freeport-McMoRan
nextToken=Suntory
maneuvered
nextToken=overemphasize
nextToken=unwarranted
settle
nextToken=Talk
minimizing
nextToken=Tana
nextToken=Kandahar
shut
detailing
shun
wrapped
nextToken=Wis
nextToken=Why
nextToken=Who
slated
nextToken=Bulgaria
nextToken=Concerned
nextToken=concluding
cautions
nextToken=bored
nextToken=assembling
nextToken=hobbled
stripped
loath
gaining
adequately
nextToken=appended
accurately
nextToken=Gen-Probe
nextToken=Pinnacle
plummet
nextToken=non-interest
benefited
tending
piling
Regarding
leaping
shouts
nextToken=UniFirst
however
opted
relates
Wanted
captured
unacceptable
clobbered
nextToken=revisit
appealing
join
renegotiated
Besides
nextToken=double-decking
nextToken=Lords
emerged
nextToken=preparing
dissolve
nextToken=wiping
hide
nextToken=raping
emerges
sift
nextToken=Wyo
nextToken=videocassettes
deter
belongs
nextToken=invite
enjoys
nextToken=Hello
declined
acknowledge
implicated
nextToken=Intelogic
squeezing
informally
nextToken=dispel
scrambled
surrendered
nextToken=shortsighted
referring
engulfed
nextToken=SECTION
confirm
Afterward
intervene
nextToken=respectful
dumping
nextToken=deprive
nextToken=explode
sing
demonstrate
assessed
nextToken=portray
nextToken=inaccessible
preclude
nextToken=reviving
bounced
nextToken=prod
nextToken=Athena
nextToken=prop
nextToken=eliminating
react
nextToken=callers
Give
Moreover
justify
effortlessly
nextToken=Hardee
ironically
nextToken=outrageous
seeing
firmed
assert
sits
restart
prominently
Asked
assess
tenfold
divert
should
nextToken=sacks
enjoin
restructure
nextToken=misinterpreted
acknowledges
nextToken=YOU
reads
While
nextToken=detaining
divest
nextToken=saturated
nextToken=fetuses
prepare
nextToken=266.66
discourage
nowadays
oversee
teamed
endorsed
nextToken=reschedule
applies
spends
elect
Based
rebuild
oversaw
nextToken=single-B-plus
destroyed
reimburse
inaccessible
nextToken=Yes
Personally
arranges
anticipating
arranged
nextToken=disrupt
averting
nextToken=forcing
nextToken=deduct
irrelevant
nextToken=quipped
resentful
enlisting
cooperating
prohibited
nextToken=ZBB
Ordinarily
leaked
cheat
undoubtedly
swamped
Conversely
upon
plead
precluded
nextToken=supercomputers
nextToken=U.S.A
circulate
nextToken=proliferating
advises
cares
shrank
complied
nextToken=swiftly
dominates
emphatically
importantly
involves
involved
dominated
nextToken=implementing
nextToken=Triangle
cared
nextToken=frankly
nextToken=hampered
advised
separating
nextToken=terror
nextToken=Ebensburg
nextToken=vaguely
nextToken=outfly
nextToken=interpreting
phased
hesitantly
nextToken=cooperating
disappeared
checked
obtain
nextToken=mobilized
nextToken=shovels
nextToken=albeit
repairing
nextToken=clobbered
blaming
nextToken=persuade
nextToken=flirting
seeking
bucked
nextToken=Impco
evolved
nextToken=liquidated
accepting
nextToken=accumulated
nextToken=spawn
plummeted
nextToken=dilute
nextToken=Bert
paired
nextToken=single-B-1
nextToken=single-B-2
nextToken=single-B-3
shelled
nextToken=racism
nextToken=spark
nextToken=recalling
adding
reviving
exacerbated
nextToken=fatalities
Because
varies
awry
nextToken=Walnut
exacerbates
stirs
deadlocked
inherit
withstood
nextToken=affordable
exhausted
tantamount
triumphed
testified
removing
served
serves
nextToken=one-stop
nextToken=revise
skip
liquefy
nextToken=Addis
nextToken=Poughkeepsie
assimilate
competes
bribing
nextToken=Olay
sprung
circulating
narrows
nextToken=Eritrea
nextToken=unbelievable
nextToken=topple
nextToken=devise
depend
nextToken=Theodore
granted
collaborating
nextToken=Skadden
blundered
nextToken=Olin
acquit
nextToken=Hambros
definitely
fend
nextToken=Olga
abound
felt
nextToken=safeguard
nextToken=singling
trimmed
resides
indicted
nextToken=109.85
exempted
nicknamed
constitute
enjoy
nextToken=Although
buckle
nextToken=nonexistent
nextToken=single-A-2
nextToken=single-A-3
imply
nextToken=single-A-1
deployed
billed
empathize
notified
nextToken=asbestos-related
nextToken=high-cost
because
behaving
capitalize
nextToken=waging
prohibiting
minimize
nextToken=maximizing
nextToken=Salvadoran
nextToken=enable
nextToken=McCain
capping
gather
damping
risen
casts
nextToken=inducing
Sitting
selecting
nextToken=FK-506
slid
nextToken=Maybe
nextToken=Receptech
nextToken=supplemental
carved
nextToken=maximize
pouring
nextToken=Egypt
scaled
nextToken=hinder
catching
repassed
nextToken=outraged
nextToken=consummated
nextToken=parental
persuading
nextToken=housed
nextToken=9-11
nextToken=toying
amaze
formulating
graduated
nextToken=1993-2009
time-consuming
earmarked
stalked
cater
disappointingly
nextToken=maintaining
nextToken=impress
refer
nextToken=teen-agers
underpinned
nextToken=snagged
nextToken=Miss
denouncing
abruptly
hypnotized
loaned
nextToken=Cotton
Regrettably
explicitly
abate
sentenced
acknowledging
amass
nextToken=Tenneco
muses
nextToken=reverses
nextToken=efficiently
nextToken=Scandinavia
relocated
nextToken=amend
relaxed
nextToken=Reader
nextToken=Biny
surpass
approached
nextToken=fabricate
promoted
promotes
nextToken=impressionist
nextToken=Keizaikai
consequently
nextToken=persistency
nextToken=hamper
scarcely
nextToken=wane
nextToken=fleeing
mounted
lasted
nextToken=communism
nextToken=elevated
murky
nextToken=imitated
nextToken=Volkswagen
nextToken=OCN-PPL
nextToken=minimize
nextToken=Institut
scrapped
attended
nextToken=spiked
intimidating
nextToken=snubbing
dictated
diagnosed
escaping
Reflecting
Callable
nextToken=Computerworld
modernize
flirting
seemed
wandering
compensate
buttressed
nextToken=Once
nextToken=Mentor
follows
swayed
nextToken=scrubbers
dreamed
nextToken=instrumental
nextToken=fanciful
nextToken=associating
betting
nextToken=quacks
Currently
exercised
nextToken=Ollie
relayed
bundled
liberalizing
nextToken=Only
nextToken=reliably
incurred
partially
nextToken=non-GM
nextToken=Norberto
trimming
scuttle
suppose
incorrectly
nextToken=commercialize
locating
asleep
seized
nextToken=serene
nextToken=overreacting
nextToken=Gnu-Emacs
nextToken=fraudulently
evidenced
matures
nextToken=Starpointe
According
dare
nextToken=chop
nextToken=guided
nextToken=Dudley
confers
nextToken=Moliere
structuring
nextToken=concealing
dashed
distributing
stampeded
nextToken=diversifying
Assume
nextToken=Crossland
intends
nextToken=Philippe
assured
nextToken=reverberating
nextToken=prompting
nextToken=pinpointed
racking
nextToken=repurchasing
nextToken=Noxell
nextToken=tracing
alleges
disband
faced
nextToken=Chekhov
concludes
undone
nextToken=unmistakable
nextToken=accepting
skipping
nextToken=promoted
occurring
nextToken=shoving
nextToken=timed
precipitated
proceed
nextToken=substituting
assumes
nextToken=arrears
appropriated
nextToken=placate
nextToken=fizzled
nextToken=Chile
nextToken=Such
nextToken=Depending
confiscating
renamed
accumulating
nextToken=premium-brand
nextToken=subtracted
displayed
roiling
offend
enlist
gives
hailed
implies
disappointed
continue
cautiously
nextToken=Given
nextToken=23.2
hooked
nextToken=Siberia
forming
extracting
grows
Added
overseeing
nextToken=infuse
nextToken=poltergeists
formulate
riveted
barred
nextToken=10-11
scouting
unfortunately
nextToken=specifics
encountered
nextToken=Leucadia
intensified
replace
nextToken=preserving
nextToken=Orlando
feasible
nextToken=whipsawed
nextToken=repassed
eclipse
thwarted
soar
nextToken=Mitsui
sustain
arbitrarily
rocking
nextToken=Kirgizia
restarted
caved
nextToken=epilepsy
disinclined
nextToken=459.93
nextToken=noticeably
endorsing
nextToken=salvaged
nextToken=NCNB
trying
wisely
nextToken=chickens
nextToken=unaware
spark
nextToken=Petco
nextToken=Pegasus
inclined
nextToken=double-A-3
correctly
granting
forbids
nextToken=hardened
marching
nextToken=pummeled
arguing
soon
nextToken=nary
nextToken=Mass
nextToken=Maui
nextToken=Matt
impede
summed
sings
nextToken=wooing
nextToken=Basf
heats
nextToken=Recent
efficiently
hops
nextToken=muster
find
nextToken=stymied
progressed
illustrate
hears
progresses
leaning
hunky-dory
nextToken=Either
nextToken=Mame
heard
nextToken=Many
sought
nextToken=Stan
spawn
nextToken=curry
nextToken=Pittsburgh-based
nextToken=Unificationist
teaming
nextToken=Mayo
nextToken=bombed
ought
designing
nextToken=Wednesdays
nextToken=oceanographic
Seeking
nextToken=Since
nextToken=22.78
nextToken=flashes
thrashing
nextToken=Kohlberg
nextToken=dispersants
nextToken=transmitting
nextToken=wildly
nextToken=modernize
begging
nextToken=shaping
outstripped
nextToken=sharpen
consist
draining
nextToken=catching
focusing
enjoyable
quadrupled
nextToken=convenient
violate
reduces
demonstrated
wherever
unprepared
nextToken=Barron
nextToken=deuterium
appealed
nextToken=10.05
sped
arrange
assessing
nextToken=Apogee
demonstrates
Apparently
nextToken=Jerell
nextToken=10.14
publishes
bedevil
signaling
nextToken=Barris
nextToken=resistant
stifle
unheard
insisted
misinterpret
Maybe
nextToken=congestion
nextToken=obstruction
nextToken=remotely
pulled
dwindled
nextToken=stung
nextToken=embrace
nextToken=0.95
amend
nextToken=fixing
universally
nextToken=bolster
nextToken=0.71
duplicated
nextToken=stamping
nextToken=0.88
nextToken=assisting
collectively
sterile
accommodate
speak
spun
spur
nextToken=blotting
implemented
maintaining
responds
negatively
nextToken=unofficially
undermine
nextToken=swallowing
louder
nextToken=Kasler
reverses
nextToken=Balcor
consists
reversed
severed
maximize
devotes
hired
manipulated
Basically
succeeded
nextToken=Mead
nextToken=nonoperating
nextToken=undertaken
broaden
nextToken=publish
nextToken=referring
becoming
sixfold
donate
nextToken=dulled
abolish
unsuccessfully
blazing
nextToken=helplessly
sticks
fulfilled
flooded
seldom
nextToken=furnish
nextToken=postmarked
broadly
speculating
nextToken=Meet
traced
mentioned
scuttled
nextToken=sterilized
nextToken=enjoined
reflected
ruining
violated
nextToken=simmering
nextToken=Scudder
violates
funneled
bolstering
joined
integrate
Yeah
transferred
persuasively
nextToken=shunning
complain
nextToken=reconcile
unrealistically
recruited
nextToken=jousting
nextToken=choke
improves
invoke
punishable
nextToken=renew
exclusively
viewed
nextToken=NEWS
nextToken=Sooraji
nextToken=evident
B-3
recounts
blasted
likewise
nextToken=analgesic
nextToken=matter-of-factly
thrown
throws
comprises
nextToken=renal
installing
nextToken=Southland
nextToken=warranties
stood
deny
nextToken=dispose
miserable
nextToken=popping
nextToken=mid-1990
nextToken=mid-1992
ARE
enhances
nextToken=verbatim
wished
cheered
stole
advertise
nextToken=Kerr-McGee
interspersed
nextToken=0.53
nextToken=0.59
rightly
consummated
nextToken=flaunt
inexorably
nextToken=0.32
nextToken=lethargic
nextToken=snags
suggest
nextToken=Intercontinental
nextToken=0.45
nextToken=quack
nextToken=0.10
nextToken=0.13
nextToken=0.19
nextToken=0.15
nextToken=0.17
constrain
nextToken=Inflation
nextToken=0.24
nextToken=recapitalizations
flee
fled
flew
nextToken=mobilize
carried
tailor-made
nextToken=0.01
carries
re-elected
nextToken=0.02
nextToken=0.03
nextToken=0.05
misinterpreted
nextToken=masks
pretend
nextToken=buffeted
:
;
nextToken=delighted
after
nextToken=Sventek
b
c
d
f
nextToken=Underwriters
x
nextToken=possessing
nextToken=recalled
nextToken=zeros
skyrocketing
Aim
nextToken=pitched
nextToken=Itel
nextToken=Lockheed
nextToken=damn
nextToken=Cape
All
nextToken=Yale
nextToken=Usinor
nextToken=Starr
nextToken=adapt
nextToken=babies
nextToken=Nazi
nextToken=non-callable
nextToken=prepaid
nextToken=Panhandle
nextToken=283.8
nextToken=seniors
nextToken=intraday
nextToken=attractively
nextToken=Gramm-Rudman-Hollings
nextToken=Boston-based
nextToken=slaughter
nextToken=foreclosed
nextToken=dark
nextToken=bloody
rewarding
nextToken=cleaned
nextToken=jealously
nextToken=ombudsman
nextToken=automation
nextToken=Daimler-Benz
nextToken=51.50
nextToken=endangered
nextToken=belong
Ba3
nextToken=Cairo
nextToken=high-powered
nextToken=one-quarter
nextToken=32.5
Bad
nextToken=Petroleos
nextToken=dispense
nextToken=emergencies
nextToken=unavailable
nextToken=Sherwin-Williams
nextToken=Lanier
prejudiced
nextToken=completion
nextToken=autographs
nextToken=longtime
nextToken=Banca
nextToken=ebullient
nextToken=True
nextToken=Holiday
nextToken=Sansui
nextToken=Bensonhurst
nextToken=Heathrow
'S
nextToken=dementia
nextToken=gilts
nextToken=Groupe
nextToken=feeble
nextToken=big-time
nextToken=Orson
nextToken=14.75
nextToken=Asher
nextToken=Alton
bail
nextToken=drowned
nextToken=Norwegians
nextToken=14.25
nextToken=militant
nextToken=47-year-old
nextToken=Fresenius
nextToken=comfortable
nextToken=Jamaican
nextToken=bulbs
nextToken=erred
nextToken=Boulder
nextToken=con
nextToken=Delaware
nextToken=57.5
Buy
nextToken=lightest
nextToken=closest
nextToken=Nynex
nextToken=Manic
nextToken=Cuban
nextToken=behind-the-scenes
nextToken=Schaumburg
nextToken=incentive-backed
nextToken=absolutism
nextToken=Duncan
nextToken=steak
nextToken=Newark
nextToken=Putnam
nextToken=volunteer
nextToken=bulls
nextToken=blonde
nextToken=Tommy
nextToken=presently
DAT
nextToken=Staar
Caa
nextToken=shoppers
nextToken=full-blown
nextToken=collect
nextToken=low-margin
B2
Ad
nextToken=Middletown
nextToken=soup
As
At
nextToken=soaking
nextToken=on-site
nextToken=cinema
Do
nextToken=Rosa
nextToken=life-insurance
nextToken=override
nextToken=paper-goods
IN
nextToken=Threlkeld
nextToken=unreported
nextToken=17th-century
nextToken=Arthur
nextToken=petitions
nextToken=hard-currency
nextToken=periodic
nextToken=muscles
nextToken=drastic
NO
nextToken=virtue
OK
nextToken=buoyed
Perhaps
PS
nextToken=rebel
overpaid
nextToken=blunt
nextToken=Founders
nextToken=insure
nextToken=subpoenas
So
featured
Up
nextToken=behalf
nextToken=insult
nextToken=piling
nextToken=1.27
nextToken=1.29
nextToken=landfill
nextToken=defendant
nextToken=1.31
nextToken=garages
nextToken=chances
nextToken=1.39
\*
nextToken=1.11
nextToken=1.19
nextToken=Arkoma
nextToken=squalid
victimized
opened
nextToken=abated
nextToken=sterilizing
nextToken=Donoghue
nextToken=scanners
hurt
nextToken=ebb
nextToken=Developers
en
nextToken=accidents
unmistakable
nextToken=Prudential-Bache
nextToken=cloak
proliferating
nextToken=loath
nextToken=recipes
nextToken=bookstores
nextToken=Chivas
nextToken=surrounded
nextToken=Towers
nextToken=unsold
nextToken=retire
inexpensive
nextToken=bloated
nextToken=dug
intelligent
nextToken=33.3
nextToken=Forbes
nextToken=specializes
tightened
nextToken=Birmingham
nextToken=Flying
nextToken=sight
nextToken=specialized
nextToken=reconfirmation
nextToken=soda
retreating
nextToken=copiers
nextToken=pedestrian
nextToken=continuously
purchased
nextToken=inclined
nextToken=undersecretary
nextToken=Kodak
nextToken=vividly
nextToken=Never
nextToken=acclaim
nextToken=Dearborn
nextToken=masse
nextToken=attach
nextToken=holy
nextToken=Good
nextToken=multiples
nextToken=Employee
nextToken=solo
nextToken=choosing
collateralized
nextToken=essence
nextToken=Rome
nextToken=OECD
nextToken=Cablevision
nextToken=Nucor
nextToken=varied
nextToken=municipalities
nextToken=Nikkei
nextToken=identifying
nextToken=secrecy
deep-pocketed
nextToken=personal-computer
nextToken=chlorine
bouncing
nextToken=sift
nextToken=lure
nextToken=adept
nextToken=Toms
nextToken=cares
flashes
nextToken=adopting
nextToken=FERC
nextToken=sewage
appearing
nextToken=fixed
nextToken=45,000
nextToken=repeatedly
nextToken=affiliation
nextToken=exercising
sway
nextToken=triple-A-rated
nextToken=Toto
surging
nextToken=adoption
nextToken=uphill
nextToken=Alaskan
nextToken=incidental
nextToken=cheat
nextToken=titles
nextToken=fun
nextToken=layoffs
nextToken=Knoxville
nextToken=fog
nextToken=housewares
nextToken=drunkenness
nextToken=fill-or-kill
nextToken=lamented
nextToken=Gauloises
nextToken=observe
nextToken=meticulous
nextToken=accommodate
nextToken=shrugged
nextToken=traveler
nextToken=Dickens
nextToken=elect
nextToken=Hudson
nextToken=co-managing
nextToken=Johnstown
nextToken=fluent
nextToken=restructured
nextToken=cheek
nextToken=stinging
nextToken=pristine
nextToken=foreigners
morally
nextToken=7:30
nextToken=balances
nextToken=Pennsylvania-based
nextToken=gem
nextToken=Memphis
nextToken=puritanical
mega
nextToken=malignancy
nextToken=urethane
nextToken=beleaguered
nextToken=spurned
nextToken=non-tariff
nextToken=mechanical
Speed
nextToken=fashionable
nextToken=Barre
nextToken=prosecuted
trampled
nextToken=Calif
nextToken=Morristown
nextToken=wrongful
nextToken=amazed
nextToken=Voyager
nextToken=concomitant
nextToken=79.4
nextToken=gut
nextToken=gum
nextToken=warmed
nextToken=contemplating
nextToken=objections
nextToken=pilings
nextToken=Marie
After
posTag=WP$
nextToken=stiff
nextToken=shun
nextToken=unusually
stepping
nextToken=abatement
nextToken=mediocre
nextToken=arrivals
family-run
nextToken=functioning
nextToken=receipt
nextToken=bargain-basement
tracked
nextToken=gon
nextToken=corporatism
nextToken=Rice
nextToken=waivers
preferably
nextToken=profited
nextToken=routing
nextToken=Wilbur
nextToken=Thousand
nextToken=locks
nextToken=assessing
nextToken=constrained
nextToken=him
nextToken=estimating
nextToken=heftier
nextToken=amass
nextToken=preferential
disdain
nextToken=delivers
nextToken=now-shaky
nextToken=hazardous
skipper
nextToken=skid
nextToken=patented
nextToken=absenteeism
nextToken=Brecht
nextToken=four-wheel-drive
nextToken=reinsurers
nextToken=unnecessarily
shorter
nextToken=instruction-set
nextToken=Pizza
nextToken=marching
nextToken=cater
laundered
nextToken=tax-deferred
nextToken=hollow
nextToken=constraints
nextToken=urge
nextToken=reselling
nextToken=constructive
nextToken=56.9
nextToken=minicars
reconstructed
nextToken=programmers
Revised
nextToken=Cambridge
nextToken=silly
nextToken=muses
nextToken=novelistic
nextToken=test-marketing
nextToken=Trek
nextToken=Connaught
nextToken=socalled
nextToken=Strategic
nextToken=depicted
nextToken=3000
nextToken=slim
nextToken=all-out
designate
nextToken=refer
nextToken=30.1
nextToken=30.3
nextToken=30.4
nextToken=Troy
nextToken=Vandenberg
His
nextToken=lawful
nextToken=maybe
nextToken=Daiwa
nextToken=ancient
Pending
nextToken=Nicaragua
nextToken=perks
nextToken=Ready
nextToken=3.43
nextToken=quadrupling
nextToken=Patent
How
nextToken=3.56
nextToken=citywide
nextToken=3.55
nextToken=sharecroppers
off-budget
nextToken=3.25
nextToken=3.27
nextToken=3.23
nextToken=Reagan-era
nextToken=bipartisan
nextToken=3.36
busted
glowing
nextToken=3.33
nextToken=organizational
nextToken=poorer
nextToken=3.16
nextToken=3.10
nextToken=3.19
visiting
nextToken=salespeople
nextToken=solely
nextToken=impressed
non-recurring
nextToken=USAA
Developing
nextToken=Bolinas
nextToken=3.85
nextToken=Driving
nextToken=solvent
nextToken=3.97
nextToken=3.69
nextToken=3.64
nextToken=Motorola
nextToken=12.95
nextToken=3.74
nextToken=Findlay
nextToken=meager
nextToken=withholding
threatening
somewhere
nextToken=private-banking
nextToken=L'Oreal
nextToken=kiddies
nextToken=eerie
stopped
nextToken='86
nextToken=plant-science
nextToken=Poodle
nextToken=Total
Acting
nextToken=U.S.-Japan
nextToken=exceptionally
nextToken=ensuing
What
nextToken=telemarketing
nextToken=Secaucus
nextToken=orange
nextToken=wonders
blocked
nextToken=scaled
tired
nextToken=trade-offs
basing
nextToken=decidedly
shredded
posTag=EX
nextToken=Fairfax
nextToken=radically
nextToken=poorly
nextToken=attend
nextToken=clarification
nextToken=Anglo-Dutch
nextToken=heck
nextToken=Ashland
nextToken=heightened
nextToken=resolve
nextToken=Payroll
nextToken=exorbitant
nextToken=British-owned
nextToken=court-appointed
nextToken=hear
Its
nextToken=Rorer
nextToken=Contel
nextToken=Bernhard
nextToken=reclaim
nextToken=expand
nextToken=transmitted
nextToken=Gene
deferred
nextToken=prolonged
nextToken=Gen.
nextToken=sewers
nextToken=rattled
nextToken=moreover
nextToken=shrinking
quite
nextToken=scarce
nextToken=squared
nextToken=deflated
artificially
nextToken=Congressional
nextToken=FADA
nextToken=Trinity
nextToken=foul-mouthed
nextToken=forget
nextToken=Washington-based
nextToken=methodical
nextToken=Abraham
nextToken=Garrett
1964
nextToken=responsibly
nextToken=importing
nextToken=Chester
nextToken=deplorable
nextToken=centrifugal
nextToken=broadcasts
nextToken=sexy
nextToken=Asahi
nextToken=invitations
nextToken=takeover-related
nextToken=BankAmerica
wildly
unbelievable
nextToken=refractory
nextToken=inspire
nextToken=Orkem
depending
nextToken=recycles
nextToken=failing
nextToken=swaying
Increasing
nextToken=tremendously
nextToken=intangible
nextToken=deep-pocketed
Your
nextToken=rancorous
nextToken=Southfield
nextToken=Cities
herbicide
nextToken=knights
nextToken=5.64
nextToken=Bristol
Even
single-B-minus
nextToken=5.43
nextToken=5.41
nextToken=applaud
nextToken=Bakersfield
nextToken=perverse
nextToken=5.27
nextToken=5.25
nextToken=5.32
tinkering
nextToken=5.04
nextToken=waiving
nextToken=5.16
nextToken=seesaw
nextToken=sensible
nextToken=stubborn
nextToken=Houston-based
Key
nextToken=Dirks
nextToken=weighs
nextToken=wait-and-see
nextToken=vacationing
nextToken=unrealistic
nextToken=Geiger
nextToken=5.83
nextToken=5.80
nextToken=frantically
nextToken=levied
nextToken=5.94
nextToken=5.91
nextToken=5.99
nextToken=75.2
nextToken=Prudential
nextToken=35-year-old
nextToken=throws
nextToken=unfounded
nextToken=shrewd
nextToken=corrective
nextToken=prepayment
nextToken=dived
nextToken=Exxon
nextToken=finalized
Reps.
nextToken=otherwise
nextToken=log
nextToken=relentlessly
nextToken=predictably
nextToken=Pace
nextToken=Marketers
nextToken=tempting
elevated
nextToken=corporates
nextToken=80386
Worst
nextToken=royal
nextToken=51.9
nextToken=51.6
nextToken=Atlanta-based
nextToken=Kemper
nextToken=joining
nextToken=denounced
nextToken=sorts
nextToken=Farrell
nextToken=lip
nextToken=whopping
nextToken=Minority
nextToken=brokerages
nextToken=Baldwin
nextToken=Eritrean
nextToken=mad
nextToken=Easy
nextToken=repeat
nextToken=low-income
nextToken=conditioning
nextToken=Earl
nextToken=darling
nextToken=inability
nextToken=profit-taking
nextToken=lighter
nextToken=everybody
nextToken=Occidental
whatever
nextToken=lighted
nextToken=Scripps
nextToken=fake
nextToken=stock-fund
nextToken=single-handedly
nextToken=wisecracks
nextToken=market-makers
nextToken=males
nextToken=checking
nextToken=52.7
nextToken=effectiveness
nextToken=satisfactory
nextToken=couriers
nextToken=shelved
nextToken=Proleukin
nextToken=speculate
nextToken=metallurgical
nextToken=friction
heavy-handed
nextToken=Erich
nextToken=meaningfully
nextToken=trendy
nextToken=clanging
nextToken=detained
nextToken=nonunion
nextToken=diesel
nextToken=capacitors
nextToken=Crisco
nextToken=disgruntled
nextToken=obfuscation
nextToken=Kensington
nextToken=four-game
nextToken=bowling
nextToken=Junior
nextToken=50.3
nextToken=50.1
nextToken=50.7
nextToken=forgot
nextToken=clones
nextToken=51-year-old
nextToken=coated
nextToken=genocide
nextToken=Giant
nextToken=helpless
nextToken=visions
nextToken=overwhelm
nextToken=karaoke
nextToken=Kaufman
nextToken=token
nextToken=trotted
nextToken=Dreyfus
nextToken=Leipzig
nextToken=licensed
OUSTED
nextToken=distress
nextToken=Bette
nextToken=uncomfortable
nextToken=criticize
nextToken=Citicorp
nextToken=Lance
harried
nextToken=Safeco
nextToken=Viacom
nextToken=anti-dumping
nextToken=runaway
Retired
nextToken=terrible
nextToken=recordings
sexual
nextToken=Albania
nextToken=lower-than-expected
nextToken=HIAA
Either
nextToken=conservatism
nextToken=day-long
nextToken=reassured
nextToken=77.3
nextToken=inflation-fighting
nextToken=vigorously
nextToken=Southeast
nextToken=appraisals
nextToken=arrest
nextToken=graduation
nextToken=massages
nextToken=unveiling
nextToken=anthers
nextToken=shifting
nextToken=tragic
nextToken=Keynesian
nextToken=facial
About
nextToken=97.9
nextToken=grudging
nextToken=Weyerhaeuser
nextToken=Sverdlovsk
nextToken=wastewater
nextToken=reassuring
nextToken=hikers
nextToken=outlining
nextToken=ammo
nextToken=Geoffrey
nextToken=58,000
nextToken=Juilliard
nextToken=ribbons
nextToken=hedging
nextToken=dying
nextToken=Chris-Craft
nextToken=Gruntal
Changing
nextToken=diners
nextToken=disastrous
nextToken=Rand
nextToken=hail
nextToken=tractors
nextToken=forfeit
nextToken=distracted
nextToken=wonderful
insufficient
Not
nextToken=eventual
nextToken=tones
nextToken=trusted
nextToken=dismayed
nextToken=healing
nextToken=98.5
nextToken=stark
nextToken=11,000
nextToken=consumer-electronics
nextToken=Crawford
nextToken=perform
nextToken=bureau-sponsored
nextToken=dozens
nextToken=harm
nextToken=bumped
Quite
nextToken=spaghetti
nextToken=infidelity
nextToken=superconductor
nextToken=overproduction
nextToken=degrees
nextToken=ordnance
nextToken=disregarded
nextToken=hang
nextToken=menswear
nextToken=assorted
Said
nextToken=Personnel
nextToken=hotly
nextToken=stamp
PAY
nextToken=interfere
nextToken=Maine
nextToken=Qintex
nextToken=motivate
nextToken=inefficiency
nextToken=lungs
nextToken=Westinghouse
nextToken=Diego-based
nextToken=Individual
nextToken=Shattuck
nextToken=contentious
nextToken=minimalist
nextToken=unseemly
nextToken=70.9
nextToken=specially
nextToken=dense
nextToken=Connecticut
nextToken=updated
nextToken=Colgate
nextToken=pin
nextToken=custom-tailored
nextToken=home-equity
nextToken=entrust
nextToken=crossed
nextToken=alter
nextToken=Caterpillar
nextToken=308.32
nextToken=par
kills
nextToken=new-model
nextToken=Scenario
nextToken=collects
nextToken=103,000
nextToken=suspicion
nextToken=mental
dependent
nextToken=ecological
nextToken=restructurings
reformulated
nextToken=unplanned
nextToken=P\/E
nextToken=various
nextToken=contention
nextToken=waning
nextToken=prosperous
Sens.
nextToken=Denver
nextToken=irresponsible
nextToken=Wardair
nextToken=Senate-passed
nextToken=contemporary
nextToken=diagnostic
nextToken=Thanksgiving
nextToken=Sidley
nextToken=Tide
nextToken=Greenery
blames
Pay
nextToken=protect
nextToken=preaching
nextToken=synthetic
nextToken=anxious
nextToken=tearing
nextToken=newer
nextToken=deepening
nextToken=careless
nextToken=Tina
nextToken=elaborate
nextToken=debt-equity
nextToken=stabbed
always
nextToken=Tokyu
ex-dividend
nextToken=inexorable
nextToken=greed
nextToken=Muslims
nextToken=intermission
nextToken=impaired
nextToken=unrealized
nextToken=Renaissance
nextToken=high-octane
nextToken=confessions
Sleep
nextToken=Weston
nextToken=frenetic
serene
nextToken=stabilizing
nextToken=inflammatory
nextToken=Fairfield
nextToken=luxurious
nextToken=construction-related
nextToken=Grace
nextToken=loud
Put
nextToken=pizzazz
nextToken=flourishing
participating
nextToken=Meyer
nextToken=built-in
nextToken=negatively
nextToken=microprocessors
nextToken=tariffs
anytime
nextToken=waved
spiked
both
nextToken=ARCO
nextToken=relaxing
nextToken=mighty
nextToken=greeted
nextToken=traumas
nextToken=reinvestment
nextToken=non-executive
nextToken=probation
nextToken=Makro
nextToken=save
avoid
nextToken=prove
Concerned
nextToken=Delco
nextToken=haunting
nextToken=propulsion
nextToken=bailouts
nextToken=calculating
nextToken=Xtra
nextToken=Dentsu
nextToken=skill
nextToken=proof
nextToken=precious-metals
nextToken=terrific
nextToken=eliminate
nextToken=reappearance
detectable
nextToken=mapping
nextToken=foundering
nextToken=overtime
nextToken=Nerds
nextToken=inserted
nextToken=crashing
nextToken=market-maker
nextToken=inching
nextToken=appropriately
nextToken=showrooms
nextToken=99.5
nextToken=opinions
nextToken=8.125
nextToken=asbestos
nextToken=Dreman
nextToken=Sandinista
shooting
nextToken=pacemakers
nextToken=menus
nextToken=elephant
nextToken=4,500
nextToken=alien
nextToken=Israeli-occupied
nextToken=Quantum
nextToken=ventilated
nextToken=Alar
nextToken=Innopac
campaigning
nextToken=overbid
nextToken=Think
nextToken=wounded
nextToken=rum
nextToken=Hayward
nextToken=27-year-old
nextToken=opportunists
nextToken=personalities
nextToken=smash
nextToken=thorough
nextToken=0.8
nextToken=0.7
nextToken=0.9
nextToken=0.4
nextToken=7\/32
nextToken=Comfort
nextToken=toiling
nextToken=Waldbaum
nextToken=unoccupied
nextToken=boldly
nextToken=stretching
nextToken=husbands
nextToken=distant
concurrent
nextToken=revelations
nextToken=shy
nextToken=casual
nextToken=concentrates
nextToken=figuring
nextToken=violent
Help
nextToken=orchards
Sell
nextToken=assured
nextToken=obsolete
nextToken=smack
nextToken=dispersant
reinvested
nextToken=weighted
nextToken=occupancy
nextToken=anti-smoking
Here
nextToken=unborn
nextToken=Kyodo
nextToken=blast
nextToken=172
nextToken=178
nextToken=175
evenhanded
nextToken=163
nextToken=162
nextToken=161
nextToken=168
nextToken=blase
bred
nextToken=sheltered
nextToken=196
nextToken=193
nextToken=199
nextToken=198
nextToken=181
nextToken=loss-making
nextToken=188
nextToken=186
nextToken=exceedingly
nextToken=133
nextToken=harried
nextToken=131
nextToken=137
nextToken=animal-rights
nextToken=123
nextToken=127
nextToken=speaking
nextToken=156
nextToken=defeated
nextToken=153
nextToken=158
nextToken=rush-hour
nextToken=141
nextToken=144
nextToken=142
nextToken=microscopic
nextToken=148
nextToken=139
nextToken=C.J.
nextToken=dined
nextToken=1.0
nextToken=sow
nextToken=surreal
nextToken=112
nextToken=114
nextToken=113
nextToken=106
nextToken=Citibank
nextToken=sights
nextToken=mass-market
nextToken=101
nextToken=102
nextToken=Medellin
observed
nextToken=escrow
nextToken=Fireman
reignited
nextToken=waterfront
nextToken=IAFP
nextToken=Farmington
nextToken=FileNet
nextToken=Imprimis
nextToken=nominated
nextToken=Schering-Plough
nextToken=Wasserstein
nextToken=chronically
nextToken=Commodore
nextToken=necessities
nextToken=unduly
nextToken=Refcorp
nextToken=Bullocks
nextToken=Falconbridge
nextToken=contingent
nextToken=draw
nextToken=crooked
nextToken=Marriott
converts
nextToken=cushioning
nextToken=thoughtless
