GIS
1
0.0
3
O
B-NP
I-NP
7
11706 0
7598 0 1
13884 0 1 2
8741 0 2
5180 1
11895 1 2
11369 2
70373
undermining
preToken=Eggs
preToken=bushel
=
?
preToken=Kleinman
preToken=Cawthorn
preToken=indicator
e
preToken=outsiders
preToken=specializes
undulate
preToken=gunmen
preToken=balls
preToken=nevertheless
preToken=49%-owned
perilously
preToken=Prosecutors
preToken=molecules
preToken=contest
preToken=delegates
preToken=Isle
preToken=Keteyian
nextToken=exaggerate
nextToken=486-based
preToken=unavailable
nextToken=conscientious
nextToken=licking
preToken=context
preToken=Nonetheless
Faced
timed
nextToken=waived
became
jolted
preToken=configuration
preToken=cycles
nextToken=dawn
preToken=surtax
preToken=ASCAP
nextToken=reimpose
nextToken=Hochiminh
preToken=amazement
prevented
preToken=groans
nextToken=muddied
nextToken=off-balance
preToken=gerrymandering
preToken=ineptitude
adorned
assume
preToken=audition
nextToken=SPAN
attends
balking
budged
funnel
preToken=resumes
preToken=philosophies
specifically
preToken=phrase
preToken=Vyas
Finding
Given
nextToken=wander
assure
nextToken=marry
nextToken=99.14
preToken=inevitably
preToken=partially
preToken=distracted
nextToken=Everyone
nextToken=disclose
preToken=guests
preToken=unanimously
preToken=bushels
preToken=Fridays
nextToken=undermining
paled
preToken=spouses
nextToken=self-incrimination
nextToken=chemical-weapons
grumble
borrow
preToken=outgrowth
preToken=Pilevsky
nextToken=victimized
retrieved
nextToken=Zimbabwe
nextToken=costumed
nextToken=debating
preToken=busily
pumped
resisting
pales
preToken=Novell
nextToken=assuage
preToken=Dalton
preToken=brigades
relax
nextToken=potholes
'm
yielded
curry
hoping
preToken=Payroll
preToken=Gingrich
overhanging
preToken=embarrassment
nextToken=specialization
preToken=Alceste
preToken=gunned
preToken=stumble
nextToken=26.23
balk
preToken=busier
waving
preToken=Kleiber
preToken=Strieber
preToken=analyses
freeing
Equally
regained
preToken=contender
wiping
nextToken=kicking
nextToken=Denny
preToken=Gallagher
inspire
seeks
nextToken=Ernst
nominate
preToken=shivers
nextToken=Cetus
preToken=minimalism
nextToken=Takashi
preToken=Gutfreunds
preToken=Siemienas
preToken=Unions
admit
preToken=relocated
eagerly
nextToken=bolted
nextToken=SONG
nextToken=convulsions
nextToken=Staff
across
nextToken=Revised
preToken=converters
nextToken=pooled
preToken=racehorses
stir
preToken=consciousness
preToken=McEnaney
preToken=bales
preToken=Istat
preToken=tearing
preToken=Eskridge
seems
preToken=guarded
nextToken=pondering
unwind
nextToken=namely
preToken=accommodated
nextToken=Translated
preToken=diapers
nextToken=Prague
preToken=accumulation
preToken=Frankly
nextToken=rebut
preToken=Maier
preToken=leaning
preToken=criteria
Be
characterize
By
tearing
evaporated
Ca
complements
nextToken=supportive
reassigned
preToken=virtues
nextToken=single-A-plus
nextToken=Trinova
preToken=myths
preToken=Yorkers
nextToken=lift-ticket
nextToken=Isabella
preToken=recourse
nextToken=44,877
preToken=journey
preToken=fines
nextToken=Putting
nextToken=disarm
nextToken=comprising
preToken=eagerly
IF
IS
preToken=goodies
nextToken=142.85
If
preToken=dents
nextToken=142.70
Is
nextToken=ground-based
nextToken=142.75
preToken=attendees
thoroughly
preToken=integrity
flies
nextToken=microbes
preToken=fizzled
preToken=embark
nextToken=142.43
graciously
Formally
supportive
nextToken=provocatively
preToken=defecting
OF
chose
preToken=Thereafter
ON
Of
Oh
Or
preToken=retrenchment
preToken=unreasonable
preToken=weaknesses
preToken=arrears
preToken=stave
preToken=honestly
remain
preToken=endangerment
specifying
preToken=freezing
nextToken=Henley
TO
nextToken=indict
To
UP
sued
penalized
preToken=lungs
preToken=tones
effectively
rained
comprising
comfortably
preToken=Periodically
preToken=bogged
preToken=condos
preToken=mystique
proceeded
nextToken=Provigo
nextToken=Anyone
sunk
sung
nextToken=lump-sum
looms
nextToken=revoke
preToken=affiliation
preToken=LeGere
preToken=carcinogenic
nextToken=Indonesia
nextToken=parkway
preToken=veracity
ai
extend
fold
nextToken=paints
impervious
preToken=infidelity
be
nextToken=99.35
preToken=sorts
preToken=responsibility
nextToken=Weirton
ca
nextToken=impervious
preToken=accountable
preToken=tolls
nextToken=faulty
nextToken=99.90
do
preToken=updates
nextToken=afflicts
nextToken=99.75
recalled
preToken=buyouts
renew
nextToken=99.85
triggered
preToken=Prize
nextToken=infringe
preToken=consisted
preToken=Prizm
violently
preToken=Barletta
preToken=Rumors
preToken=Receipts
is
writhing
nextToken=relying
preToken=posture
preToken=monster
nextToken=Anchorage
suggests
preToken=birthplace
nextToken=above-average
profited
preToken=fliers
na
preToken=rigidity
oh
preToken=19\/32
preToken=demon
preToken=resistant
preToken=re-enactment
outlawing
nextToken=Rohm
preToken=dramatizations
choke
preToken=balking
preToken=chords
preToken=Illustrated
adopt
oppose
derided
preToken=Prior
Additionally
maintains
nextToken=Purchase
preToken=accomplishments
preToken=Lourie
preToken=Compiled
preToken=grabs
uh
nextToken=SIBV-MS
nextToken=relinquished
protesting
summoned
wo
nextToken=articulate
nextToken=educating
emphasize
preToken=grade
teach
subsidize
nextToken=extradited
preToken=hill
preToken=females
restricts
preToken=hesitantly
Noting
preToken=sidewalks
preToken=bands
mistakenly
nextToken=updating
preToken=hazards
preToken=hint
snaps
preToken=feats
preToken=priorities
nextToken=Ovonic
rocketed
preToken=Winners
preToken=graph
succeeds
preToken=valves
nextToken=Foxmoor
nextToken=166.9
nextToken=Phyllis
preToken=undertakings
resemble
nextToken=blatant
preToken=proliferation
preToken=hovering
preToken=Alito
preToken=populations
posing
nextToken=Rancho
preToken=lull
nextToken=Basil
avert
tracing
preToken=brigade
departed
preToken=immensely
preToken=Buffalo
inject
nextToken=dumping
preToken=crumble
nextToken=Sochaux
understand
preToken=Comments
preToken=troughed
nextToken=Volume
preToken=ranches
preToken=hamstrung
inconsistent
nextToken=reimbursement
Valued
nextToken=Posted
nextToken=chess
preToken=fodder
preToken=selections
lagged
preToken=Kummerfeld
preToken=luck
restoring
appalled
sorely
preToken=possessions
nextToken=Givaudan
preToken=depositions
preToken=promoted
preToken=2659.22
witnessing
nextToken=527,000
nextToken=standardized
lessen
nextToken=foreseen
nextToken=Eurostat
preToken=Siegel
preToken=151,000
preToken=crucible
convict
entrust
preToken=reappointed
preToken=FK-506
reverts
nextToken=beaten
trapped
preToken=collectively
nextToken=Petrolane
preToken=Novato
nextToken=witnessing
preToken=vaults
preToken=bloodbath
preToken=Krisher
nextToken=sideways
deprive
okay
stationed
preToken=unattractive
preToken=downsizing
preToken=depending
preToken=scourge
preToken=Goode
nextToken=regulating
preToken=CERTIFICATES
Quack
nextToken=disband
nextToken=Amcore
preToken=Sorrell
preToken=gasolines
manually
preToken=violet
stimulate
nextToken=bedevil
preToken=Zapfel
solicited
preToken=practitioners
interviewed
preToken=reasoning
been
appreciate
preToken=Jenkins
nextToken=implement
preToken=Bachman
Pressed
nextToken=appease
preToken=denial
repel
preToken=Universities
preToken=disarray
preToken=movements
fudge
nextToken=glowing
Generally
subsidizing
nextToken=aflatoxin
preToken=Godown
preToken=instances
nextToken=Post-Newsweek
dropped
nextToken=undertake
preToken=depressant
preToken=endeavor
preToken=Eaux
nextToken=aggravate
preToken=Levin
Obviously
preToken=Trabold
preToken=stacks
preToken=Lombardi
reimpose
regulating
preToken=Lombardo
preToken=diminishing
preToken=sergeant
preToken=looked
preToken=Payson
preToken=Magazines
nextToken=suspend
Unknown
preToken=competes
preToken=frugality
preToken=accustomed
preToken=Salvagni
nextToken=riots
reacting
fret
preToken=Countries
afraid
preToken=CRRES
preToken=betas
preToken=earthworms
replacing
nextToken=Anchor
inspect
expires
preToken=Roseanne
nextToken=Calor
preToken=classes
fretting
preToken=temptation
nextToken=crafted
nextToken=Basel
nextToken=hide
preToken=ditch
preToken=courses
seize
preToken=six-cent
undergo
nextToken=Rick
nextToken=fat-tired
preToken=drop-off
preToken=Zayadi
smells
49%-owned
preToken=Albania
nextToken=punish
nextToken=six-figure
nextToken=Bausch
repay
preToken=walls
subtitled
preToken=entries
valuing
adapted
shortly
providing
preToken=blocker
nextToken=Knight-Ridder
nextToken=capitalize
communicate
nextToken=smoothly
hesitate
applauded
raged
preToken=Lidgerwood
preToken=write-down
preToken=patronizing
preToken=juices
shorten
urged
urges
preToken=fortunes
preToken=proportion
nextToken=amaze
filled
nextToken=risen
nextToken=collaborating
bumble
preToken=styling
coupled
preToken=whispering
preToken=studios
nextToken=necessarily
nextToken=striving
outweigh
nextToken=steadfastly
preToken=outrage
shifted
nextToken=cumin
preToken=abstained
nextToken=undergo
nextToken=defying
screaming
preToken=unwillingness
marrying
situated
preToken=invasion
nextToken=hum
lobbied
nextToken=Centronics
speculated
preToken=Thrombinar
preToken=athlete
nextToken=470.80
preToken=Markese
preToken=WTXF
nextToken=generalize
preToken=functionaries
preToken=Predictably
preToken=occur
nextToken=Conrail
nextToken=arisen
omit
nextToken=Nixdorf
miscalculated
preToken=Whitford
preToken=handwriting
preToken=impassively
preToken=environmentalists
preToken=sailed
preToken=conspired
preToken=reflection
preToken=persists
preToken=Hollister
preToken=shopper
preToken=Scalfaro
isolate
nextToken=Acadia
nextToken=During
entered
preToken=deemed
preToken=resign
preToken=cornea
preToken=processors
nextToken=off-budget
Instead
depress
nextToken=signaling
nextToken=jeopardize
preToken=Probing
nextToken=repairing
preToken=finals
preToken=wrinkle
nextToken=Fitch
preToken=songs
reappointed
preToken=crust
nextToken=hemorrhoids
brought
composed
preToken=classifications
rescinding
preToken=waned
skewed
preToken=cache
nextToken=DEPOSIT
awaits
unnerved
preToken=plurality
jeopardize
Largely
preToken=hero
preToken=mushroomed
preToken=verification
loses
preToken=Pretl
sells
relying
preToken=herd
preToken=Ramirez
preToken=Concerns
preToken=hell
preToken=Byler
nextToken=alleviate
preToken=Sochaux
preToken=Renk
redeemed
preToken=jeopardy
crippled
preToken=folklore
preToken=huddled
preToken=boilers
surprised
nextToken=sketchy
understate
preToken=drawings
preToken=cooperating
laughing
declare
nextToken=double-A-minus
claiming
preToken=confidant
preToken=clouded
preToken=afternoons
preToken=neutrons
figured
collects
preToken=selection
hesitant
preToken=Lieber
preToken=Revisited
preToken=justification
nextToken=abused
preToken=screenplay
preToken=heck
preToken=addicted
provoked
preToken=Concerto
resembles
preToken=memorandum
crashed
preToken=feuding
nextToken=remembering
preToken=flowers
nextToken=Caution
preToken=impediments
preToken=calculation
preToken=hopelessly
nextToken=NewsEdge
studied
preToken=routed
preToken=heap
entwined
shrugged
nextToken=dangling
preToken=orchestras
preToken=Nichols
preToken=NYSE
preToken=appearance
preToken=Undeterred
defecting
pummeled
onto
preToken=perked
preToken=Hilger
nextToken=NYSE
flown
preToken=snowballed
purged
preToken=pottery
preToken=branches
realizes
loved
preToken=distortions
preToken=Psyllium
preToken=2149.3
preToken=unfulfilled
preToken=Shortly
preToken=Abramson
preToken=tapers
preToken=Bonfire
nextToken=Kroger
loves
reminded
pitted
preToken=clashed
preToken=Victoire
preToken=DEPOSIT
redraw
improve
nextToken=Xerox
nextToken=unprofessional
nextToken=heed
preToken=roofs
nextToken=Settle
nextToken=Alceste
nextToken=scratching
liable
preToken=exposures
rewritten
outweighed
preToken=stripes
preToken=muscles
acquires
preToken=Grannies
Unlike
preToken=fingers
nextToken=brutally
nextToken=pedal
resistant
nextToken=Reno
manage
conducts
preToken=roots
preToken=rehearing
preToken=disposals
nextToken=persuasively
preToken=Lublin
preToken=Tarter
aided
nextToken=interfering
preToken=waffle
abandoning
nextToken=leveraged-buy-out
recognizing
preToken=schedules
Like
preToken=profitably
preToken=stockholdings
preToken=Usually
amply
preToken=teen-agers
nextToken=piped
preToken=Meantime
preventing
Compared
preToken=outfield
preToken=debts
nextToken=entice
Called
preToken=sympathize
existed
preToken=beefed
nextToken=treating
nextToken=Champion
preToken=whoever
involve
preToken=stationed
Shortly
preToken=pennant
cheated
preToken=confessions
preToken=McNeil
vehemently
preToken=apiece
preToken=Summerfolk
interpret
preToken=Steinkuehler
recommends
convert
preToken=rallies
nextToken=5.75
nextToken=Should
nextToken=overstate
preToken=brunt
nextToken=clouded
nextToken=balking
vividly
unseen
nextToken=offend
convene
nextToken=budge
preToken=lows
preToken=Postipankki
depicted
interpreting
nextToken=paralyzed
nextToken=provoked
preToken=crops
preToken=destiny
invested
nextToken=evenly
preToken=Strasser
preToken=soviets
preToken=Patients
swamp
preToken=deadlines
associating
preToken=drift
preToken=loot
nextToken=irradiated
pointedly
Complying
knocks
ranged
preToken=sympathies
nextToken=wasting
preToken=single-A-1
preToken=single-A-2
preToken=single-A-3
nextToken=71%-owned
muddied
nextToken=thrown
linking
worsened
among
preToken=bacon
galvanize
nextToken=destroying
churn
defended
preToken=Foret
preToken=contiguous
preToken=decor
nextToken=theirs
sends
preToken=acquirers
preToken=Caution
preToken=logo
preToken=Needs
nextToken=industry-specific
balked
preToken=decks
preToken=Volk
nextToken=introduce
preToken=Foreigners
nextToken=Schroders
nextToken=Each
preToken=jumbos
preToken=Westendorf
risk-free
preToken=euphoria
preToken=seminars
preToken=Hogan
preToken=cult
nextToken=Allentown
preToken=Delivery
preToken=loft
preToken=robbers
preToken=Hickey
Putting
preToken=brochure
preToken=leveled
preToken=relaxation
forbidding
Worse
preToken=Gomez
preToken=Included
nextToken=curbed
dumped
nextToken=hoses
preToken=Sherlund
chiefly
preToken=crimes
visited
swear
nextToken=n't
driven
preToken=Claridge
nextToken=Enserch
preToken=obfuscation
preToken=culmination
cashed
portends
preToken=professed
preToken=gainer
preToken=Warshaw
dispelled
stepped
preToken=Wilkinson
preToken=responsibly
preToken=intervened
preToken=valley
preToken=seriousness
preToken=calamity
preToken=Turks
preToken=creativity
preToken=Harrington
nextToken=privatize
recommend
preToken=Peninsula
preToken=mistakes
sneaked
understood
preToken=samples
preToken=prevails
preToken=proposition
nextToken=preferably
preToken=single-B-1
preToken=single-B-2
preToken=single-B-3
nextToken=Tivoli
preToken=smarter
discontinuing
preToken=sampled
preToken=backlash
conquer
locking
preToken=suited
preToken=Carver
endured
depends
nextToken=exporting
preToken=Eidsmo
preToken=suites
Hence
nextToken=mitigate
prevail
preToken=self-sufficient
preToken=Farooquee
nextToken=Willie
preToken=Developers
nextToken=Thrift
preToken=arrived
Without
preToken=installments
preToken=arrives
preToken=exhaustion
nextToken=hyperinflation
preToken=inconvenience
hampered
preToken=tuitions
nextToken=undo
infringing
preToken=wardens
preToken=mistakenly
preToken=messing
keep
preToken=Hardis
nextToken=consolidate
preToken=lights
nextToken=Candice
preToken=arrival
preToken=perfection
nextToken=displaced
preToken=unobserved
nextToken=so-so
nextToken=41.60
nextToken=non-Japanese
nextToken=adamant
nextToken=indebted
promoting
preToken=stepped
nextToken=Dillard
nextToken=High-grade
assuage
fueled
preToken=raiders
Hello
preToken=insects
celebrating
portray
nextToken=Vesoft
condone
preToken=ambition
commenting
nextToken=mop
preToken=technicality
overturn
preToken=Smale
preToken=urgently
nextToken=nerdy
nextToken=nerds
preToken=durables
kept
wedged
assign
widen
indefinitely
preToken=ropes
Probably
preToken=lethargy
preToken=prostaglandin
nextToken=WTXF
preToken=incompetence
preToken=waits
Encouraged
preToken=resulted
preToken=ugly
termed
preToken=Rudman
nextToken=enhancing
preToken=flip-flop
preToken=Althea
preToken=Barabba
preToken=Negus
concurred
nextToken=Retailers
faltered
preToken=hail
preToken=belongings
periodically
nextToken=Betsy
preToken=McElroy
nextToken=westward
preToken=battlefield
nextToken=viciously
preToken=Rage
blew
preToken=Rahn
preToken=sneaked
preToken=tucked
preToken=judged
assist
preToken=Writing
preToken=deeds
nextToken=hospitalized
praised
preToken=fragility
preToken=specializing
preToken=Dornan
preToken=intimacy
preToken=equilibrium
expects
preToken=prevail
nextToken=sprung
preToken=Environmentalism
instrumental
preToken=21\/32
nextToken=exempted
preToken=Negas
nextToken=plentiful
nextToken=eroded
reveal
nextToken=stacking
ambushed
nextToken=Ikegai-Goss
asserted
preToken=drifting
preToken=rendition
nextToken=Things
preToken=disposed
nextToken=Hymowitz
considers
allowing
preToken=observations
plagued
govern
preToken=ostensibly
preToken=Name-dropping
begins
framed
nextToken=accrue
costumed
arrives
arrived
preToken=drifted
preToken=Portugal
preToken=circulated
preToken=Mulroney
speaks
nextToken=Avondale
preToken=pizzazz
preToken=discrepancy
Unless
recycles
preToken=souring
preToken=effortlessly
revise
preToken=powerhouses
Above
preToken=grounded
remove
preToken=dilution
nextToken=broadening
revive
preToken=shortsighted
nextToken=Isetan
preToken=playoffs
integrating
preToken=Living
nextToken=attaching
suspend
nextToken=730,070
nextToken=enlisted
nextToken=pharmacies
nextToken=subsidizing
nextToken=echoing
initiated
nextToken=forgiven
preToken=compositions
Through
preToken=Plaskett
nextToken=impassively
fantastic
preToken=corporatism
Undeterred
nextToken=Jayark
recognize
echoing
preToken=iceberg
Would
preToken=124,875
receive
equate
preToken=defects
nextToken=ugly
nextToken=Pravda
predates
preToken=jealousy
nextToken=inter-American
repurchasing
nextToken=Rage
nextToken=oat
preToken=There
preToken=widows
identifies
preToken=belts
preToken=splendidly
preToken=banished
preToken=Afterward
preToken=Witman
nextToken=reconstruct
lately
preToken=purists
nextToken=inexpensive
sliding
preToken=Niles
employs
consider
preToken=Offices
nextToken=Commons
nextToken=Rank
nextToken=41.76
substituting
marking
nextToken=Avalon
preToken=sluggishness
nextToken=rivers
preToken=beings
preToken=Packer
preToken=calculators
evaluating
nextToken=hesitant
nextToken=Kathryn
committing
preToken=crew
preToken=Goldston
tells
preToken=administrators
insulated
injecting
preToken=bottomed
nextToken=brown-tobacco
preToken=Kahan
nextToken=inspect
preToken=freedoms
preToken=Aurora
tame
nextToken=hunky-dory
preToken=unnecessarily
appease
preToken=Harlow
preToken=Gilmartin
allege
preToken=imprisoned
preToken=Kegler
nextToken=mid-afternoon
eliminating
serve
preToken=vessels
nextToken=redeemed
Have
seriously
preToken=envelopes
convenient
preToken=surges
uninspired
preToken=academia
preToken=B.V.
preToken=litigators
nextToken=rivets
preToken=campuses
plowed
appears
ranked
preToken=Driscoll
overturned
funneling
provocatively
preToken=consulted
preToken=hunters
preToken=Miss.
nextToken=updates
loathed
entitle
mastered
outfly
bribed
girding
celebrate
guessed
nextToken=erasing
swept
nextToken=Revlon
ratified
eschewed
preToken=modification
nextToken=prevalent
preToken=gingerly
briefly
embodied
nextToken=employing
nextToken=disappointingly
establishes
hovered
preToken=completion
nextToken=Damascus
nextToken=writhing
nextToken=environmentalism
preToken=comrades
preToken=autobiography
preToken=anthers
Furthermore
nextToken=thwart
preToken=oversold
preToken=leathers
nextToken=disturbed
westward
nextToken=diminishing
preToken=calves
topple
preToken=inconsistent
posted
blamed
preToken=clause
preToken=Leemans
breathed
preToken=hedgers
preToken=shipbuilder
mitigate
nextToken=sustainable
spearheaded
moved
preToken=jumps
preToken=warranties
preToken=seizures
irresponsibly
contiguous
nextToken=malice
preToken=bench
prevent
preToken=self-incrimination
nextToken=SoftLetter
preToken=inching
preToken=experimentation
preToken=placements
preToken=heredity
nextToken=awhile
nextToken=stifle
preToken=universe
nextToken=BanPonce
tended
nextToken=sided
preToken=rewarded
preToken=Shioya
preToken=Weichern
bode
conducted
nextToken=Josephine
preToken=Mehta
nextToken=quadrupled
interfering
lamented
preToken=rewritten
wielding
preToken=dined
preToken=McDermott
disposing
preToken=Complying
nextToken=expecting
nextToken=feedlots
preToken=opportunists
mount
preToken=tinkering
preToken=summers
nextToken=reshaping
preToken=Somalia
nextToken=161.5
preToken=congestion
preToken=Clifton
preToken=Somalis
preToken=Clanahan
preToken=slowly
imprisoned
Look
preToken=Chesley
overlooking
preToken=33.25
experimented
kicking
preToken=connections
nextToken=self-sufficient
oust
reorganize
erasing
preToken=symposiums
preToken=Tanner
heighten
preToken=existed
protect
preToken=insulins
born
bore
nextToken=reforming
preToken=appended
preToken=housekeeper
preToken=Dorsch
preToken=certainty
affecting
understands
preToken=write-downs
preToken=globalists
nextToken=revising
preToken=refineries
preToken=Blumstein
preToken=McGlade
switched
preToken=artifact
preToken=fruits
smoothly
preToken=thanks
nextToken=cross-connect
preToken=roles
nextToken=likened
splendidly
preToken=Premner
preToken=degrees
nextToken=punished
preToken=misconduct
preToken=Thing
nextToken=patronizing
preToken=lips
preToken=cows
reduce
preToken=clarification
preferring
preToken=constrained
preToken=Shore
preToken=Hercules
preToken=bombing
preToken=benches
preToken=intelligently
waiving
toying
preToken=advocated
preToken=Thief
nextToken=Somalia
preToken=cord
nextToken=depriving
nextToken=curbing
wobbly
preToken=hacker
preToken=conviction
chided
reinstate
nextToken=define
attests
preToken=Swissair
yanked
nextToken=endanger
chides
preToken=protege
preToken=notices
nextToken=trampled
nextToken=exiled
Oddly
nextToken=non-residential
nextToken=2003-2005
preToken=cope
preToken=Appel
preToken=moderates
wooing
instantly
preToken=jetliners
re-examine
preToken=Known
preToken=Going
nextToken=rid
preToken=Koenig
rebuffed
preToken=Thrifts
double-A-minus
applauds
preToken=lied
preToken=lieu
mailed
preToken=Kaifu
benefiting
preToken=rolls
nextToken=entwined
nextToken=gotten
nextToken=enforcing
nextToken=Tariffs
suspending
preToken=Knopf
preToken=sponsorship
preToken=coat
wraps
preToken=inched
preToken=memberships
flunk
topped
preToken=32.125
tends
preToken=happening
nextToken=Grumman
preToken=ambassador
preToken=participant
preToken=Moreover
preToken=carpeting
squared
preToken=Cokely
nextToken=satisfy
nextToken=projecting
nextToken=reruns
connect
ordered
preToken=portion
violating
preToken=Ohlman
preToken=EWDB
preToken=award
preToken=contributors
predicted
owes
abated
preToken=galleries
owed
projecting
nextToken=rye
motivate
nextToken=dispatch
preToken=pubs
definitively
preToken=Accident
preToken=probation
nextToken=computerizing
preToken=Minor
frankly
preToken=participate
ascending
nextToken=Danvers
preToken=unhappiness
preToken=Bologna
preToken=stagnation
owns
disapproved
including
indistinguishable
preToken=Arabic
preToken=criminality
nextToken=impatient
preToken=classics
nextToken=per-capita
contrasted
preToken=Stovall
Comes
preToken=Lippens
preToken=Salespeople
preToken=Kalmus
nextToken=repainted
tear
attach
preToken=Tharp
nextToken=drum
registering
preToken=greenhouses
premiering
nextToken=Ogden
preToken=Lasker
nextToken=restrain
preToken=Minna
preToken=vests
ostensibly
preToken=abolition
preToken=Pissocra
nextToken=accede
preToken=Iceland
nextToken=laughter
attain
preToken=Aronson
preToken=know-how
preToken=fiasco
submitting
nextToken=21.44
nextToken=History
preToken=posts
tell
squarely
slashed
accustomed
unethical
erratically
creates
tend
preToken=reliever
scoops
nextToken=Kleinwort
nextToken=penetrated
preToken=kylix
Otherwise
preToken=tardy
nextToken=Being
examining
mentions
preToken=hurry
preToken=Lives
preToken=hatched
preToken=Carmon
nextToken=loosen
preToken=right-to-lifers
nextToken=looser
adamant
preToken=notoriety
preToken=readiness
preToken=revelations
nextToken=authorize
preToken=0.0108
preToken=Blandon
nextToken=bribing
expands
nextToken=Carnegie
preToken=Activity
nextToken=sue
preToken=Tracers
nextToken=tendering
preToken=geography
preToken=downtrend
nextToken=basing
preToken=porch
preToken=creature
preToken=portions
nextToken=Husker
preToken=defect
bumped
opposes
preToken=pores
preToken=likelihood
nextToken=piggybacking
preToken=WILL
preToken=NOTE
opposed
preToken=nettlesome
nextToken=Nationwide
inform
preToken=hideaway
preToken=pragmatist
preToken=pragmatism
execute
examine
preToken=wandering
nextToken=Kyoto
preToken=arson
preToken=outages
exploiting
preToken=Village
sever
preToken=Newsom
disrupt
nextToken=problematic
preToken=mid-1990
preToken=mid-1992
raped
profiting
preToken=Ondaatje
routinely
nextToken=hedgers
preToken=cousins
emphasizing
nextToken=Allied-Signal
nextToken=underperform
nextToken=milestones
nextToken=Exit
lingers
preToken=verge
portraying
preToken=duplicity
preToken=popping
verify
preToken=graduated
nextToken=Akzo
off-base
preToken=Palace
nextToken=bubble
revising
insure
preToken=Himebaugh
preToken=polyps
instead
markedly
preToken=Bouillaire
agrees
preToken=speculating
nextToken=unfortunate
good-natured
nextToken=1.8300
devastated
nextToken=alleviating
preToken=posters
abandons
nextToken=bending
preToken=illusion
preToken=16\/32
complained
barring
preToken=necessities
wanting
preToken=deterioration
preToken=Adults
preToken=illness
preToken=waters
preToken=precluded
nextToken=gold-mining
preToken=thoroughly
administer
preToken=2596.72
declares
preToken=Branford
nextToken=shorter
nextToken=shorten
nextToken=comedian
nextToken=panned
preToken=confronted
nextToken=1.8340
declared
nextToken=Westpac
rated
nextToken=1.8355
nextToken=1.8353
preToken=walkouts
ruminated
differently
preToken=clip
nextToken=Valhi
preToken=headache
nextToken=paper-company
nextToken=buckets
nextToken=Bethlehem
nextToken=M-Whatever
preToken=prop
nextToken=proudly
preToken=assassinations
sounded
preToken=Golomb
preToken=specifics
preToken=monetarists
Theoretically
postponed
preToken=inexplicably
preToken=clan
preToken=juries
preToken=prey
preToken=provocatively
nextToken=Consumers
nextToken=however
preToken=4.625
opting
commercialize
preToken=decoration
popping
preToken=Drew
nextToken=twisted
nextToken=restart
preToken=desire
nextToken=acquitted
nextToken=collateralized
preToken=immigrants
nextToken=reversing
preToken=readings
nextToken=predictive
nextToken=substituted
preToken=Gabele
preToken=Culture
unfit
observe
furnish
Though
nextToken=guaranteeing
preToken=attractions
nextToken=liquefy
nextToken=4,830
anti-white
nextToken=accelerate
nextToken=Amax
preToken=Pyszkiewicz
preToken=thoughts
preToken=Chojnowski
preToken=footnote
unaware
gave
become
nextToken=Japanese-Americans
knew
preToken=usage
impeded
nextToken=macho
preToken=conceit
nextToken=1.8200
preToken=epicenter
preToken=frankly
preToken=squares
preToken=emphatically
stipulated
possesses
nextToken=hobbling
preToken=disappearance
preToken=displaced
nextToken=curtail
preToken=pointedly
nextToken=submitting
nextToken=Baa-2
preToken=emotions
nextToken=Said
nextToken=off-base
preToken=ESPs
expire
preToken=Briscoe
preToken=leap
dismantle
risking
biting
embracing
nextToken=Hasbro
nextToken=Kalamazoo
know
securing
argue
preToken=shoreline
nextToken=Sara
preToken=juice
preToken=Arafat
preToken=Normally
forcing
preToken=Schumacher
preToken=bitterly
preToken=rumblings
depended
addressed
contacted
preToken=stomachs
nextToken=broaden
edged
without
nextToken=mid-August
authorize
placate
nextToken=Dostoevski
preToken=Hulings
preToken=brink
preToken=accrual
ruined
nextToken=wet
preToken=dearth
gracefully
preToken=Corcoran
preToken=arbitrarily
nextToken=Jane
Unfortunately
nextToken=KCRA
complains
nextToken=opportunistic
nextToken=diversify
nextToken=Goodyear
sagged
write
nextToken=1868
harshly
install
braced
restrict
nextToken=What
preToken=basics
buoy
nextToken=acknowledging
nextToken=dazzling
nextToken=late-payment
preToken=dearly
unite
matter-of-factly
preToken=consequence
preToken=inventiveness
nextToken=roiling
burn
tied
nextToken=Humulin
wring
bury
quietly
nextToken=Magnascreen
preToken=commenting
preToken=Hartwell
angered
preToken=Dauchy
preToken=well-being
retreated
anyway
nextToken=discovering
inhibit
combining
preToken=lotion
preToken=crises
Writing
preToken=Freeze
till
preToken=3.625
attend
nextToken=bundled
nextToken=resuming
preToken=statue
basically
preToken=inequality
preToken=Repeal
nextToken=woo
preToken=imbalance
quieted
initially
Gradually
preToken=Typically
preToken=Bertolotti
nextToken=ironically
preToken=cuisine
nextToken=overpriced
preToken=fortune
preToken=minicar
nextToken=arrange
preToken=tactic
preToken=Leavitt
preToken=transcript
logically
preToken=obstruction
preToken=inmates
reveals
preToken=swung
posting
determining
preToken=magistrate
preToken=Mist
lacked
preToken=imitated
preToken=cookbook
nextToken=Kosovo
advising
preToken=Sukle
preToken=eavesdropping
predictably
single-B-plus
preToken=razor
preToken=assessments
preToken=ingredient
preToken=Canelo
preToken=acrimony
preToken=infusion
preToken=Dove
preToken=armies
preToken=servants
preToken=arsenals
preToken=ponds
preToken=Nevertheless
killed
preToken=hierarchy
preToken=Juliano
nextToken=insurance-company
preToken=O'Brien
preToken=rebels
preToken=heading
preToken=Milk
Secondly
deliver
headed
preToken=guys
preToken=Dorgan
looming
British-owned
accepts
nextToken=castor-oil
nextToken=antagonize
raided
belong
transform
attracting
nextToken=Twelve
nextToken=kindly
Upon
preToken=guts
preToken=frigates
preToken=blessing
extort
preToken=Mich
preToken=guns
nevertheless
preToken=reluctance
reshaping
nextToken=Radzymin
wears
preToken=Dome
preToken=Dogs
nextToken=Esso
preToken=Businesses
nextToken=ferociously
fantasize
nextToken=Leisure
preToken=robes
nextToken=armadillos
preToken=Lerner
nextToken=disappoint
nextToken=stalked
arise
preToken=Mahran
nextToken=allay
decisively
explains
nextToken=Michele
nextToken=nurses
preToken=Buyers
preToken=duration
preToken=absolutism
preToken=Pagong
nextToken=spares
preToken=pieces
preToken=qualities
preToken=boldly
preToken=ADRs
according
preToken=constituents
nextToken=Nissho
hobbling
shakes
shaken
nextToken=Temple
sprinkle
primed
nextToken=apartheid
preToken=relation
preToken=resentful
preToken=Margins
preToken=nervously
crashing
asserting
preToken=array
preToken=crept
nextToken=irreparable
preToken=smuggling
nextToken=irreparably
behave
unites
preToken=beers
preToken=Someone
nextToken=acute
preToken=Blodgett
nextToken=incumbents
preoccupied
preToken=resiliency
preToken=crest
promptly
preToken=survivors
nextToken=Fidel
Indeed
removed
removes
preToken=explanations
prompted
preToken=scenery
predict
preToken=credit-worthiness
nextToken=SmithKline
preToken=criticisms
containing
preToken=locations
preToken=conscience
preToken=successors
completes
nextToken=demoted
nextToken=Retired
preToken=Months
taken
takes
reinforcing
preToken=inventor
preToken=Vaux
preToken=stampeded
preToken=formally
preToken=Witnesses
attract
Leave
preToken=triumphed
nextToken=dearly
infringed
preToken=homeland
preToken=clanging
infringes
nextToken=oblivious
preToken=compatibility
preToken=Misanthrope
preToken=Lothson
preToken=Yeutter
embroiled
preToken=directive
preToken=brochures
preToken=critique
preToken=convictions
preToken=maneuvers
nextToken=whack
preToken=facade
preToken=definitions
interrupting
crafted
preToken=Harty
nextToken=unfulfilled
preToken=Jarvis
gets
preToken=tickets
nextToken=Enviropact
Elaborating
nextToken=1900
preToken=nuances
nextToken=1908
nextToken=24,000
preToken=Eubank
preToken=lags
nextToken=convey
preToken=Bruner
preToken=Hatch
preToken=dissented
preToken=Agnew
nextToken=minimizing
nextToken=79.03
preToken=orchestra
preToken=episodes
preToken=senders
preToken=unfortunately
nextToken=Winchester
preToken=Russo
preToken=sequels
directed
nextToken=1978
provoking
assembling
nextToken=1958
preToken=labs
preToken=Sawyer
nextToken=1963
nextToken=1964
nextToken=1965
nextToken=1960
nextToken=1969
nextToken=Everybody
nextToken=1939
nextToken=1935
directly
pokes
nextToken=1948
nextToken=propel
preToken=speakers
attached
nextToken=1953
nextToken=1951
consumed
nextToken=liquidate
preToken=miscarriages
preToken=improperly
nextToken=1926
nextToken=Atsushi
scored
nextToken=1932
preToken=x
preToken=aspirations
preToken='70s
preToken=b
preToken=e
preToken=f
preToken=c
preToken=d
preToken=Z
nextToken=Martha
nextToken=big-city
wiped
laying
vacated
preToken=accede
boasts
preToken=PAPERS
weakens
preToken=resilience
preToken=nostalgia
preToken=correspondence
nextToken=liquid-crystal
nextToken=None
Recently
aired
rescheduled
preToken=fleets
lightly
positively
preToken=accent
preToken=swaying
nextToken=Within
impress
preToken=Eddington
preToken=runners
preToken=tapes
nextToken=normalcy
preToken=sustainable
preToken=Krutchensky
expect
preToken=Mitsuoka
preToken=Hurley
preToken=50.875
preToken=fenugreek
nextToken=filtering
preToken=Monsky
nextToken=guarded
nextToken=small-denomination
securely
played
nextToken=puttable
co-sponsored
preToken=lookout
preToken=gradually
nextToken=hostage
nextToken=Crazy
consisting
preToken=decadence
preToken=Pinola
preToken=feelings
preToken=wedge
impeached
capitalizing
preToken=Cosby
preToken=adjudicators
preToken=helicopters
nextToken=Mussolini
preToken=duplex
preToken=ploy
versus
preToken=signaling
preToken=looting
preToken=financings
nextToken=trailing
preToken=undoubtedly
preToken=Ikegai-Goss
preToken=scream
preToken=industrialist
nextToken=scratch
nextToken=ashore
preToken=3.125
preToken=Aikman
realizing
preToken=Mondays
nextToken=mulling
nextToken=unconcerned
preToken=eroded
preToken=grid
nextToken=eagerly
preToken=grip
preToken=telemarketers
nextToken=metal-forming
preToken=screws
refused
refuses
preToken=Gortari
preToken=belonged
preToken=interpretations
preToken=Permanente
unable
preToken=shutdown
preToken=RATES
nextToken=mired
nextToken=excerpts
nextToken=derring-do
preToken=urgency
preToken=Corps
Describing
preToken=laureate
tentatively
contemplating
preToken=178.9
preToken=gram
Could
preToken=debacle
preToken=pokes
nextToken=potted
13.35
nextToken=curtailed
preToken=1993-2009
nextToken=refillable
advocating
preToken=audits
vertically
nextToken=yanking
preToken=rethink
penetrate
signaled
nextToken=scaring
preToken=differentials
nextToken=nationalized
preToken=Fazio
preToken=objections
Needless
smiled
preToken=InfoCorp
preToken=consortia
pave
preToken=Leahy
nextToken=Oranjemund
brings
preToken=deregulation
preToken=sandwich
preToken=Mehl
preToken=Kessler
requesting
preToken=nightmare
preToken=derivatives
pays
nextToken=Polly
Already
whereas
whereby
preToken=nowhere
preToken=Meek
nextToken=disgusted
preToken=prosper
preToken=swoon
preToken=poisoning
preToken=morass
unprofessional
nextToken=deflect
preToken=conversions
nextToken=Comair
preToken=Sharfman
nextToken=disruptive
preToken=Leach
sniffs
nextToken=Harpener
preToken=get-together
nextToken=expediting
refuted
preToken=dominance
nextToken=retirees
consistently
nextToken=disclosing
resuming
prosper
appear
nextToken=replete
preToken=strains
nextToken=Cigna
nextToken=battery-operated
nextToken=transplanted
nextToken=advancers
overlook
preToken=wiped
preToken=upturn
preToken=difficulty
Curiously
preToken=librarian
preToken=Estimates
nextToken=drifting
nextToken=abetting
swallow
revisit
preToken=streamed
preToken=superconductors
preToken=feminists
evade
preToken=maneuver
preToken=Carder
discover
nextToken=ceaselessly
preToken=Ironically
alerted
nextToken=Dunkin
saved
saves
preToken=allocations
marched
preToken=Fiechter
nextToken=tuned
Ironically
preToken=0.71
flocking
preToken=forgot
preToken=sympathy
preToken=0.88
preToken=shipsets
preToken=Bancorp.
preToken=denominations
wrote
insist
preToken=legitimacy
preToken=Callable
toil
preToken=wiring
nextToken=prevailing
Hold
told
nextToken=Sovran
nextToken=metrics
preToken=timidity
nextToken=Polyconomics
preToken=1,150,000
congratulated
took
nextToken=16.9
nextToken=Erik
preToken=occurring
stimulating
preToken='40s
tore
preToken=description
preToken=complexities
nextToken=11.95
preToken=invitations
preToken=distiller
preToken=mansion
exchanged
supplying
crimping
nextToken=antithetical
arouse
preToken=Bourse
tout
preToken=Gatos
sacking
preToken=Siberia
preToken=Jenks
swung
preToken=guards
preToken=Curran
nextToken=cleverly
nextToken=Honolulu
preToken=NEWS
preToken=Butler
preToken=Something
preToken=weapon
preToken=crawl
preToken=Shale
preToken=evenly
nextToken=tenfold
nextToken=higher-priced
preToken=doorstep
give
nextToken=adjusting
preToken=surprises
preToken=rebate
preToken=destinations
preToken=bluntly
hospitalized
reverberating
nextToken=11.04
preToken=reinstatement
reclaims
preToken=Jenco
preToken=middleman
weigh
nextToken=Toronto-Dominion
preToken=efficiently
dipped
preToken=pill
bring
nextToken=diminish
preToken=pile
preToken=pins
ordering
obligated
deleted
preToken=outbreak
preToken=Specifically
preToken=Regrettably
preToken=monopolies
preToken=filters
preToken=imperfections
ceaselessly
nextToken=ruining
preToken=37.75
exclude
preToken=Shaevitz
preToken=salvaged
preToken=pigs
nextToken=Crestmont
preToken=moderating
arose
identifying
preToken=62.25
preToken=origin
disbursed
preToken=dramatization
preToken=Georgetown
publish
preToken=wounds
nextToken=modify
preToken=BILLS
preToken=Please
preToken=Havana
preToken=epidemic
confronted
expand
preToken=offense
preToken=Presidency
preToken=13.35
investigate
embezzling
allows
nextToken=heavy-handed
preToken=tune
preToken=Died
preToken=Swasey
preToken=consequences
preToken=conversations
preToken=aisle
preToken=academics
preToken=raging
preToken=texts
preToken=subscribe
preToken=buzzwords
preToken=intentions
preToken=resemblance
aiding
preToken=entombed
nextToken=Leonid
preToken=Mandela
preToken=coffin
preToken=magnitude
bluntly
nextToken=infringing
extract
preToken=Profits
preToken=Brozman
nextToken=propose
shaped
nextToken=decreasing
preToken=Kroll
preToken=kindly
nextToken=takeoff
preToken=Sigoloff
nextToken=Brenda
nextToken=melt
preToken=aftermath
preToken=overhauled
relentlessly
preToken=suckers
unravel
preToken=misdeeds
preToken=cartoons
climbing
preToken=protections
preToken=contrasted
blunted
preToken=correctly
nextToken=mega
preToken=armor
preToken=86.50
preToken=dictated
pores
preToken=unfit
rewrite
preToken=cracks
nextToken=market-moving
preToken=additives
nextToken=eclipse
preToken=edged
shoving
nextToken=concocted
preToken=Lecheria
tardy
preToken=noses
belonging
preToken=Stoltz
unnerving
preToken=salvo
nextToken=crumbling
nextToken=Progressive
nextToken=deja
pollinate
nextToken=standardize
ceased
nextToken=Demand
nextToken=conferring
doubted
preToken=succession
preToken=Batibot
shaved
requiring
retains
prohibit
preToken=Brevetti
nextToken=reviewing
preToken=needle
nextToken=1.8578
hurling
redeem
nextToken=sunshine
preToken=ballroom
kicked
preToken=croaker
digesting
preToken=reliance
preToken=motions
preToken=yard
Thank
preToken=carp
began
preToken=cart
preToken=anonymity
fizzled
nextToken=Inside
squaring
preToken=cats
guaranteeing
shaping
preToken=appointment
nextToken=shove
nextToken=Verdi
subsided
nextToken=notoriously
preToken=deportation
accountable
preToken=cans
preToken=lecturer
complaining
nextToken=Oriental
gravely
preToken=Mass
nextToken=teaming
preToken=Congo
preToken=Marx
hammered
preToken=openly
preToken=Mame
preToken=TRUST
fueling
preToken=camp
nextToken=TransAtlantic
damped
preToken=Wetherell
suffers
preToken=gallons
preToken=Chapman
nextToken=accountable
preToken=brawl
preToken=Conte
preToken=stalls
preToken=cage
defeated
nextToken=overboard
preToken=Mahe
preToken=cafe
hurts
thrusting
preToken=Ogonyok
preToken=opener
glad
preToken=Made
preToken=Edelman
preToken=vowing
nextToken=1.8415
preToken=moxie
i.e.
populating
preToken=chances
preToken=daylight
preToken=Station
preToken=Mace
preToken=aplenty
preToken=Genova
preToken=absenteeism
preToken=dolphins
preToken=declaration
nextToken=1.8485
preToken=ratios
adversely
preToken=domain
nextToken=homosexual
preToken=Meeting
gathered
nextToken=betting
preToken=spoiler
nextToken=Leaseway
nextToken=840.8
preToken=furor
preToken=jurisdictions
nextToken=jettisoning
preToken=spoken
nextToken=reformulated
insuring
preToken=pollen
nextToken=antiquated
writes
nextToken=laced
nextToken=1.8470
nextToken=computer-aided
nextToken=Crete
fashioned
nextToken=Every
inflicted
preToken=Frawley
knocked
nextToken=well-entrenched
nextToken=suited
nextToken=flourish
afterward
restrain
preToken=Fault
preToken=cookies
nextToken=Ekco
re-establish
preToken=dating
nextToken=penetrate
preToken=sailors
preToken=UniFirst
during
preToken=royalties
nextToken=orbit
preToken=glue
preToken=Norwegians
Buried
buoying
nextToken=less-developed
preToken=76.50
nextToken=reappointed
prefer
nextToken=restore
preToken=theorized
preToken=differential
preToken=norms
preToken=salad
preToken=glitches
nextToken=resolving
crept
nextToken=oncogenes
aiming
nextToken=Endangered
preToken=admonition
preToken=Pinick
preToken=issuance
nextToken=drastically
preToken=compete
endure
robbed
preToken=Maurer
preToken=distributions
nextToken=washed
preToken=penchant
preToken=Meyers
preToken=2008-2009
preToken=democracies
nextToken=Pretoria
preToken=dispose
preToken=avoidance
Made
pleading
connects
preToken=Mattausch
presenting
Meeting
preToken=Craven
preToken=Risley
circumspect
nextToken=Aruba
preToken=blundered
preToken=arise
alleging
complement
nextToken=Wash
preToken=concentrations
nextToken=69-26
singled
nextToken=reorganize
preToken=wings
preToken=i.e.
preToken=medicines
earmark
nextToken=Norris
preToken=Junius
broke
Make
preToken=NASD
mandating
preToken=18\/32
came
preToken=Metamucil
preToken=Grigoli
describes
nextToken=Bolivia
preToken=Freudenberger
nextToken=Until
preToken=Bromley
nextToken=non-violent
nextToken=compiling
preToken=2645.08
preToken=convulsions
preToken=irritation
nextToken=inundated
preToken=humans
preToken=Rheingold
preToken=collaborating
nextToken=comparing
nextToken=swallowed
preToken=diners
nextToken=eloquently
preToken=collaboration
preToken=defenders
preToken=Washburn
preToken=diamonds
preToken=Score
described
preToken=disclosures
unraveled
nextToken=Abby
nextToken=BDDP
prosecuting
preToken=auditors
nextToken=forth
nextToken=bucking
drags
preToken=disappears
nextToken=Kuwait
nextToken=4,400
nextToken=PegaSys
submitted
nextToken=Anglo
nextToken=1.8667
preToken=snagged
poses
preToken=Swanson
nextToken=soloist
preToken=Keene
explained
await
nextToken=Bonwit
preToken=Beginning
demolished
depicts
begin
nextToken=forgo
nextToken=forge
preToken=neurologists
preToken=Orwell
reviewed
nextToken=1.8685
preToken=Janachowski
redder
alleviating
nextToken=achieving
preToken=dozens
ripped
preToken=forays
encouraged
draws
drawn
preToken=dictatorship
overcome
cooperate
preToken=vertically
preToken=aquarium
preToken=Cooper
preToken=winds
preToken=adjustments
honoring
preToken=Capitalizing
generate
preToken=twisting
encourages
preToken=sequel
immensely
nextToken=asserting
preToken=barometer
nextToken=rescuers
preToken=Speculation
snagged
nextToken=inversely
cease
nextToken=luring
preToken=Experts
propping
nextToken=patched
begun
nextToken=Cindy
preToken=Zeffirelli
goes
nextToken=Beghin-Say
posed
nextToken=miscarriages
destined
aware
nextToken=preferring
preToken=excesses
independently
cancel
preToken=Beaverton
preToken=habits
nextToken=Unilab
preToken=fluke
Died
nextToken=nowhere
preToken=companions
preToken=buffeted
preToken=SOYBEANS
nextToken=reinvesting
preToken=Parade
preToken=ear
preToken=ebb
powered
preToken=evidenced
preToken=dancer
preToken=ego
preToken=tenth
preToken=well-versed
gone
walked
preToken=globe
nextToken=1,828,000
preToken=recurrence
preToken=about-face
preToken=Orchard
nextToken=stricter
nextToken=pinpoint
nextToken=approving
preToken=Eritrea
preToken=gripes
preToken=pursuit
preToken=Sisulu
nextToken=non-strategic
preToken=justified
nextToken=2,064
preToken=egalitarianism
preToken=upshot
nextToken=oversee
preToken=annuities
nextToken=Aurora
nextToken=A-2
ceded
nextToken=Ratners
nextToken=greeting
Getting
nextToken=suing
preToken=hometown
nextToken=2,002
splits
unimportant
worked
accuses
preToken=etiquette
nextToken=spraying
nextToken=AIW
preToken=etc
nextToken=S.G.
preToken=IRAs
preToken=mouth
preToken=Sandinistas
distribute
nextToken=B-3
preToken=Philo
accused
preToken=gracefully
preToken=sticker
preToken=191.75
preToken=blind-sided
nextToken=conserve
nextToken=bracing
preToken=gloom
preToken=ironically
nextToken=rampant
nextToken=rugged
preToken=remainder
preToken=peninsula
preToken=guilt
construed
preToken=Quina
preToken=eve
replete
overhauled
preToken=Ratings
preToken=decreases
nextToken=Deborah
overstated
nextToken=underlined
preToken=thrive
preToken=Hoyt
preToken=mound
enlightening
nextToken=Pushkin
pointing
preToken=fad
preToken=Sonata
preToken=truce
preToken=guise
preToken=tore
nextToken=hamstrung
preToken=tomb
preToken=dam
preToken=Krebs
nextToken=echoed
preToken=semiannually
nextToken=skyrocketing
preToken=regions
nextToken=MIG-1
preToken=specialize
preToken=connection
nextToken=favorably
forgotten
inconceivable
preToken=shake-up
finally
preToken=harangues
preToken=Gumbel
repatriate
nextToken=AUS
preToken=municipalities
nextToken=confronts
preToken=Hole
preToken=preoccupation
preToken=toil
preToken=sweepers
nextToken=routed
construct
nextToken=aggravated
nextToken=Westamerica
Despite
injected
exceeded
preToken=testers
debunk
nextToken=527.39
aggravated
spawned
preToken=orphans
pours
preToken=die
preToken=dig
nextToken=Pakistan
nextToken=Seven
nextToken=comforting
preToken=demise
preToken=Oddly
breached
nextToken=consumer-goods
nextToken=2,120
participated
preToken=bible
nextToken=All
mulling
preToken=snakes
nextToken=Ala
nextToken=rejoin
preToken=indulgence
preToken=tends
nextToken=embark
nextToken=undemocratic
nextToken=Aer
preToken=Ruder
preToken=dug
preToken=Supervision
preToken=duo
nextToken=BIP
preToken=precaution
separated
disagree
preToken=metaphors
nextToken=stimulate
nextToken=Under
preToken=massacre
relate
nextToken=hosting
preToken=Ormstedt
hovering
nextToken=Ada
nextToken=raking
preToken=photograph
preToken=accusations
nextToken=EG&G
nextToken=fractured
preToken=pillar
thinned
preToken=inclined
nextToken=angrily
streamline
nextToken=first-home
nextToken=42nd
preToken=element
nextToken=resign
preToken=Anchorage
nextToken=likewise
nextToken=compromised
preToken=semi-annually
inviting
preToken=artwork
Meet
nextToken=Esther
preToken=IPOs
preToken=turnabout
preToken=brainchild
preToken=Grieco
extorting
nextToken=Duesseldorf
generates
preToken=wander
preToken=aflatoxin
generated
excluding
preToken=308.32
nextToken=stranded
preToken=Hafer
preToken=atmosphere
preToken=dresses
preToken=Galle
nextToken=stacks
nextToken=Strasbourg
nextToken=harms
packed
nextToken=Axe
nextToken=Axa
preToken=thefts
preToken=territories
nextToken=fruition
preToken=stipulated
preToken=perceptions
gradually
nextToken=Ark
preToken=rushing
preToken=humanity
preToken=Days
preToken=LaMore
preToken=Fantasy
dispel
weighing
nextToken=Any
nextToken=value-added
preToken=Emyanitoff
nextToken=pointing
preToken=25\/32
nextToken=BSB
single-A
reinforces
preToken=braced
preToken=Arbitragers
preToken=Advertisers
preToken=evaders
nextToken=CMS
preToken=Kress
nextToken=49%-owned
nextToken=D.C
nextToken=CML
preToken=pany
preToken=Schulte
preToken=ACCEPTANCES
preToken=Ozarks
preToken=minicars
preToken=examinations
nextToken=CPC
preToken=FUNDS
describe
preToken=Decisions
presently
preToken=cue
preToken=expressly
preToken=cup
preToken=pail
preToken=Sleep
nextToken=CIM
materializes
preToken=cry
submit
materialized
preToken=clarifications
nextToken=complicate
nextToken=1,859
Suddenly
grew
preToken=Dang
underwrite
taxed
preToken=waived
nextToken=Made
preToken=successfully
bombed
preToken=tax-writers
preToken=IOUs
nextToken=abducted
preToken=dialogue
pleased
preToken=thoroughbreds
preToken=thirds
backfired
presented
preToken=demoted
preToken=manipulated
nextToken=Ba3
preToken=880,000
nextToken=CDL
unveil
preToken=Beddall
preToken=forcefully
nextToken=Magazines
nextToken=CDC
preToken=listen
geared
preToken=complicity
nextToken=Scientology
nextToken=Bad
greeting
grow
preToken=equestrians
shrink
preToken=Holland
nextToken=Sally
preToken=Himont
nextToken=excluded
preToken=sails
nextToken=squeamish
nextToken=DAT
preToken=fertility
develops
nextToken=instituting
preToken=portraits
Depending
preToken=vessel
painfully
preToken=beefing
preToken=bag
preToken=Nadeau
preToken=silence
preToken=burden
preToken=anti-white
preToken=Hager
preToken=Hagen
preToken=shoppers
preToken=swipe
nextToken=CVN
flourish
nextToken=Gillette
preToken=Lyon
nextToken=blind-sided
preToken=Buchwald
preToken=hugely
nextToken=discontinue
preToken=convoluted
preToken=rebates
preToken=Fatah
nextToken=CSC
preToken=intervening
preToken=collector
nextToken=Cadbury
locked
preToken=findings
preToken=ardor
preToken=accordingly
rushing
preToken=unsuccessfully
somehow
nextToken=Trivest
preToken=amounted
nextToken=prosper
nextToken=manipulated
preToken=Demand
nextToken=intervening
nextToken=DPC
nextToken=i.e.
nextToken=notify
preToken=concentration
nextToken=2,360
nextToken=trim
preToken=presence
analyzed
preToken=Liquidity
preToken=gambit
nextToken=glad
preToken=packets
preToken=enthusiasts
bolster
nextToken=peeled
preToken=obscurity
catapult
auctioned
belie
preToken=concepts
preToken=understatement
preToken=constantly
preToken=unknowns
demoted
preToken=Again
preToken=Rewards
preToken=bug
nextToken=checked
continues
marketed
nextToken=Novato
nextToken=DIG
preToken=stardom
welcoming
nextToken=single-A
preToken=arrivals
nextToken=Argus
stranded
nextToken=Cap
nextToken=Caa
preToken=behest
preToken=devaluation
nextToken=DFC
stating
Think
nextToken=unravel
nextToken=busily
nextToken=EDS
nextToken=Dad
nextToken=underline
nextToken=decreed
nextToken=necessitated
enlarge
nextToken=B2
nextToken=Ad
preToken=herbicides
nextToken=enjoin
nextToken=At
nextToken=Krysalis
nextToken=As
nextToken=Be
preToken=revolt
preToken=behave
nextToken=empathize
nextToken=CS
preToken=pretense
regroup
nextToken=Ca
preToken=INC.
preToken=specialization
delivered
hamper
lags
nextToken=impose
preToken=fringes
preToken=Examiner
preToken=extortion
preToken=speeches
preToken=conditioning
preToken=gardens
accordingly
laid
preToken=poisons
nextToken=Ga
renovating
nextToken=herbicide
preToken=masses
preToken=massages
nextToken=Ho
nextToken=He
preToken=degenerated
preToken=persistence
nextToken=If
preToken=rollers
replied
nextToken=DWG
nextToken=It
preToken=Broadcasters
nextToken=follow-on
preToken=Hello
nextToken=Yoshio
nextToken=Yamaichi
extending
refusing
nextToken=Ky
preToken=Advancers
nextToken=Md
nextToken=Me
nextToken=ERC
induce
nextToken=Mo
nextToken=Usha
nextToken=NL
nextToken=philosophic
Should
nextToken=Argentina
nextToken=OK
nextToken=circumvent
preToken=ballots
nextToken=PS
nextToken=Oh
nextToken=S$
preToken=drastically
repurchased
preToken=GR8FLRED
preToken=pooled
preToken=significance
nextToken=trade-distorting
lowering
preToken=housed
preToken=reassessment
nextToken=rangers
nextToken=judged
nextToken=So
nextToken=treated
nextToken=1990-2002
preToken=thereafter
preToken=polishing
nextToken=UP
having
preToken=double-A-minus
preToken=Rangel
nextToken=Up
preToken=vanished
confirmed
preToken=Falco
preToken=McClelland
nextToken=busier
nextToken=Twins
preToken=hybrids
preToken=achievements
lays
preToken=calculations
preToken=Homecoming
preToken=divestitures
preToken=downtime
Subsequently
diverted
nextToken=Lyon
preToken=temperatures
deserve
preToken=adaptation
nextToken=Den
restore
chew
persisted
preToken=Gnu-Emacs
preToken=statesmen
preToken=airliners
delighted
distort
preToken=Kirgizia
preToken=confided
dealt
cited
preToken=illegally
cites
defrauding
dragged
nextToken=addiction-treatment
nextToken=justify
bested
preToken=temblors
preToken=glitz
preToken=amply
listened
vanish
nextToken=divest
reckon
nextToken=futures-related
averaged
Elsewhere
preToken=rails
self-sufficient
although
preToken=Worse
preToken=cooperate
preToken=AuCoin
nextToken=mortgage-interest
chop
nextToken=334,774
preToken=antibodies
degenerated
preToken=pause
preToken=lover
nextToken=rewarding
preToken=reminiscent
preToken=line-up
preToken=scanners
preToken=receipts
nextToken=Sandy
nextToken=Nagoya
Going
preToken=kilometers
preToken=hub
preToken=belong
preToken=hug
preToken=hum
preToken=Zoeller
preToken=incorrectly
preToken=consisting
preToken=abated
preToken=Vanourek
nextToken=Before
nextToken=na
preToken=Bremen
preToken=grandmother
nextToken=Prices
nextToken=oh
intervening
Speaking
nextToken=catapult
invite
preToken=uncharacteristically
Does
detect
preToken=astronauts
reconsidered
nextToken=uh
preToken=backdrop
nextToken=us
nextToken=sunrise
preToken=sacks
besieged
dressed
preToken=patterned
nextToken=40.4
preToken=rushes
nextToken=49.96
discontinue
dined
preToken=repayments
preToken=syndicates
preToken=4.48
nextToken=FMC
Known
preToken=testify
preToken=myself
nextToken=Sante
stressing
preToken=Morrissey
preToken=Atkins
tossed
preToken=Sindona
nextToken=Vitro
nextToken=straining
nextToken=stalling
nextToken=fueling
preToken=guides
preToken=destination
preToken=languishing
preToken=situated
preToken=wheelchair
nextToken=relocate
preToken=baskets
preToken=McCammon
nextToken=obstructed
preToken=Depression
pose
preToken=Lackey
nextToken=ineffective
preToken=indictments
identify
nextToken=Fab
nextToken=NMTBA
pour
nextToken=Fast-food
nextToken=IPOs
nextToken=Novell
mobilized
preToken=Therefore
preToken=pyramids
preToken=anyway
repaired
preToken=Elected
preToken=Archuleta
nextToken=Hollister
preToken=Raptopoulos
nextToken=similarities
preToken=gon
saddled
nextToken=numerically
cite
preToken=fumes
qualify
nextToken=technologically
constructing
nextToken=soften
preToken=outset
nextToken=disturb
nextToken=unharmed
erect
preToken=S&Ls
preToken=cautions
using
slammed
gently
preToken=tips
nextToken=Freddie
nextToken=draining
preToken=Hardiman
nextToken=Webster\/Eagle
preToken=gadgets
lacking
supervise
preToken=paired
nextToken=Caltrans
nextToken=stifling
nextToken=99.1875
preToken=controllers
nextToken=GSX
preToken=payouts
preToken=Dillow
nextToken=Bechtel
preToken=47,000
waits
nextToken=GPA
preToken=bandages
waive
preToken=pillars
preToken=positively
nextToken=slums
preToken=tick
fielded
preToken=tide
preToken=Lutz
preToken=assemblies
preToken=butt
differ
preToken=sprout
preToken=politicking
preToken=bust
nextToken=HHS
nextToken=Leading
preToken=Lung
semi-annually
preToken=bump
preToken=Remics
preToken=enjoyable
preToken=Carlson
nextToken=discard
preToken=obligated
preToken=virtue
disruptive
nextToken=HEI
preToken=erupted
preToken=corrections
fulfill
nextToken=Jerome
nextToken=Dana
nextToken=Reunification
preToken=Evidence
preToken=GORBACHEV
narrowed
recommending
preToken=Deposits
preToken=fathers
gripped
preToken=LaLonde
expressly
nextToken=Justin
nextToken=rank-and-file
expresses
nextToken=Arkla
restructures
nextToken=MacMillan
expressed
preToken=Rubin
preToken=swear
preToken=adequately
preToken=dementia
afloat
demanding
preToken=issuers
nextToken=Dain
preToken=qualify
overthrow
preToken=pianist
preToken=shouts
preToken=prohibitions
improperly
unduly
preToken=categorized
strengthen
preToken=headaches
faltering
preToken=overtures
appreciates
preToken=Rubel
appreciated
preToken=presently
preToken=allowances
addicted
preToken=tie-ups
nextToken=experiencing
nextToken=home-state
preToken=Reserved
preToken=Skeptics
nextToken=undesirable
unloading
banning
preToken=Libor
leapfrog
preToken=Mothers
preToken=fiddle
nextToken=investigating
nextToken=intentional
nextToken=Marcia
tighten
announcing
preToken=unfazed
preToken=demeanor
nextToken=haunt
preToken=DeConcini
preToken=Pedroli
knocking
describing
preToken=clientele
preToken=directories
condemning
preToken=behalf
preToken=crudes
preToken=17.95
nextToken=outperform
preToken=Bachmann
preToken=swept
'll
nextToken=pave
Welcome
nextToken=disintegrating
preToken=materializes
nextToken=Contemporary
nextToken=Floyd
preToken=materialized
nextToken=accompany
preToken=fireball
nextToken=them
preToken=outflows
preToken=happenings
hosting
preToken=moreover
spanning
preToken=individually
nextToken=His
preToken=manually
're
beset
preToken=PAPER
nextToken=IDS
preToken=legerdemain
lent
nextToken=rescind
lend
worsen
nextToken=ex-President
nextToken=Floor
nextToken=IBJ
preToken=principles
preToken=uninspired
've
preToken=Haskayne
preToken=Alusuisse
preToken=convenient
preToken=legacy
nextToken=programmatic
preToken=Quack
preToken=runway
overbid
discourages
preToken=faltered
nextToken=Casablanca
preToken=teeth
nextToken=Hal
discouraged
walks
wreaked
preToken=proudly
yelling
lets
nextToken=respond
employed
lest
preToken=shoots
preToken=Englund
coolly
nextToken=Unitel
nextToken=kickbacks
nextToken=HelmsleySpear
nextToken=frugality
preToken=thrall
nextToken=10:30
preToken=shortcomings
nextToken=Iceland
Against
preToken=26\/32
admitting
preToken=burner
preToken=contending
develop
preToken=unawareness
nextToken=332.38
nextToken=Unicorp
preToken=blessed
cooled
preToken=parade
flaunt
Partly
WHEN
remembered
unlawfully
preToken=nod
nextToken=How
preToken=amenities
Taking
preToken=faltering
prop
prod
preToken=co-sponsors
nextToken=Louisiana-Pacific
preToken=Figuring
nextToken=pushy
preToken=Olson
relied
banished
reschedule
relies
preToken=Oldenburg
nextToken=bestowed
preToken=counterbid
nextToken=combing
preToken=commerce
nextToken=dashed
McCain
nextToken=Furukawa
preToken=batteries
touched
nextToken=Ill
nextToken=hammered
Typically
regulates
nextToken=Ike
preToken=heritage
preToken=nominees
preToken=instability
preToken=insights
nextToken=higher-income
seated
nextToken=nonpublic
recoup
preToken=receptionist
nextToken=Coniston
nextToken=behaving
preToken=closure
opens
evaluate
nextToken=landslides
presumably
preToken=entitled
preToken=crashing
preToken=bracing
nextToken=Chuck
preToken=three-fourths
nextToken=subtract
nextToken=at-market
eluded
beaten
invent
preToken=offshoot
eliminate
preToken=Boesel
nextToken=Sens.
preToken=Schaeffer
preToken=reliably
preToken=mad
preToken=mid-afternoon
nextToken=nurseries
preToken=map
invest
preToken=Irises
studying
cooked
injuring
defer
preToken=layout
preToken=licensee
nextToken=advocating
flatly
nextToken=consult
preToken=32.71
preToken=Burford
eyeing
preToken=brow
preToken=precedent
nextToken=Its
nextToken=Aichi
preToken=Crandall
preToken=Fortunately
dulled
preToken=flurry
preToken=refiner
nextToken=Imo
nextToken=Prospect
preToken=pollsters
shipped
nextToken=gold-leaf
preToken=Gabor
WILL
preToken=Durkin
preToken=demons
preToken=Continentals
pegged
waned
preToken=text
nextToken=2003\/2007
nextToken=Christies
pushing
preToken=masseurs
preToken=speeds
incorporates
preToken=warehouses
preToken=factions
misrepresenting
preToken=plentiful
preToken=disagreed
preToken=cutback
preToken=chunk
incorporated
poised
nextToken=scour
nextToken=KLM
preToken=supervisors
preToken=cutbacks
preToken=RATE
drifting
preToken=Attendants
preToken=disagrees
arisen
attacked
referred
nextToken=higher-cost
preToken=churn
preToken=1230.80
manipulate
preToken=Formally
nextToken=weeklies
nextToken=scorn
manufactures
withstand
nextToken=1,015
nextToken=Mitsukoshi
honestly
preToken=Runkel
clustered
Meantime
preToken=windshields
nextToken=Christina
urgently
reselling
preToken=Placement
preToken=flock
nextToken=1,012
nextToken=artificial
preToken=W.Va
bestowed
preToken=mismatch
pinning
decides
nextToken=repossessed
angrily
decided
nextToken=Mineworkers
preToken=lap
preToken=Payments
preToken=wording
automatically
nextToken=125,000
patterned
persuade
resulted
solved
preToken=LaMothe
preToken=nervousness
preToken=Crozier
nextToken=trimming
furthermore
preToken=remedies
excludes
excluded
preToken=lid
concealing
preToken=intruder
preToken=2689.14
preToken=tear
preToken=Glucksman
Keeping
nextToken=fundamentally
nextToken=J.D.
sweeten
preToken=legions
preToken=tankers
preToken=disasters
preToken=flown
preToken=flows
preToken=conflicts
preToken=Heat
nextToken=requesting
Fortunately
nextToken=bury
insures
nextToken=burn
preToken=raged
preToken=rages
clarify
preToken=Playback
nextToken=materialize
nextToken=Whatever
preToken=Bowing
nextToken=Kia
preToken=wedged
preToken=inflow
nextToken=buoy
preToken=Litvinchuk
nextToken=Shippers
nextToken=unconventional
preToken=deductibility
preToken=toiling
dispatched
nextToken=Scotts
turned
nextToken=elective
roamed
preToken=remarked
preToken=rejuvenation
rationally
preToken=influx
preToken=bickering
preToken=symbols
preToken=Internet
positioned
voluntarily
nextToken=Trout
bracing
preToken=descendant
Remember
nextToken=homework
preToken=Eminase
preToken=paths
preToken=sizes
preToken=millionaires
preToken=Zaves
nextToken=Voronezh
regularly
treated
solve
preToken=1254.27
nextToken=embezzling
scoffs
preToken=materialize
lied
preToken=vigor
nextToken=bound
profitably
preToken=megawatts
preToken=71%-owned
come
preToken=breakdowns
preToken=bracket
preToken=indictment
cope
nextToken=8:30
preToken=predicament
connecting
nextToken=castigating
nextToken=smokers
downgraded
proposes
nextToken=evaluate
preToken=Lawrenson
preToken=paycheck
preToken=patch
preToken=prostitute
preToken=Marmalstein
preToken=brains
preToken=mustard
nextToken=starters
nextToken=IFAR
preToken=ranged
preToken=luminaries
seizing
preToken=Poindexter
preToken=inability
nextToken=However
nextToken=Lt.
preToken=Krampe
preToken=Petronas
overwhelm
preToken=exclusion
nextToken=N.Y
preToken=prerogatives
nextToken=unlike
nextToken=Finnair
nextToken=N.M
nextToken=N.J
nextToken=MMS
inquired
Compiled
nextToken=MLX
nextToken=N.C
nextToken=N.D
permitting
preToken=rat
preToken=LLerena
nextToken=inexplicably
detaining
preToken=Story
nextToken=MPI
preToken=retainer
preToken=thunder
preToken=toying
nextToken=punishing
singling
preToken=traumas
preToken=rep
preToken=Zafris
preToken=previews
restricting
nextToken=Liz
preToken=exception
preToken=holidays
nextToken=burying
nextToken=cautiously
nextToken=449.3
preToken=headlines
imagining
burying
preToken=tended
nextToken=sporadic
preToken=disappear
preToken=tears
nextToken=1,250
disagreed
Trying
preToken=bout
disagrees
preToken=inventions
locate
nextToken=Let
preToken=sites
preToken=antigen
preToken=elephants
preToken=Vidunas
preToken=mid-November
nextToken=Leo
preToken=Petersburg
preToken=legend
credited
preToken=Grove
preToken=Antonini
nextToken=binoculars
demolishing
preToken=Loss
giving
frees
preToken=410,000
nextToken=leapfrog
preToken=13.625
preToken=semblance
nextToken=angering
preToken=Ewing
nextToken=Helsinki
preToken=Loom
nextToken=NBI
preToken=Faced
preToken=rod
preToken=row
preToken=shelves
preToken=boon
preToken=kick
preToken=Salvatori
apparently
stifling
nextToken=dolce
nextToken=galvanize
preToken=outlay
preToken=pants
wondering
flatten
disarm
71%-owned
preToken=undersecretary
preToken=outlet
nextToken=redoing
transmitting
devised
nextToken=Gabriel
nextToken=Paxus
preToken=Kurnit
solidify
preToken=stemmed
preToken=subpoenas
preToken=refurbished
nextToken=loaned
preToken=Loeb
prevails
nextToken=Arabic
preToken=commentary
nextToken=bode
preToken=strikers
preToken=sequence
dedicated
preToken=disposition
blithely
nextToken=Year-to-date
nextToken=NRM
nextToken=judging
transferring
preToken=timed
preToken=commissioners
preToken=industrialists
strictly
proclaiming
preToken=Stirling
nextToken=Baxter
preToken=paralysis
preToken=Breene
nextToken=clarify
dived
preToken=Departments
preToken=plowed
preToken=oasis
preToken=glare
preToken=dunes
preToken=czars
specialize
convoluted
importing
nextToken=oust
nextToken=Look
occur
drove
nextToken=Mel
preToken=Archives
preToken=Boehm
preToken=buttons
phoned
nextToken=ours
preToken=compromised
preToken=compromises
nextToken=spreading
complicate
simplify
Previously
preToken=Braintree
preToken=snags
preToken=insult
undertaken
nextToken=Nev
nextToken=Ned
invade
nextToken=Rockwell
preToken=embodied
nextToken=forging
subtracted
preToken=concerts
preToken=snafu
announces
preToken=attractiveness
nextToken=securing
nextToken=hampering
nextToken=Jasper
owning
declaring
wants
employ
preToken=Dreyer
preToken=Springfield
yelled
preToken=adamant
resilient
preToken=Etzioni
preToken=Bowker
preToken=retribution
nextToken=mustard
preToken=languages
nextToken=negotiable
nextToken=forgive
preToken=interpreter
preToken=recklessly
preToken=brakes
preToken=Hays
preToken=genocide
preToken=quo
double-A-3
preToken=self-interest
nextToken=Charisma
warns
preToken=Ittleson
preToken=reply
nextToken=Linear
preToken=terror
preToken=owl
preToken=meditation
nextToken=Munich
preToken=enroll
helped
preToken=creator
preToken=tale
nextToken=39.55
preToken=Raines
preToken=presidency
nextToken=testers
nextToken=15.75
nextToken=state-appointed
nextToken=15.72
nextToken=impede
nextToken=15.82
albeit
preToken=tags
preToken=pad
vacating
preToken=Speed
nextToken=OMB
preToken=ambitions
preToken=receiver
nextToken=relieve
nextToken=Mount
nextToken=specify
preToken=landfill
jumping
perched
preToken=grinds
nextToken=Uncle
preToken=reluctantly
preToken=worriers
preToken=pie
preToken=Houghton
preToken=monastery
preToken=tabs
Certainly
preToken=transfusion
preToken=tack
preToken=Nightline
nextToken=Cullinet
preToken=submission
enact
preToken=Rubendall
saturated
preToken=allowance
preToken=Haag
underpin
preToken=pleasures
preToken=evolution
preToken=Naturally
matches
preToken=velocity
nextToken=educate
preToken=parcel
stubbornly
preToken=postmarked
preToken=pot
preToken=2003-2005
preToken=conventions
nextToken=87.5
spontaneously
nextToken=duplicated
nextToken=Amway
negotiate
preToken=outlooks
nextToken=481,000
preToken=Darby
preToken=Gilchrist
preToken=ingredients
preToken=tenets
nextToken=W.J.
nextToken=141.45
nextToken=Our
nextToken=limbo
preToken=majors
compared
nextToken=W.I.
reiterated
compares
nextToken=A.H.
forgive
getting
preToken=Olsen
preToken=Enforcers
obviously
preToken=boatload
preToken=C.D.s
supervising
preToken=Hersly
preToken=roadblocks
beside
nextToken=laundered
satisfied
finalized
refinance
nextToken=Attention
preToken=dispersant
alluded
nextToken=prostitution
nextToken=categorized
satisfies
resisted
preToken=beliefs
nextToken=141.90
nextToken=vertically
preToken=Strum
preToken=ketchup
nextToken=Oji
nextToken=141.80
preToken=policewoman
dismantled
nextToken=occupy
preToken=sensation
rewarded
enacted
nextToken=141.70
preToken=cleans
well-stated
downplayed
nextToken=141.65
preToken=wobbly
illegally
preToken=sentiments
forging
preToken=domestic-production
Along
nextToken=141.52
nextToken=tear
nextToken=141.55
ponder
preToken=trips
nextToken=Here
preToken=tendency
requested
regains
interpreted
reinstated
preToken=clustered
preToken=Strategies
preToken=nationalization
slipped
preToken=Motley
waffled
preToken=edging
preToken=preferring
nextToken=W.Va
preToken=refrain
nextToken=Help
nextToken=Glory
idled
preToken=Testifying
nextToken=confuse
preToken=opt
nextToken=consulted
postmarked
arising
preToken=Confusion
preToken=fudge
nextToken=intermittent
nextToken=Pay
nextToken=Employers
nextToken=182-day
nextToken=degenerated
preToken=recorders
nextToken=FirstSouth
preToken=Uphoff
preToken=tries
preToken=races
preToken=Milgrim
preToken=Cayne
unofficially
confesses
preToken=resurfaced
preToken=Museum
preToken=standpoint
ugly
preToken=racks
preToken=aspect
preToken=spills
preToken=confined
nextToken=88.12
preToken=importers
nextToken=cycads
satisfy
nextToken=Wrath
preToken=dangerously
preToken=Jerusalem
preToken=ore
preToken=keys
preToken=gigolo
preToken=Carmichael
nextToken=expelled
unhinged
rounded
nextToken=organize
hang
preToken=Outflows
preToken=minimills
preToken=Birnbaum
nextToken=anti-union
regain
nextToken=levamisole
erode
preToken=Friedman
preToken=22\/32
aside
preToken=operatives
nextToken=enjoying
provided
preToken=Regardless
Surely
preToken=disposing
provides
nextToken=Put
ranging
preToken=fantasies
preToken=chairmanship
preToken=asleep
preToken=bigotry
illustrates
prohibits
preToken=Bandler
illustrated
preToken=Lagnado
nextToken=lieu
nextToken=Fredric
preToken=slopes
preToken=periodically
nextToken=R.I
nextToken=9-10:30
preToken=campaigning
nextToken=2,205,000
preToken=IAFP
nextToken=Lockerbie
preToken=fireworks
preToken=Armuelles
preToken=consolidation
preToken=Somoza
stave
preToken=visibility
preToken=ravages
nextToken=S.C
preToken=Scotland
preToken=fantasize
preToken=species
nextToken=introducing
inspected
preToken=gloves
preToken=scrutiny
nextToken=Mort
nextToken=More
preToken=waffled
nextToken=constrain
preToken=Kloves
preToken=sedan
nextToken=Cilcorp
consume
preToken=Carey
consult
nextToken=Chilmark
preToken=Carew
preToken=tripled
preToken=N.A.
preToken=panned
preToken=impervious
preToken=Geeks
Making
nextToken=swallow
stacked
preToken=reimbursement
preToken=Bolivia
preToken=arsenal
preToken=supervision
nextToken=envelopes
entertained
preToken=wag
preToken=collaborated
fined
scaring
preToken=insulated
preToken=accounted
preToken=Ababa
nextToken=cheering
preToken=Colodny
nextToken=Zalubice
embraced
embraces
overwhelmed
preToken=wineries
preToken=happens
applaud
preToken=animosity
preToken=8.68
revealed
nextToken=Ellen
nextToken=bottoming
deflect
nextToken=feasible
operates
operated
devalued
nextToken=RTZ
nextToken=incorporate
combine
preToken=portrayal
preToken=authors
curbing
concentrates
preToken=Batchelder
preToken=strife
preToken=Bockris
nextToken=squeezing
preToken=Secondly
preToken=markedly
attempting
combing
penetrated
questioned
legitimately
conform
nextToken=Having
preToken=reins
reassure
preToken=Fitzwater
nextToken=Everett
preToken=Ravitch
nextToken=backfire
Prior
nextToken=comply
preToken=Hovnanian
yanking
preToken=underwritten
preToken=impasse
protects
nextToken=complement
preToken=Studies
nextToken=compelled
nextToken=SHV
nextToken=surrendered
preToken=centerpiece
nextToken=spite
nextToken=Pittston
preToken=straighten
preToken=Casey
nextToken=SFE
lose
nextToken=rekindle
preToken=reign
nextToken=Staples
terminate
consolidating
preToken=Censorship
preToken=disbursed
preToken=malaise
prevailed
preToken=syndication
nextToken=Amgen
nextToken=Ikegai
preToken=discriminating
preToken=Studios
reassume
nextToken=rattle
Allowing
preToken=pains
sufficiently
nextToken=19.25
preToken=pales
preToken=Confair
preToken=tab
preToken=tempered
Where
preToken=unfairly
preToken=upbeat
nextToken=earmark
preToken=Bobar
representing
preToken=Heard
preToken=redefinition
achieves
preToken=accords
preToken=bits
cheering
preToken=palms
accomplish
preToken=adversaries
preToken=ooze
nextToken=administer
nextToken=adapted
nextToken=eaten
preToken=Live
supervises
achieved
happens
preToken=bind
preToken=substituted
nextToken=exploring
preToken=Manion
preToken=substitutes
preToken=conform
nextToken=Jobson
preToken=tip
preToken=Gilleland
climbed
preToken=459.93
preToken=Hemming
preToken=Thieves
nextToken=Rod
preToken=airwaves
nextToken=B.J.
preToken=paled
farther
establishing
preToken=furs
nextToken=93.75
preToken=vision
preToken=fury
preToken=Conn
waved
feels
hindered
preToken=addicts
preToken=turbines
preToken=toe
nextToken=Kimberly-Clark
preToken=bias
nextToken=Sin
derived
preToken=Colo
derives
nextToken=scouting
nextToken=Triad
preToken=Cole
decide
nextToken=THE
preToken=scorecard
preToken=Bauman
preToken=avail
preToken=Voters
preToken=Objections
preToken=fennel
preToken=shelter
preToken=Altimari
nextToken=She
feeds
relieved
nextToken=Avdel
preToken=briefcase
preToken=asylum
preToken=unprepared
stemming
preToken=chauvinism
nextToken=messing
nextToken=Ladenburg
laughed
preToken=Journal\/Europe
embarrass
preToken=Productivity
preToken=affair
evaluates
leaped
nextToken=UAP
evaluated
nextToken=Sitco
simultaneously
stripping
preToken=niches
tumbled
nextToken=Tan
preToken=cachet
tumbles
preToken=Spruell
usurp
nextToken=alcoholic
nextToken=subjected
nextToken=skin-care
preToken=sat
preToken=Hearings
nextToken=slimmer
preToken=curbs
equals
nextToken=eroding
preToken=Barnicle
nextToken=speculating
preToken=resurgence
preToken=Finally
preToken=parcels
preToken=Grohl
nextToken=TRW
preToken=sky
preToken=Hispanics
preToken=contractions
hear
preToken=Briggs
preToken=Pty.
nextToken=customarily
preToken=easiest
preToken=derives
inevitably
preToken=22.50
preToken=demonstrations
preToken=amalgamation
defying
nextToken=exchange-listed
preToken=trees
abstained
heed
flowed
Specifically
preToken=tenders
nextToken=dissolved
nextToken=Greenville
preToken=Industrie
preToken=ranging
preToken=curve
nextToken=Movieline
nextToken=quell
nextToken=Crowntuft
preToken=Furuta
nextToken=0.0108
preToken=diseases
preToken=depended
translate
entitling
preToken=BRIEFS
nextToken=simplifying
nextToken=campaigning
plummeting
preToken=hotel-casino
nextToken=Tel
organize
nextToken=Tet
diverting
nextToken=mailings
treats
preToken=hypnotized
preToken=inducement
nextToken=devalued
Citing
possess
preToken=Feinman
preToken=imagined
preToken=tending
entitled
preToken=performers
preToken=complying
preToken=thereof
boosted
preToken=Centers
preToken=Bumpers
nextToken=registrants
nextToken=integrate
dominate
preToken=perks
preToken=terribly
contributed
preToken=discharges
contributes
preToken=MIPs
zeroing
nextToken=wrestle
preToken=Wallop
preToken=Steppel
preToken=Canal
preToken=maxim
nextToken=carcinogenic
preToken=Paranormal
nextToken=dissented
preToken=falsely
Finally
remembers
nextToken=Hongkong
nextToken=plush
soliciting
preToken=perch
preToken=bailed
entitles
quantify
preToken=Geary
preToken=Marous
preToken=Biondi
spewing
preToken=risk-free
preToken=therein
nextToken=overshadowed
preToken=idealist
preToken=Gifford
nextToken=Chatset
nextToken=Fujisawa
preToken=streak
preToken=boulevard
nextToken=Varian
preToken=Encouraged
nextToken=Use
nextToken=Textron
nextToken=Someone
nextToken=Improving
nextToken=heighten
preserved
nextToken=VOA
nextToken=injuring
preserves
nextToken=Loral
nextToken=enlisting
preToken=subtitled
preToken=thereby
forbade
preToken=illustrations
preToken=Japanese-Americans
nextToken=courted
preToken=Daggs
snowballed
aroused
nextToken=Certified
leveled
preToken=busts
nextToken=cliched
preToken=Eckenfelder
customarily
emphasizes
preToken=Lawmakers
emphasized
nextToken=refocus
preToken=prostitution
waging
preToken=matter-of-factly
deterring
pleaded
nextToken=psychobiology
preToken=incapable
nextToken=discuss
preToken=comply
nominated
preToken=Shares
nextToken=Telesystems
preToken=Yanes
rumbling
safely
stems
lured
depict
sustainable
nextToken=derail
preToken=courage
lures
nextToken=asleep
assemble
preToken=Al-Chalabi
flat-footed
enjoying
leaned
simplifying
unloaded
nextToken=151.20
nextToken=Seita
preToken=dissatisfied
preToken=Sitting
erred
preToken=chest
fired
accompanies
undercut
accompanied
dutifully
segregate
preToken=Plays
preToken=transplants
Built
preToken=happily
Departing
preToken=autographs
accelerate
inducing
nextToken=Springfield
preToken=instantly
preToken=Sources
preToken=Crutzen
preToken=boomed
preToken=allegory
curtail
nextToken=midafternoon
advise
nextToken=Frankly
preToken=Platt
nextToken=9.34
preToken=olds
nextToken=Figure
nextToken=9.39
preToken=initially
nextToken=Reps.
upheld
nextToken=9.06
preToken=insistence
preToken=monopoly
preToken=Mazowiecki
evolve
preToken=burns
preToken=immoral
please
nextToken=newsstands
preToken=supermarkets
nextToken=Vt.
nextToken=defraud
nextToken=Papua
preToken=bursts
preToken=perilously
conditioned
preToken=Mussolini
stamping
preToken=Airport
repaid
preToken=flocking
nextToken=Profits
preToken=Bauer
preToken=fret
preToken=sections
steer
overshadowed
nextToken=Instead
preToken=mountains
preToken=Failure
nextToken=suckers
preToken=Lesk
harmed
preToken=precautions
preToken=Allentown
nextToken=undetermined
steal
preToken=bets
preToken=innovations
preToken=murderer
nextToken=recapture
preToken=burst
preToken=Ericson
nextToken=Aztar
preToken=bent
nextToken=Bayerische
preToken=callable
preToken=Grossman
retire
preToken=Completion
nextToken=renegotiated
accelerates
preToken=pullback
preToken=clubs
coping
concluding
erupt
nextToken=borne
preToken=travels
preToken=bell
preToken=threshold
preToken=Accounts
undo
preToken=belt
preToken=23\/32
nextToken=Y&R
preToken=Aspin
preToken=qualifications
enjoyed
preToken=reappearance
preToken=donnybrook
nextToken=Wilfred
nextToken=then-Vice
preToken=clues
handle
happily
distributes
preToken=bees
preToken=Lego
nextToken=65,200
torments
preToken=reinsurers
preToken=responsibilities
objected
preToken=rangers
copied
modifies
preToken=environmentalism
preToken=capitalize
maintained
preToken=differently
preToken=beam
resigning
preToken=Goodfellow
disappoint
preToken=Lees
preToken=fervor
nextToken=crumble
handed
preToken=ordeal
nextToken=sidelined
nextToken=anathema
assailed
nextToken=2149.3
assassinate
preToken=mouths
nextToken=NORC
disappear
preToken=okay
learned
nextToken=examine
Assuming
nextToken=Freeport-McMoRan
nextToken=Suntory
preToken=reruns
preToken=tailspin
nextToken=overemphasize
preToken=acceleration
preToken=sings
preToken=ideals
nextToken=Kandahar
preToken=announcements
nextToken=Wis
preToken=Marrie
preToken=Endowment
preToken=china
nextToken=Why
nextToken=Who
nextToken=Bulgaria
nextToken=Concerned
preToken=explosion
preToken=bulletins
preToken=yes
preToken=predictions
nextToken=bored
preToken=profiting
nextToken=hobbled
stripped
preToken=cynicism
adequately
nextToken=Gen-Probe
preToken=pasture
preToken=Criticism
nextToken=Pinnacle
preToken=warnings
preToken=predators
benefited
preToken=securely
preToken=NASAA
preToken=rounded
preToken=Ostrager
however
opted
Wanted
unacceptable
preToken=barges
preToken=wit
appealing
preToken=logic
renegotiated
preToken=Traditionally
Besides
nextToken=Lords
emerged
preToken=scratch
preToken=U.S.A
preToken=strenuously
preToken=properly
hide
nextToken=raping
emerges
preToken=flags
nextToken=Wyo
nextToken=videocassettes
deter
belongs
preToken=deterrents
preToken=lengths
preToken=Students
preToken=regardless
nextToken=Intelogic
informally
preToken=Mandle
preToken=Bianchi
scrambled
nextToken=shortsighted
preToken=logos
engulfed
nextToken=SECTION
confirm
preToken=leveling
preToken=coattails
Afterward
intervene
dumping
preToken=tract
preToken=selectively
nextToken=portray
nextToken=inaccessible
preToken=guardian
bounced
nextToken=prod
nextToken=prop
preToken=clarinetist
Moreover
justify
effortlessly
nextToken=Hardee
preToken=Armenians
ironically
nextToken=outrageous
preToken=Prebon
seeing
assert
restart
preToken=Mullins
assess
tenfold
preToken=cover-up
preToken=Confederation
preToken=Hoping
preToken=penalized
preToken=moniker
restructure
nextToken=misinterpreted
acknowledges
preToken=fraction
nextToken=YOU
preToken=Otherwise
While
nextToken=saturated
nextToken=fetuses
prepare
oversee
preToken=outflow
endorsed
preToken=470.80
nextToken=reschedule
applies
preToken=51.75
preToken=implication
preToken=realm
preToken=loath
oversaw
preToken=99.35
reimburse
preToken=fore
nextToken=Yes
preToken=Pignatelli
preToken=handlers
preToken=Soule
preToken=Post
preToken=vigorously
preToken=99.75
nextToken=forcing
preToken=Bolinas
nextToken=deduct
preToken=reservoir
resentful
preToken=99.85
preToken=99.90
preToken=Pons
preToken=Markey
preToken=deliberations
cooperating
prohibited
nextToken=ZBB
Ordinarily
preToken=sighs
leaked
preToken=transformation
preToken=LaGuardia
undoubtedly
upon
plead
preToken=Traxler
preToken=Aviacion
precluded
preToken=sung
preToken=Animals
preToken=prisoners
preToken=Rockford
cares
shrank
nextToken=swiftly
preToken=44,400
preToken=summed
preToken=Scotia
importantly
preToken=borrower
preToken=Brizola
nextToken=implementing
nextToken=Triangle
cared
nextToken=frankly
nextToken=hampered
preToken=gatherings
preToken=clock
preToken=Gliedman
preToken=Honduras
phased
preToken=Architects
preToken=Frabotta
preToken=overhang
hesitantly
nextToken=cooperating
disappeared
checked
preToken=unconcerned
preToken=stigma
preToken=Suominen
blaming
preToken=Spending
nextToken=persuade
nextToken=flirting
preToken=rings
preToken=roustabout
bucked
evolved
preToken=spectrum
nextToken=liquidated
preToken=appalled
nextToken=spawn
plummeted
nextToken=dilute
nextToken=single-B-1
nextToken=single-B-2
preToken=Customers
nextToken=single-B-3
shelled
nextToken=racism
preToken=EURODOLLARS
preToken=Munich
nextToken=spark
nextToken=recalling
adding
reviving
exacerbated
nextToken=fatalities
varies
nextToken=Walnut
exacerbates
preToken=Rossini
stirs
preToken=Serenade
preToken=rulings
preToken=Igdaloff
inherit
withstood
nextToken=affordable
triumphed
preToken=Weinstein
served
preToken=Schneider
serves
liquefy
nextToken=Addis
preToken=disbursements
nextToken=Poughkeepsie
competes
bribing
preToken=masks
preToken=Gourlay
circulating
preToken=channels
preToken=obsession
preToken=occupant
nextToken=Eritrea
preToken=ceaselessly
preToken=adapt
nextToken=unbelievable
preToken=carry-forward
preToken=hunky-dory
nextToken=devise
preToken=Trouble
depend
granted
preToken=charm
preToken=infringes
preToken=loads
blundered
preToken=appraisals
preToken=Strategy
acquit
preToken=motorist
nextToken=Hambros
preToken=Staloff
preToken=Lupel
preToken=Haberle
preToken=masse
preToken=unethical
nextToken=singling
trimmed
preToken=react
preToken=Avedisian
exempted
preToken=bunch
preToken=takers
preToken=slogan
nicknamed
preToken=bang
preToken=enforced
enjoy
nextToken=Although
buckle
preToken=rubble
preToken=enthusiasm
preToken=Ravine
nextToken=single-A-2
nextToken=single-A-3
imply
preToken=explicitly
nextToken=single-A-1
preToken=Speaking
preToken=salesperson
preToken=balk
notified
preToken=O'Dwyer
preToken=checked
behaving
capitalize
nextToken=waging
prohibiting
preToken=Sihanouk
minimize
preToken=bags
preToken=sciences
nextToken=enable
preToken=Directors
gather
preToken=Lack
casts
nextToken=inducing
preToken=implications
preToken=Tigreans
selecting
nextToken=FK-506
preToken=jacked
nextToken=Maybe
nextToken=Receptech
preToken=envelope
preToken=Angelo
preToken=ferociously
carved
nextToken=maximize
preToken=specter
pouring
preToken=Calif
nextToken=Egypt
scaled
preToken=Greve
nextToken=hinder
preToken=Rosenthal
catching
preToken=belonging
preToken=Brotherhood
preToken=bundled
persuading
nextToken=housed
nextToken=9-11
formulating
graduated
preToken=routinely
preToken=Sheinberg
preToken=modestly
earmarked
preToken=Democracy
preToken=Sinfonia
preToken=Ethiopia
preToken=inclusion
stalked
cater
preToken=Digate
disappointingly
preToken=Ehrlich
nextToken=teen-agers
underpinned
nextToken=snagged
nextToken=Miss
denouncing
preToken=unrealistically
abruptly
nextToken=Cotton
preToken=cheat
preToken=Lingus
abate
sentenced
nextToken=Tenneco
preToken=cautiousness
preToken=Needless
muses
nextToken=efficiently
nextToken=Scandinavia
preToken=cheek
preToken=midafternoon
surpass
preToken=regroup
nextToken=fabricate
promoted
promotes
nextToken=impressionist
nextToken=persistency
preToken=adversely
preToken=Newcomb
lasted
nextToken=communism
preToken=infections
murky
preToken=start-ups
preToken=Based
preToken=Basel
preToken=Dryja
nextToken=Institut
preToken=Ousley
preToken=Fossey
scrapped
preToken=10.625
preToken=Prideaux
preToken=clipboard
preToken=tantamount
preToken=mistake
intimidating
nextToken=snubbing
dictated
diagnosed
escaping
preToken=appetite
Callable
preToken=firing
modernize
flirting
seemed
preToken=irrelevant
wandering
compensate
buttressed
preToken=discharge
preToken=arriving
follows
swayed
dreamed
preToken=replied
preToken=single-A-plus
nextToken=quacks
preToken=flee
preToken=Ireland
Currently
preToken=Lurie
bundled
liberalizing
preToken=parody
preToken=WASHINGTON
incurred
partially
preToken=flap
nextToken=non-GM
preToken=diversity
nextToken=Norberto
trimming
preToken=casings
suppose
incorrectly
preToken=covenants
seized
nextToken=serene
nextToken=overreacting
preToken=monologues
nextToken=fraudulently
preToken=Signore
preToken=exceptions
evidenced
matures
nextToken=Starpointe
According
dare
nextToken=chop
preToken=themes
nextToken=guided
nextToken=Dudley
preToken=Gras
preToken=rivets
confers
preToken=diversion
nextToken=Moliere
preToken=instrumental
distributing
preToken=casinos
preToken=intend
preToken=Millis
stampeded
preToken=reeled
nextToken=diversifying
preToken=Gatward
preToken=locks
preToken=presumption
preToken=Calvi
preToken=Disaster
preToken=co-owner
preToken=Caere
nextToken=tracing
preToken=earners
preToken=countersuit
preToken=Conservatives
disband
faced
nextToken=Chekhov
undone
nextToken=unmistakable
preToken=sticks
nextToken=accepting
preToken=Paluck
preToken=booths
occurring
preToken=prose
preToken=mincemeat
preToken=Brissette
preToken=Yeah
preToken=addition
nextToken=arrears
preToken=prowl
nextToken=placate
nextToken=fizzled
preToken=ladder
preToken=Jachmann
nextToken=Chile
confiscating
preToken=Essentially
preToken=Freon
preToken=splitting
preToken=sitcom
preToken=Scientology
accumulating
nextToken=subtracted
preToken=Sentelle
roiling
preToken=deliveries
enlist
gives
preToken=seldom
hailed
preToken=Pickering
disappointed
preToken=mentor
preToken=Bakes
hooked
nextToken=Siberia
preToken=explanation
preToken=Wonham
grows
Added
preToken=parlors
overseeing
nextToken=infuse
preToken=steadfastly
formulate
nextToken=10-11
encountered
preToken=courtyard
replace
nextToken=Orlando
nextToken=whipsawed
nextToken=repassed
eclipse
preToken=Porter
preToken=probes
nextToken=Mitsui
sustain
caved
nextToken=epilepsy
preToken=Scopes
preToken=unheard
nextToken=459.93
preToken=laugh
endorsing
preToken=inversely
preToken=coolants
preToken=odds
nextToken=NCNB
wisely
nextToken=chickens
nextToken=unaware
preToken=436,000
spark
preToken=metrics
preToken=careers
preToken=Monterrey
nextToken=Petco
nextToken=Pegasus
nextToken=double-A-3
preToken=flavors
preToken=Soren
correctly
preToken=Welfare
forbids
marching
nextToken=pummeled
preToken=blows
preToken=laboring
nextToken=Mass
preToken=blown
preToken=Wohlstetter
preToken=cling
nextToken=Maui
nextToken=Matt
preToken=Socialists
preToken=climb
heats
nextToken=Recent
preToken=cycads
efficiently
hops
nextToken=stymied
progressed
preToken=punishable
hears
progresses
leaning
hunky-dory
nextToken=Mame
heard
preToken=proceed
nextToken=Many
sought
preToken=clips
spawn
preToken=ACCOUNT
preToken=sprung
preToken=Delhi
preToken=spas
nextToken=Pittsburgh-based
preToken=irreparably
nextToken=Unificationist
preToken=Volatility
teaming
nextToken=Mayo
ought
designing
preToken=Reinhold
nextToken=Wednesdays
preToken=teamed
Seeking
nextToken=Since
preToken=garrison
preToken=oppression
thrashing
preToken=prone
preToken=tabloids
preToken=outfits
begging
preToken=Dixon
preToken=props
preToken=pessimism
preToken=apparatus
preToken=skeptics
nextToken=sharpen
consist
preToken=crumbled
nextToken=catching
preToken=pleasantries
enjoyable
quadrupled
violate
demonstrated
preToken=broadly
preToken=fist
preToken=impeached
nextToken=deuterium
nextToken=10.05
preToken=Trivelpiece
preToken=Baden-Wuerttemberg
nextToken=Apogee
demonstrates
nextToken=Jerell
nextToken=10.14
preToken=soul
misinterpret
preToken=sons
Maybe
preToken=Oberstar
nextToken=obstruction
preToken=discoveries
preToken=quadrupled
preToken=Borner
pulled
nextToken=stung
preToken=PRICES
nextToken=0.95
universally
nextToken=bolster
nextToken=0.71
preToken=detectors
nextToken=stamping
preToken=Lawsuits
preToken=replete
nextToken=0.88
preToken=inception
nextToken=assisting
preToken=infighting
preToken=administrator
accommodate
speak
preToken=Browning
preToken=nonsense
nextToken=blotting
implemented
preToken=Grano
preToken=Gramm
preToken=schizophrenia
maintaining
preToken=Gradually
negatively
nextToken=unofficially
undermine
louder
reverses
nextToken=Balcor
reversed
severed
maximize
preToken=tribute
hired
preToken=Payment
preToken=jolts
Basically
preToken=Applebaum
succeeded
nextToken=Mead
preToken=Ruvolo
preToken=permanently
broaden
nextToken=publish
preToken=airplanes
sixfold
donate
preToken=Jarrett
preToken=nicely
abolish
preToken=docudrama
preToken=offing
preToken=Collectibles
blazing
preToken=PegaSys
nextToken=helplessly
preToken=layer
preToken=symptoms
preToken=incomes
nextToken=furnish
preToken=bookings
broadly
preToken=consist
preToken=HOUSE
preToken=Kelley
preToken=tentatively
preToken=joints
preToken=Keller
preToken=COPPER
nextToken=Meet
traced
preToken=extensions
scuttled
preToken=lawmaker
preToken=Toney
preToken=nemesis
ruining
violated
nextToken=simmering
nextToken=Scudder
preToken=323s
violates
transferred
preToken=sterile
preToken=Governors
preToken=expenditures
nextToken=reconcile
preToken=Silvers
improves
invoke
preToken=Aside
punishable
preToken=buckets
preToken=Starr
preToken=Stark
preToken=clerks
preToken=sided
exclusively
preToken=E-mail
nextToken=NEWS
preToken=single-B-minus
nextToken=Sooraji
B-3
recounts
likewise
preToken=snag
preToken=oath
nextToken=matter-of-factly
preToken=Stals
preToken=backlogs
preToken=barons
preToken=Drugs
nextToken=Southland
nextToken=warranties
preToken=Stapf
preToken=ambivalence
stood
preToken=posturing
deny
nextToken=dispose
miserable
preToken=Goliaths
nextToken=popping
preToken=Steelmakers
ARE
preToken=Carr
preToken=tenure
enhances
nextToken=verbatim
preToken=machetes
preToken=bullhorns
preToken=Leblang
preToken=diversions
preToken=destined
wished
preToken=parlance
preToken=Sherry
preToken=eyebrow
preToken=crackdown
preToken=Legislature
stole
preToken=spokeswoman
preToken=Pettee
preToken=Stahl
interspersed
nextToken=0.53
nextToken=0.59
preToken=adjusters
nextToken=0.32
preToken=watchers
nextToken=Intercontinental
nextToken=0.45
nextToken=quack
preToken=alleges
nextToken=0.10
nextToken=0.13
nextToken=0.19
preToken=Drivon
nextToken=0.15
preToken=Dodgers
nextToken=0.17
preToken=vendetta
constrain
nextToken=0.24
preToken=hostage
preToken=Finks
preToken=anti-competitive
preToken=Gorillas
nextToken=mobilize
carried
tailor-made
preToken=mistrial
nextToken=0.01
carries
nextToken=0.02
nextToken=0.03
nextToken=0.05
misinterpreted
preToken=Caa
unavailable
preToken=redistribution
spreading
dismayed
preToken=strictly
nextToken=withdrawing
evaporate
preToken=Schimmel
preToken=subsided
Add
straining
Probing
amounted
preToken=buffs
suffered
besides
preToken=Houston-Montgomery
nextToken=incoming
preToken=so-so
enjoined
preToken=glitch
preToken=fanatics
raging
embody
preToken=casualties
preToken=peers
plotting
preToken=Savaiko
reminds
nextToken=discharges
adjusts
nextToken=Cara
preToken=Donohoo
preToken=invitation
Nonetheless
preToken=clumps
nextToken=property-casualty
preToken=horns
preToken=ability
resurrect
hindering
quack
preToken=listened
preToken=listener
preToken=instance
specializes
preToken=31\/32
nextToken=seeing
nextToken=Call
preToken=blockade
fatten
preToken=cashed
preToken=dissent
defines
reassert
preToken=commanders
defined
swells
clouded
creating
infringe
reckons
nextToken=276,334
nextToken=back-ups
nextToken=work-rule
torture
preToken=diverted
reassess
slapped
punishing
preToken=76,000
nextToken=oath
preToken=primed
nextToken=cyclosporine
preToken=graduation
preToken=Wales
preToken=slum
nextToken=worthless
nextToken=Shimizu
preToken=flocked
nextToken=ex-dividend
preToken=apologists
preToken=Guttman
regulate
nextToken=immediacy
preToken=soldier
enter
preToken=Scottsdale
preToken=slogans
preToken=filibuster
preToken=sandwiches
preToken=markka
preToken=decisively
fetch
outlines
preToken=drillers
outlined
preToken=Grapes
preToken=malls
nextToken=8.475
preToken=Marinaro
preToken=uniforms
envision
guarded
possessing
preToken=Scorpios
exonerated
preToken=defections
preToken=Farrell
underline
preToken=Roulac
nextToken=8.292
preToken=foreclosures
preToken=275,000
preToken=Ba3
nextToken=completing
preToken=avenue
compare
undemocratic
nextToken=spearheaded
preToken=advertisements
unlike
withdrawing
astride
constrained
nextToken=behave
taught
preToken=slew
preToken=inning
remained
preToken=lathes
preToken=Alternatively
Translated
preToken=CDC
preToken=trappings
preToken=requests
preToken=microprocessors
preToken=curator
preToken=Weekes
dearly
recalculating
nextToken=2008-2009
characterized
Altogether
preToken=Schramm
preToken=effectively
preToken=D.C
preToken=Transvaal
preToken=Muramatsu
recanted
preToken=CO.
preToken=rides
preToken=rider
nextToken=expressing
preToken=Installation
Walk
suppressed
eloquently
preToken=journals
conspired
nextToken=Masahiro
preToken=pretext
remember
preToken=feud
nextToken=enhance
nextToken=steer
legitimize
nextToken=Immunex
nextToken=7.962
preToken=collapses
expressing
preToken=workweek
preToken=openings
preToken=fend
nextToken=6\/2
Whether
nextToken=7.986
preToken=CSC
foresees
nextToken=steal
foreseen
nextToken=Kyle
preToken=appropriators
preToken=frames
preToken=poetry
nextToken=34,000
nextToken=8.325
preToken=Pell
preToken=kiddies
nextToken=crippled
preToken=assortment
nextToken=schizophrenic
preToken=springing
preToken=communicate
preToken=CWA
preToken=Certificates
preToken=showers
preToken=Penh
preToken=proponent
preToken=usefulness
nextToken=8.337
rebounded
exaggerate
preToken=height
nextToken=31.9
nextToken=Automatic
spend
nextToken=perilously
Since
preToken=averages
preToken=Montgoris
fabricate
preToken=go-ahead
awaiting
preToken=Tomlin
nextToken=steeply
preToken=2662.91
preToken=rigor
preToken=balked
nextToken=Winnebago
hamstrung
preToken=skis
preToken=stranded
preToken=rooftops
preToken=16.95
stung
preToken=Telzrow
preToken=sightings
Meanwhile
skyrocketed
preToken=survival
preToken=skid
preToken=ultimatum
preToken=commercialization
preToken=initiatives
kindly
entombed
fails
nextToken=smashed
preToken=jewels
preToken=Officials
preToken=awry
occurs
preToken=single-A
preToken=squeamish
nextToken=Hawaiian
preToken=Nobody
preToken=landings
preToken=blowing
preToken=Grants
nextToken=grips
preToken=percentages
preToken=Unknown
updating
preToken=co-sponsored
articulate
preToken=Age
preToken=Tenders
preToken=BIP
represented
preToken=empathize
preToken=appropriateness
preToken=groundwork
preToken=publishers
preToken=Zarett
preToken=Kluge
nextToken=legitimize
preToken=Separately
preToken=Ala
nextToken=evidenced
preToken=BMW
preToken=suburbs
preToken=Cholet
preToken=Lavery
arriving
openly
preToken=mania
nextToken=solving
reconstruct
preToken=Ark
preToken=derided
preToken=variations
preToken=pointing
nextToken=solicit
occupy
nextToken=family-run
nextToken=small-scale
Alternatively
preToken=scrambled
preToken=leagues
preToken=Equally
Within
nextToken=augment
preToken=rebellion
beefed
intensify
preToken=Officially
totaling
preToken=euphemisms
nextToken=erupt
preToken=Willman
indebted
preToken=Germeten
preToken=memories
originated
provoke
exercisable
preToken=3.10
produces
nextToken=vogue
preToken=vacationers
died
dies
preToken=comfortably
nextToken=disdain
voted
blowing
unanimously
preToken=infringing
nextToken=91-day
implying
preToken=revival
nextToken=extorting
preToken=hurricanes
preToken=praying
Did
preToken=anguish
nextToken=Prop.
intervened
nextToken=withstand
inexplicably
nextToken=Alvin
preToken=hoses
preToken=shaped
nextToken=prejudiced
Unable
nextToken=Managua
contend
nextToken=Asians
preToken=ADS
preToken=Nakamura
talked
preToken=AEW
preToken=pioneers
preToken=Spokesmen
nextToken=retreating
Frankly
preToken=Accords
preToken=profit-taking
nextToken=inform
preToken=AIW
nextToken=enlightening
preToken=flashed
slashing
preToken=antacid
preToken=flourish
preToken=Swavely
liberalized
preToken=B-3
nextToken=whoever
preToken=nests
preToken=sins
frightened
preToken=contamination
approving
nextToken=overpaid
preToken=Gilmore
preToken=favorably
preToken=broker-dealers
preToken=757-200s
praying
preToken=Ginn
nextToken=thoroughly
surrounded
nextToken=awaiting
preToken=lineup
preToken=donors
preToken=disproportionately
bucking
nextToken=8.575
preToken=policyholders
nextToken=attain
preToken=clauses
create
preToken=sift
preToken=sigh
nextToken=tapping
salvaged
preToken=Pressed
challenged
preToken=reinforcements
nextToken=2,250,000
nextToken=forgotten
Adds
preToken=editions
squeamish
preToken=assent
recognizes
preToken=O'Connell
preToken=Kimmel
rejecting
preToken=joke
preToken=sentences
nextToken=realign
nextToken=despair
dragging
nextToken=Toni
nextToken=disingenuous
preToken=collectibles
FOR
preToken=motivation
remarked
simmering
preToken=peaks
preToken=unites
preToken=Mubarak
wrestle
nextToken=unregistered
preToken=starters
preToken=delisting
preToken=credentials
debating
preToken=aunt
preToken=copies
nextToken=Marty
flashed
preToken=copied
nextToken=disinclined
preToken=dreams
nextToken=Give
vigorously
retrofit
nextToken=cared
favorably
preToken=Todt
nextToken=destined
nextToken=Norwest
discussed
preToken=wrongdoing
nextToken=straighten
preToken=prosecutions
irked
nextToken=Molokai
preToken=diaries
whipping
preToken=flowed
dispense
preToken=Crowe
nextToken=slashing
preToken=Dillmann
convey
preToken=rebounds
preToken=Panelli
preToken=pinch
nextToken=Armonk
discussing
earns
Running
huddled
preToken=fashions
nextToken=begging
nextToken=previews
disclose
preToken=enhancements
nextToken=girding
anymore
preToken=Redstone
nextToken=Results
nextToken=loathed
citing
rattle
overhauling
nextToken=Spendthrift
denying
nextToken=Internet
preToken=stranger
nextToken=Oracle
unload
preToken=Helsinki
nextToken=implying
preToken=backgrounds
preToken=Keenan
preToken=counters
vowed
preToken=surpluses
preToken=complied
preToken=Luber
repeatedly
tapping
straighten
preToken=aloft
nextToken=Indeed
preToken=limitations
preToken=drinks
preToken=impetus
preToken=dissolution
nextToken=overhauling
nextToken=McKinsey
nextToken=excluding
preToken=coupled
preToken=disagree
preToken=excluded
preToken=ASSOCIATION
disregarded
preToken=favorites
preToken=drills
preToken=abducted
preToken=constitution
lurched
meet
putting
nextToken=plotting
preToken=Buzzell
spurned
nextToken=reconsidered
For
preToken=Fla
preToken=Megargel
preToken=Shrontz
preToken=novelist
swallowed
preToken=commonwealth
preToken=allusions
nextToken=Garland
preToken=hitches
nextToken=stirs
nextToken=non-subscription
preToken=Yamatake-Honeywell
melt
preToken=registrations
surpassed
preToken=schoolteacher
preToken=Christians
reached
curtailed
preToken=homer
preToken=exodus
shielded
generalize
nextToken=dentists
preToken=fate
nextToken=low-interest
Were
preToken=advent
regardless
relaxing
preToken=disappointingly
nextToken=home-improvement
shocked
preToken=pills
preToken=anymore
preToken=fetchingly
preToken=Simonds-Gooding
nextToken=Stevric
necessitated
Starting
plows
preToken=fame
faked
HAS
preToken=Affair
crumble
preToken=Page
streamed
impassively
preToken=Grauer
jumped
preToken=Ritterman
envisioned
calculating
nextToken=pineapple
preToken=coping
professed
spins
nextToken=Waterbury
nextToken=confined
preToken=quotas
nextToken=intelligent
nextToken=crunchier
Get
preToken=Murasawa
preToken=clamp
nextToken=obligated
preToken=Crestmont
boldly
preToken=HAS
nextToken=swayed
preToken=Paev
preToken=acted
preToken=biography
nextToken=Cervantes
preToken=clash
nextToken=morally
preToken=Ukraine
preToken=Einhorn
nextToken=Todd
preToken=Lucio
underscores
fleeing
underscored
properly
nextToken=Suggestion
preToken=cereals
preToken=Together
Got
nextToken=abate
preToken=masquerading
nextToken=eschewed
preToken=peasants
accede
preToken=storytelling
preToken=adroitly
Predictably
preToken=complications
preToken=profession
joining
preToken=jocks
searching
nextToken=safely
nextToken=skip
preToken=smile
preToken=degree
shunning
experiencing
preToken=Ely
preToken=thumb
preToken=readership
patronizing
preToken=stopper
preToken=buddy
nextToken=SoundView
Including
smashed
preToken=Treasurys
preToken=coupons
preToken=liable
absorbed
preToken=sagged
preToken=accountability
nextToken=construed
preToken=ruined
preToken=specifications
nextToken=closed-circuit
nextToken=fend
facilitate
preToken=object
nextToken=courting
preToken=budge
looked
nextToken=Maury
preToken=crashes
compiling
preToken=Pimlott
preToken=Yields
preToken=batches
frequently
preToken=cascade
nextToken=peanuts
nextToken=Inspectorate
Had
nextToken=enjoyable
preToken=Eye
defraud
prosecuted
planted
preToken=pedal
vanished
suddenly
preToken=Broker
poured
preToken=validity
nextToken=constructing
nextToken=obliged
preToken=Hartley
nextToken=Beaverton
Hit
preToken=prize
forgiven
eaten
preToken=piped
nextToken=separated
preToken=Maronites
preToken=rendered
nextToken=Tibet
nextToken=Glen
nextToken=commercializing
preToken=innocents
preToken=retrieved
nextToken=3.26
contain
founded
preToken=UNIX
preToken=Dad
performs
nextToken=Representatives
